-0.0512,0.4220827789859689,0.01190829481313377
-0.0511875,0.4220827789859691,0.01190829481313377
-0.051175,0.4224209111026931,0.01190829481313377
-0.0511625,0.4220827789859689,0.01190829481313377
-0.05115,0.4224209111026931,0.01190829481313377
-0.0511375,0.4220827789859689,0.01190829481313377
-0.051125,0.4227590432194172,0.01190829481313377
-0.0511125,0.4227590432194172,0.01190829481313377
-0.0511,0.4224209111026931,0.01190829481313377
-0.0510875,0.4224209111026931,0.01157194406841983
-0.051075,0.4227590432194172,0.01190829481313377
-0.0510625,0.4230971753361412,0.01157194406841983
-0.05105,0.4227590432194172,0.01157194406841983
-0.0510375,0.4227590432194172,0.01157194406841983
-0.051025,0.4227590432194172,0.01190829481313377
-0.0510125,0.4230971753361414,0.01157194406841983
-0.051,0.4230971753361414,0.01190829481313377
-0.0509875,0.4230971753361414,0.01190829481313377
-0.050975,0.4234353074528656,0.01190829481313377
-0.0509625,0.4230971753361414,0.01190829481313377
-0.05095,0.4230971753361414,0.01190829481313377
-0.0509375,0.4234353074528656,0.01157194406841998
-0.050925,0.4234353074528656,0.01190829481313377
-0.0509125,0.4230971753361414,0.01190829481313377
-0.0509,0.4234353074528656,0.01190829481313377
-0.0508875,0.4234353074528656,0.01190829481313377
-0.050875,0.4234353074528656,0.01190829481313377
-0.0508625,0.4234353074528656,0.01190829481313377
-0.05085,0.4237734395695897,0.01190829481313377
-0.0508375,0.4234353074528656,0.01190829481313377
-0.050825,0.4237734395695897,0.01190829481313377
-0.0508125,0.4234353074528657,0.01190829481313377
-0.0508,0.4237734395695897,0.01190829481313377
-0.0507875,0.4237734395695897,0.01190829481313377
-0.050775,0.4241115716863139,0.01190829481313377
-0.0507625,0.4237734395695897,0.01190829481313377
-0.05075,0.4241115716863137,0.01190829481313377
-0.0507375,0.424449703803038,0.01190829481313377
-0.050725,0.4241115716863139,0.01190829481313377
-0.0507125,0.424449703803038,0.01157194406841983
-0.0507,0.4241115716863139,0.01190829481313377
-0.0506875,0.4241115716863139,0.01190829481313377
-0.050675,0.424449703803038,0.01190829481313377
-0.0506625,0.424449703803038,0.01190829481313377
-0.05065,0.424449703803038,0.01190829481313377
-0.0506375,0.424449703803038,0.01190829481313377
-0.050625,0.424449703803038,0.01190829481313377
-0.0506125,0.424449703803038,0.01190829481313377
-0.0506,0.424449703803038,0.01157194406841983
-0.0505875,0.424449703803038,0.01190829481313377
-0.050575,0.424449703803038,0.01157194406841983
-0.0505625,0.424787835919762,0.01190829481313361
-0.05055,0.4247878359197622,0.01190829481313377
-0.0505375,0.4247878359197622,0.01190829481313377
-0.050525,0.4247878359197622,0.01157194406841983
-0.0505125,0.4247878359197622,0.01190829481313377
-0.0505,0.4251259680364862,0.01157194406841998
-0.0504875,0.4251259680364863,0.01190829481313377
-0.050475,0.4251259680364863,0.01190829481313377
-0.0504625,0.4251259680364863,0.01190829481313377
-0.05045,0.4251259680364863,0.01157194406841983
-0.0504375,0.4251259680364863,0.01157194406841983
-0.050425,0.4251259680364863,0.01190829481313377
-0.0504125,0.4254641001532105,0.01190829481313377
-0.0504,0.4254641001532105,0.01157194406841983
-0.0503875,0.4254641001532105,0.01190829481313377
-0.050375,0.4254641001532105,0.01190829481313377
-0.0503625,0.4258022322699347,0.01190829481313377
-0.05035,0.4254641001532105,0.01190829481313377
-0.0503375,0.4258022322699347,0.01190829481313377
-0.050325,0.4258022322699347,0.01190829481313377
-0.0503125,0.4258022322699347,0.01190829481313377
-0.0503,0.4258022322699347,0.01190829481313377
-0.0502875,0.4261403643866589,0.01190829481313377
-0.050275,0.4258022322699347,0.01157194406841983
-0.0502625,0.4261403643866589,0.01190829481313377
-0.05025,0.4258022322699349,0.01190829481313377
-0.0502375,0.4261403643866589,0.01190829481313377
-0.050225,0.4261403643866589,0.01190829481313377
-0.0502125,0.426478496503383,0.01190829481313377
-0.0502,0.4261403643866589,0.01190829481313377
-0.0501875,0.4268166286201068,0.01157194406841998
-0.050175,0.426478496503383,0.01190829481313377
-0.0501625,0.426478496503383,0.01190829481313377
-0.05015,0.426478496503383,0.01190829481313377
-0.0501375,0.426478496503383,0.01190829481313377
-0.050125,0.426478496503383,0.01190829481313377
-0.0501125,0.4268166286201072,0.01190829481313377
-0.0501,0.4268166286201072,0.01190829481313377
-0.0500875,0.4268166286201072,0.01190829481313377
-0.050075,0.4268166286201072,0.01157194406841983
-0.0500625,0.4268166286201072,0.01157194406841983
-0.05005,0.4271547607368313,0.01190829481313377
-0.0500375,0.4271547607368313,0.01157194406841983
-0.050025,0.4271547607368313,0.01190829481313377
-0.0500125,0.4268166286201072,0.01190829481313377
-0.05,0.4271547607368313,0.01190829481313377
-0.0499875,0.4271547607368313,0.01190829481313377
-0.049975,0.4274928928535555,0.01190829481313377
-0.0499625,0.4274928928535555,0.01190829481313377
-0.04995,0.4271547607368313,0.01190829481313377
-0.0499375,0.4274928928535555,0.01157194406841983
-0.049925,0.4274928928535555,0.01190829481313377
-0.0499125,0.4274928928535555,0.01190829481313377
-0.0499,0.4274928928535555,0.01190829481313377
-0.0498875,0.4274928928535555,0.01190829481313377
-0.049875,0.4274928928535555,0.01157194406841983
-0.0498625,0.4278310249702796,0.01190829481313377
-0.04985,0.4278310249702796,0.01190829481313377
-0.0498375,0.4278310249702796,0.01190829481313377
-0.049825,0.4278310249702796,0.01190829481313377
-0.0498125,0.4281691570870038,0.01157194406841983
-0.0498,0.4278310249702796,0.01157194406841983
-0.0497875,0.4278310249702796,0.01157194406841983
-0.049775,0.4281691570870038,0.01190829481313377
-0.0497625,0.4278310249702796,0.01190829481313377
-0.04975,0.4281691570870038,0.01190829481313377
-0.0497375,0.4281691570870038,0.01190829481313377
-0.049725,0.4281691570870038,0.01190829481313377
-0.0497125,0.4281691570870038,0.01190829481313377
-0.0497,0.428507289203728,0.01190829481313377
-0.0496875,0.428507289203728,0.01190829481313377
-0.049675,0.428507289203728,0.01190829481313377
-0.0496625,0.428507289203728,0.01190829481313377
-0.04965,0.4288454213204521,0.01190829481313377
-0.0496375,0.428507289203728,0.01190829481313377
-0.049625,0.4288454213204521,0.01190829481313377
-0.0496125,0.4288454213204521,0.01190829481313377
-0.0496,0.4288454213204521,0.01190829481313377
-0.0495875,0.4288454213204521,0.01190829481313377
-0.049575,0.4288454213204521,0.01190829481313377
-0.0495625,0.4288454213204521,0.01157194406841983
-0.04955,0.4288454213204523,0.01157194406841983
-0.0495375,0.4291835534371763,0.01157194406841983
-0.049525,0.4291835534371763,0.01157194406841983
-0.0495125,0.4291835534371763,0.01190829481313377
-0.0495,0.4291835534371763,0.01190829481313377
-0.0494875,0.4291835534371763,0.01190829481313377
-0.049475,0.4291835534371763,0.01190829481313377
-0.0494625,0.4291835534371763,0.01157194406841983
-0.04945,0.4291835534371763,0.01190829481313377
-0.0494375,0.4291835534371763,0.01190829481313377
-0.049425,0.4295216855539005,0.01157194406841983
-0.0494125,0.4295216855539005,0.01157194406841983
-0.0494,0.4295216855539005,0.01157194406841983
-0.0493875,0.4295216855539005,0.01190829481313377
-0.049375,0.4295216855539005,0.01157194406841983
-0.0493625,0.4298598176706246,0.01190829481313361
-0.04935,0.4298598176706246,0.01157194406841983
-0.0493375,0.4298598176706246,0.01190829481313377
-0.049325,0.4298598176706246,0.01190829481313377
-0.0493125,0.4301979497873488,0.01190829481313377
-0.0493,0.4301979497873488,0.01190829481313377
-0.0492875,0.4301979497873488,0.01190829481313377
-0.049275,0.4301979497873488,0.0122446455578477
-0.0492625,0.4301979497873488,0.01190829481313377
-0.04925,0.4301979497873488,0.01190829481313377
-0.0492375,0.4305360819040731,0.01190829481313377
-0.049225,0.4308742140207971,0.01190829481313377
-0.0492125,0.4305360819040729,0.01190829481313377
-0.0492,0.4301979497873488,0.01190829481313377
-0.0491875,0.4305360819040729,0.01190829481313377
-0.049175,0.4305360819040729,0.01190829481313377
-0.0491625,0.4305360819040729,0.01190829481313377
-0.04915,0.4308742140207971,0.0122446455578477
-0.0491375,0.4308742140207971,0.01190829481313377
-0.049125,0.4308742140207971,0.01190829481313377
-0.0491125,0.4308742140207971,0.01190829481313377
-0.0491,0.4312123461375212,0.0122446455578477
-0.0490875,0.4308742140207971,0.01190829481313377
-0.049075,0.4308742140207971,0.01190829481313377
-0.0490625,0.4312123461375212,0.01190829481313377
-0.04905,0.4312123461375212,0.01190829481313377
-0.0490375,0.4312123461375212,0.01190829481313377
-0.049025,0.4312123461375212,0.01190829481313377
-0.0490125,0.4312123461375212,0.01157194406841983
-0.049,0.4312123461375212,0.01190829481313377
-0.0489875,0.4315504782542453,0.01190829481313377
-0.048975,0.4315504782542454,0.01190829481313377
-0.0489625,0.4318886103709696,0.01157194406841983
-0.04895,0.4315504782542454,0.01190829481313377
-0.0489375,0.4315504782542454,0.01190829481313377
-0.048925,0.4315504782542454,0.01190829481313377
-0.0489125,0.4318886103709696,0.01190829481313377
-0.0489,0.4315504782542454,0.01190829481313377
-0.0488875,0.4318886103709696,0.01190829481313377
-0.048875,0.4318886103709696,0.01190829481313377
-0.0488625,0.4318886103709696,0.01190829481313377
-0.04885,0.4318886103709696,0.01190829481313377
-0.0488375,0.4322267424876938,0.01190829481313377
-0.048825,0.4318886103709696,0.01190829481313377
-0.0488125,0.4322267424876938,0.01190829481313377
-0.0488,0.4322267424876938,0.01190829481313377
-0.0487875,0.4322267424876938,0.01190829481313377
-0.048775,0.4325648746044179,0.01157194406841983
-0.0487625,0.4325648746044179,0.01190829481313377
-0.04875,0.4325648746044179,0.01190829481313377
-0.0487375,0.4325648746044179,0.01224464555784755
-0.048725,0.4325648746044179,0.01190829481313377
-0.0487125,0.4325648746044179,0.01190829481313377
-0.0487,0.4325648746044179,0.01190829481313377
-0.0486875,0.4325648746044179,0.01190829481313377
-0.048675,0.4325648746044179,0.01190829481313377
-0.0486625,0.4329030067211421,0.01190829481313377
-0.04865,0.4329030067211421,0.01190829481313377
-0.0486375,0.4329030067211421,0.01190829481313377
-0.048625,0.4329030067211421,0.01190829481313377
-0.0486125,0.4329030067211421,0.01190829481313377
-0.0486,0.4329030067211421,0.01190829481313377
-0.0485875,0.4332411388378662,0.01190829481313377
-0.048575,0.4332411388378662,0.01190829481313377
-0.0485625,0.4335792709545904,0.01190829481313377
-0.04855,0.4332411388378664,0.01157194406841998
-0.0485375,0.4332411388378662,0.01190829481313377
-0.048525,0.4332411388378662,0.01190829481313377
-0.0485125,0.4332411388378662,0.01157194406841983
-0.0485,0.4332411388378662,0.01190829481313377
-0.0484875,0.4335792709545904,0.01190829481313377
-0.048475,0.4335792709545904,0.01190829481313377
-0.0484625,0.4335792709545904,0.01190829481313377
-0.04845,0.4335792709545904,0.01190829481313377
-0.0484375,0.4339174030713145,0.01190829481313377
-0.048425,0.4335792709545904,0.01190829481313377
-0.0484125,0.4339174030713145,0.01190829481313377
-0.0484,0.4335792709545904,0.01190829481313377
-0.0483875,0.4339174030713145,0.01190829481313377
-0.048375,0.4339174030713145,0.01190829481313377
-0.0483625,0.4339174030713145,0.01190829481313377
-0.04835,0.4339174030713147,0.01190829481313377
-0.0483375,0.4342555351880387,0.01190829481313377
-0.048325,0.4339174030713145,0.01190829481313377
-0.0483125,0.4339174030713145,0.01190829481313377
-0.0483,0.4342555351880387,0.01190829481313377
-0.0482875,0.4342555351880389,0.01190829481313377
-0.048275,0.4345936673047629,0.01190829481313377
-0.0482625,0.4345936673047629,0.01157194406841983
-0.04825,0.4345936673047629,0.01157194406841983
-0.0482375,0.4345936673047629,0.01157194406841983
-0.048225,0.4345936673047629,0.01190829481313377
-0.0482125,0.4345936673047629,0.01190829481313377
-0.0482,0.4345936673047629,0.01190829481313377
-0.0481875,0.434931799421487,0.01157194406841983
-0.048175,0.4345936673047629,0.01190829481313377
-0.0481625,0.4349317994214869,0.01190829481313377
-0.04815,0.4345936673047629,0.01190829481313377
-0.0481375,0.434931799421487,0.01190829481313377
-0.048125,0.4352699315382112,0.01190829481313377
-0.0481125,0.434931799421487,0.01190829481313377
-0.0481,0.434931799421487,0.01190829481313361
-0.0480875,0.434931799421487,0.01157194406841983
-0.048075,0.4352699315382112,0.01190829481313377
-0.0480625,0.4352699315382112,0.01190829481313377
-0.04805,0.4352699315382112,0.0122446455578477
-0.0480375,0.4352699315382114,0.01190829481313377
-0.048025,0.4356080636549354,0.01190829481313377
-0.0480125,0.4352699315382112,0.01190829481313377
-0.048,0.4356080636549354,0.01190829481313377
-0.0479875,0.4356080636549354,0.01157194406841983
-0.047975,0.4359461957716593,0.01190829481313361
-0.0479625,0.4356080636549354,0.01157194406841983
-0.04795,0.4356080636549354,0.01190829481313377
-0.0479375,0.4356080636549354,0.01190829481313377
-0.047925,0.4359461957716595,0.01190829481313377
-0.0479125,0.4356080636549355,0.01190829481313377
-0.0479,0.4359461957716595,0.01190829481313377
-0.0478875,0.4356080636549354,0.01190829481313377
-0.047875,0.4359461957716595,0.01190829481313377
-0.0478625,0.4362843278883837,0.01190829481313377
-0.04785,0.4359461957716595,0.01190829481313377
-0.0478375,0.4359461957716595,0.01190829481313377
-0.047825,0.4362843278883837,0.01157194406841983
-0.0478125,0.4362843278883837,0.01190829481313377
-0.0478,0.4362843278883837,0.01190829481313377
-0.0477875,0.4359461957716597,0.01190829481313377
-0.047775,0.4362843278883837,0.01190829481313377
-0.0477625,0.4359461957716595,0.01190829481313377
-0.04775,0.4362843278883837,0.01190829481313377
-0.0477375,0.4362843278883837,0.0122446455578477
-0.047725,0.4366224600051078,0.01190829481313377
-0.0477125,0.4366224600051078,0.01190829481313377
-0.0477,0.4366224600051078,0.01190829481313377
-0.0476875,0.4366224600051078,0.0122446455578477
-0.047675,0.436960592121832,0.01157194406841983
-0.0476625,0.436960592121832,0.01190829481313377
-0.04765,0.436960592121832,0.01190829481313377
-0.0476375,0.4366224600051078,0.01157194406841983
-0.047625,0.4372987242385561,0.01190829481313377
-0.0476125,0.436960592121832,0.0122446455578477
-0.0476,0.437298724238556,0.01190829481313392
-0.0475875,0.436960592121832,0.0122446455578477
-0.047575,0.4372987242385561,0.01190829481313377
-0.0475625,0.436960592121832,0.01190829481313377
-0.04755,0.4372987242385561,0.01190829481313377
-0.0475375,0.4372987242385561,0.01190829481313377
-0.047525,0.4372987242385561,0.01190829481313377
-0.0475125,0.4376368563552803,0.01190829481313377
-0.0475,0.4372987242385561,0.0122446455578477
-0.0474875,0.4376368563552803,0.01190829481313377
-0.047475,0.4376368563552803,0.01190829481313377
-0.0474625,0.4376368563552803,0.01190829481313377
-0.04745,0.4379749884720045,0.01190829481313377
-0.0474375,0.4376368563552803,0.01190829481313377
-0.047425,0.4376368563552803,0.01190829481313377
-0.0474125,0.4376368563552803,0.01190829481313377
-0.0474,0.4376368563552803,0.01190829481313377
-0.0473875,0.4379749884720045,0.01190829481313377
-0.047375,0.4379749884720045,0.01190829481313377
-0.0473625,0.4379749884720045,0.01190829481313377
-0.04735,0.4379749884720045,0.01190829481313377
-0.0473375,0.4379749884720045,0.01190829481313377
-0.047325,0.4379749884720045,0.01157194406841983
-0.0473125,0.4379749884720045,0.01190829481313377
-0.0473,0.4379749884720045,0.01190829481313377
-0.0472875,0.4383131205887285,0.01157194406841998
-0.047275,0.4383131205887287,0.01190829481313377
-0.0472625,0.4383131205887287,0.01190829481313377
-0.04725,0.4383131205887287,0.01190829481313377
-0.0472375,0.4386512527054528,0.01157194406841983
-0.047225,0.4383131205887288,0.01157194406841983
-0.0472125,0.438989384822177,0.01157194406841983
-0.0472,0.438989384822177,0.01190829481313377
-0.0471875,0.438989384822177,0.01190829481313377
-0.047175,0.438989384822177,0.01190829481313377
-0.0471625,0.438651252705453,0.01190829481313377
-0.04715,0.438989384822177,0.01190829481313377
-0.0471375,0.438989384822177,0.01190829481313377
-0.047125,0.438989384822177,0.01190829481313377
-0.0471125,0.438989384822177,0.01157194406841983
-0.0471,0.439327516938901,0.01157194406841983
-0.0470875,0.438989384822177,0.01157194406841983
-0.047075,0.438989384822177,0.01190829481313377
-0.0470625,0.4393275169389012,0.01190829481313377
-0.04705,0.4393275169389012,0.01190829481313377
-0.0470375,0.4396656490556251,0.01190829481313377
-0.047025,0.4393275169389012,0.01190829481313377
-0.0470125,0.4396656490556253,0.01190829481313377
-0.047,0.4393275169389012,0.01190829481313377
-0.0469875,0.4396656490556253,0.01190829481313377
-0.046975,0.4396656490556253,0.01190829481313377
-0.0469625,0.4396656490556253,0.01190829481313377
-0.04695,0.4396656490556253,0.01190829481313377
-0.0469375,0.4400037811723495,0.01190829481313377
-0.046925,0.4396656490556253,0.01190829481313377
-0.0469125,0.4400037811723495,0.01190829481313377
-0.0469,0.4400037811723495,0.01190829481313377
-0.0468875,0.4403419132890736,0.01190829481313377
-0.046875,0.4403419132890736,0.01190829481313377
-0.0468625,0.4400037811723495,0.01190829481313377
-0.04685,0.4400037811723495,0.01190829481313377
-0.0468375,0.4403419132890736,0.01190829481313377
-0.046825,0.4400037811723495,0.01190829481313377
-0.0468125,0.4403419132890736,0.01190829481313377
-0.0468,0.4403419132890736,0.01190829481313377
-0.0467875,0.4406800454057978,0.01190829481313377
-0.046775,0.4403419132890736,0.01190829481313377
-0.0467625,0.4403419132890736,0.01190829481313377
-0.04675,0.4406800454057978,0.01190829481313377
-0.0467375,0.4406800454057978,0.01190829481313377
-0.046725,0.4403419132890736,0.01190829481313377
-0.0467125,0.4406800454057978,0.01190829481313377
-0.0467,0.4406800454057978,0.01190829481313377
-0.0466875,0.4406800454057978,0.01190829481313377
-0.046675,0.4406800454057978,0.01190829481313377
-0.0466625,0.4406800454057978,0.01157194406841983
-0.04665,0.4406800454057978,0.01190829481313377
-0.0466375,0.4406800454057978,0.01190829481313377
-0.046625,0.4410181775225219,0.01157194406841983
-0.0466125,0.4413563096392461,0.01190829481313377
-0.0466,0.4410181775225219,0.01157194406841983
-0.0465875,0.4413563096392459,0.01157194406841998
-0.046575,0.4410181775225219,0.01190829481313377
-0.0465625,0.4416944417559703,0.01157194406841983
-0.04655,0.4413563096392461,0.01190829481313377
-0.0465375,0.4413563096392461,0.01190829481313377
-0.046525,0.4413563096392461,0.01190829481313377
-0.0465125,0.4413563096392461,0.01190829481313377
-0.0465,0.4413563096392461,0.01190829481313377
-0.0464875,0.4413563096392461,0.01190829481313377
-0.046475,0.4413563096392461,0.01190829481313377
-0.0464625,0.4413563096392463,0.01190829481313377
-0.04645,0.4416944417559703,0.01190829481313377
-0.0464375,0.4413563096392461,0.01190829481313377
-0.046425,0.4416944417559703,0.01190829481313377
-0.0464125,0.4416944417559703,0.01190829481313377
-0.0464,0.4420325738726943,0.01190829481313377
-0.0463875,0.4416944417559703,0.01190829481313377
-0.046375,0.4416944417559703,0.01190829481313377
-0.0463625,0.4420325738726945,0.01190829481313377
-0.04635,0.4420325738726945,0.01190829481313377
-0.0463375,0.4420325738726946,0.01190829481313377
-0.046325,0.4423707059894186,0.01190829481313377
-0.0463125,0.4423707059894186,0.01190829481313377
-0.0463,0.4423707059894186,0.01190829481313377
-0.0462875,0.4423707059894186,0.01190829481313377
-0.046275,0.4423707059894186,0.01190829481313377
-0.0462625,0.4423707059894186,0.01190829481313377
-0.04625,0.4427088381061428,0.01190829481313377
-0.0462375,0.4427088381061428,0.01190829481313377
-0.046225,0.4427088381061428,0.01190829481313377
-0.0462125,0.4423707059894187,0.01190829481313377
-0.0462,0.4427088381061428,0.01190829481313377
-0.0461875,0.4430469702228669,0.01190829481313377
-0.046175,0.4427088381061428,0.01190829481313377
-0.0461625,0.4427088381061428,0.01190829481313377
-0.04615,0.4427088381061429,0.01190829481313377
-0.0461375,0.4430469702228669,0.01190829481313377
-0.046125,0.4427088381061428,0.01190829481313377
-0.0461125,0.4430469702228669,0.01190829481313377
-0.0461,0.4430469702228669,0.01190829481313377
-0.0460875,0.4430469702228669,0.01190829481313377
-0.046075,0.4430469702228669,0.01190829481313377
-0.0460625,0.4433851023395911,0.01190829481313377
-0.04605,0.4433851023395911,0.01190829481313377
-0.0460375,0.4433851023395911,0.01190829481313377
-0.046025,0.4433851023395911,0.01190829481313377
-0.0460125,0.4433851023395911,0.01190829481313377
-0.046,0.4433851023395911,0.01157194406841983
-0.0459875,0.4437232344563152,0.01190829481313377
-0.045975,0.4437232344563152,0.01157194406841983
-0.0459625,0.4437232344563152,0.01190829481313361
-0.04595,0.4437232344563152,0.01157194406841983
-0.0459375,0.4437232344563152,0.01190829481313377
-0.045925,0.4437232344563152,0.01190829481313377
-0.0459125,0.4437232344563152,0.01157194406841983
-0.0459,0.4437232344563152,0.01190829481313361
-0.0458875,0.4440613665730394,0.01190829481313377
-0.045875,0.4437232344563152,0.01157194406841983
-0.0458625,0.4437232344563152,0.01190829481313377
-0.04585,0.4440613665730394,0.01190829481313377
-0.0458375,0.4440613665730394,0.01190829481313377
-0.045825,0.4443994986897636,0.01157194406841983
-0.0458125,0.4440613665730394,0.01190829481313377
-0.0458,0.4440613665730394,0.01190829481313377
-0.0457875,0.4440613665730394,0.01190829481313377
-0.045775,0.4443994986897634,0.01190829481313377
-0.0457625,0.4440613665730394,0.01190829481313377
-0.04575,0.4447376308064877,0.01190829481313377
-0.0457375,0.4447376308064877,0.01190829481313377
-0.045725,0.4447376308064877,0.01190829481313377
-0.0457125,0.4447376308064877,0.01190829481313377
-0.0457,0.4447376308064877,0.01190829481313377
-0.0456875,0.4447376308064877,0.01190829481313377
-0.045675,0.4447376308064877,0.01157194406841983
-0.0456625,0.4447376308064877,0.01190829481313377
-0.04565,0.4450757629232117,0.01190829481313377
-0.0456375,0.4450757629232119,0.01190829481313377
-0.045625,0.4447376308064877,0.01190829481313377
-0.0456125,0.4450757629232119,0.01190829481313377
-0.0456,0.4450757629232119,0.01190829481313377
-0.0455875,0.4450757629232119,0.01190829481313377
-0.045575,0.4450757629232119,0.01190829481313377
-0.0455625,0.4450757629232119,0.01190829481313377
-0.04555,0.4454138950399361,0.01190829481313377
-0.0455375,0.4450757629232119,0.01157194406841983
-0.045525,0.4454138950399359,0.01190829481313361
-0.0455125,0.4454138950399361,0.01190829481313377
-0.0455,0.4454138950399361,0.01190829481313377
-0.0454875,0.4457520271566602,0.01190829481313377
-0.045475,0.4454138950399361,0.01190829481313377
-0.0454625,0.44575202715666,0.01190829481313377
-0.04545,0.4460901592733844,0.01190829481313377
-0.0454375,0.4457520271566602,0.01157194406841983
-0.045425,0.4457520271566602,0.01190829481313377
-0.0454125,0.4457520271566602,0.01157194406841983
-0.0454,0.4460901592733842,0.01157194406841983
-0.0453875,0.4460901592733844,0.01157194406841983
-0.045375,0.4464282913901085,0.01190829481313377
-0.0453625,0.4460901592733844,0.01190829481313377
-0.04535,0.4460901592733844,0.01190829481313377
-0.0453375,0.4460901592733844,0.01190829481313377
-0.045325,0.4460901592733844,0.01157194406841983
-0.0453125,0.4464282913901085,0.01157194406841983
-0.0453,0.4464282913901085,0.01190829481313377
-0.0452875,0.4464282913901085,0.01190829481313377
-0.045275,0.4460901592733844,0.01190829481313377
-0.0452625,0.4464282913901085,0.01190829481313377
-0.04525,0.4464282913901085,0.01190829481313377
-0.0452375,0.4464282913901085,0.01190829481313377
-0.045225,0.4467664235068327,0.01190829481313377
-0.0452125,0.4467664235068327,0.01190829481313377
-0.0452,0.4467664235068327,0.01190829481313377
-0.0451875,0.4467664235068327,0.01190829481313377
-0.045175,0.4467664235068327,0.01190829481313377
-0.0451625,0.4467664235068327,0.01190829481313377
-0.04515,0.4467664235068327,0.01190829481313377
-0.0451375,0.4471045556235568,0.01190829481313361
-0.045125,0.4471045556235568,0.01157194406841983
-0.0451125,0.447442687740281,0.01190829481313377
-0.0451,0.4471045556235568,0.01190829481313377
-0.0450875,0.447442687740281,0.01190829481313377
-0.045075,0.447104555623557,0.01157194406841998
-0.0450625,0.447442687740281,0.01190829481313377
-0.04505,0.447442687740281,0.01190829481313377
-0.0450375,0.447442687740281,0.01190829481313377
-0.045025,0.447442687740281,0.01157194406841983
-0.0450125,0.447442687740281,0.01190829481313377
-0.045,0.447442687740281,0.01190829481313377
-0.0449875,0.4477808198570052,0.01190829481313377
-0.044975,0.4477808198570052,0.01157194406841983
-0.0449625,0.4477808198570052,0.01190829481313377
-0.04495,0.4477808198570052,0.01190829481313377
-0.0449375,0.4477808198570052,0.01190829481313377
-0.044925,0.4477808198570052,0.01190829481313377
-0.0449125,0.4481189519737294,0.01190829481313377
-0.0449,0.4481189519737294,0.01190829481313377
-0.0448875,0.4481189519737292,0.01190829481313377
-0.044875,0.4477808198570052,0.01190829481313377
-0.0448625,0.4481189519737294,0.01190829481313377
-0.04485,0.4481189519737294,0.01157194406841983
-0.0448375,0.4481189519737294,0.01190829481313377
-0.044825,0.4481189519737295,0.01157194406841983
-0.0448125,0.4484570840904535,0.01157194406841983
-0.0448,0.4481189519737294,0.01190829481313377
-0.0447875,0.4484570840904535,0.01190829481313377
-0.044775,0.4481189519737294,0.01190829481313377
-0.0447625,0.4484570840904535,0.01190829481313377
-0.04475,0.4484570840904535,0.01190829481313377
-0.0447375,0.4487952162071777,0.01190829481313377
-0.044725,0.4484570840904535,0.01190829481313377
-0.0447125,0.4487952162071777,0.01157194406841983
-0.0447,0.4484570840904535,0.01190829481313361
-0.0446875,0.4484570840904535,0.01157194406841983
-0.044675,0.4487952162071777,0.01190829481313377
-0.0446625,0.4487952162071777,0.01157194406841983
-0.04465,0.4491333483239018,0.01190829481313377
-0.0446375,0.4491333483239017,0.01190829481313392
-0.044625,0.4487952162071777,0.0122446455578477
-0.0446125,0.4491333483239018,0.01190829481313377
-0.0446,0.4491333483239018,0.01190829481313377
-0.0445875,0.4491333483239018,0.01190829481313377
-0.044575,0.4494714804406258,0.01190829481313377
-0.0445625,0.4491333483239018,0.01190829481313377
-0.04455,0.4491333483239018,0.01190829481313377
-0.0445375,0.4491333483239018,0.01190829481313377
-0.044525,0.449471480440626,0.01190829481313377
-0.0445125,0.449471480440626,0.01190829481313377
-0.0445,0.4498096125573501,0.0122446455578477
-0.0444875,0.449471480440626,0.01190829481313377
-0.044475,0.449471480440626,0.01190829481313377
-0.0444625,0.449471480440626,0.01190829481313377
-0.04445,0.44980961255735,0.01190829481313377
-0.0444375,0.4498096125573501,0.01190829481313377
-0.044425,0.4498096125573501,0.01190829481313377
-0.0444125,0.4498096125573501,0.01190829481313377
-0.0444,0.4498096125573501,0.01190829481313377
-0.0443875,0.4498096125573501,0.01190829481313377
-0.044375,0.4501477446740743,0.01190829481313377
-0.0443625,0.4498096125573501,0.01190829481313377
-0.04435,0.4498096125573501,0.01190829481313377
-0.0443375,0.4501477446740743,0.01190829481313377
-0.044325,0.4501477446740743,0.01190829481313377
-0.0443125,0.4501477446740743,0.0122446455578477
-0.0443,0.4504858767907985,0.01190829481313377
-0.0442875,0.4501477446740743,0.01190829481313377
-0.044275,0.4504858767907985,0.01190829481313377
-0.0442625,0.4501477446740745,0.01190829481313377
-0.04425,0.4504858767907985,0.01190829481313377
-0.0442375,0.4504858767907985,0.01190829481313377
-0.044225,0.4504858767907985,0.01190829481313377
-0.0442125,0.4504858767907985,0.01190829481313377
-0.0442,0.4508240089075224,0.01190829481313377
-0.0441875,0.4504858767907985,0.01190829481313377
-0.044175,0.4504858767907985,0.01157194406841983
-0.0441625,0.4504858767907985,0.01190829481313377
-0.04415,0.4504858767907985,0.01190829481313377
-0.0441375,0.4508240089075224,0.01190829481313377
-0.044125,0.4511621410242468,0.01190829481313377
-0.0441125,0.4508240089075226,0.01190829481313377
-0.0441,0.4511621410242468,0.01157194406841983
-0.0440875,0.4508240089075226,0.01190829481313377
-0.044075,0.4511621410242466,0.01190829481313377
-0.0440625,0.4511621410242468,0.01190829481313377
-0.04405,0.4511621410242468,0.01190829481313377
-0.0440375,0.4511621410242468,0.01190829481313377
-0.044025,0.4511621410242468,0.01190829481313377
-0.0440125,0.4511621410242468,0.01190829481313377
-0.044,0.451500273140971,0.01157194406841983
-0.0439875,0.4511621410242468,0.01190829481313377
-0.043975,0.451500273140971,0.01190829481313377
-0.0439625,0.4518384052576951,0.01190829481313377
-0.04395,0.4515002731409711,0.01190829481313377
-0.0439375,0.4518384052576951,0.01157194406841983
-0.043925,0.451500273140971,0.01190829481313377
-0.0439125,0.451500273140971,0.01190829481313377
-0.0439,0.451500273140971,0.01157194406841983
-0.0438875,0.4518384052576949,0.01190829481313361
-0.043875,0.4518384052576951,0.01157194406841983
-0.0438625,0.4518384052576951,0.01190829481313377
-0.04385,0.4518384052576951,0.01190829481313377
-0.0438375,0.4518384052576951,0.01157194406841983
-0.043825,0.4518384052576951,0.01157194406841983
-0.0438125,0.4521765373744193,0.01157194406841983
-0.0438,0.4521765373744193,0.01190829481313377
-0.0437875,0.4521765373744193,0.01157194406841983
-0.043775,0.4521765373744193,0.01157194406841983
-0.0437625,0.4521765373744193,0.01157194406841983
-0.04375,0.4525146694911434,0.01190829481313377
-0.0437375,0.4525146694911434,0.01157194406841983
-0.043725,0.4521765373744193,0.01190829481313377
-0.0437125,0.4525146694911434,0.01190829481313377
-0.0437,0.4521765373744193,0.01190829481313377
-0.0436875,0.4525146694911434,0.01157194406841983
-0.043675,0.4528528016078676,0.01190829481313377
-0.0436625,0.4528528016078676,0.01190829481313377
-0.04365,0.4528528016078676,0.01190829481313377
-0.0436375,0.4528528016078676,0.01190829481313377
-0.043625,0.4528528016078676,0.01190829481313361
-0.0436125,0.4528528016078676,0.01157194406841983
-0.0436,0.4528528016078676,0.01190829481313377
-0.0435875,0.4531909337245917,0.01157194406841983
-0.043575,0.4528528016078676,0.01157194406841983
-0.0435625,0.4531909337245916,0.01190829481313377
-0.04355,0.4528528016078676,0.01190829481313377
-0.0435375,0.4535290658413159,0.01190829481313377
-0.043525,0.4531909337245917,0.01190829481313377
-0.0435125,0.4535290658413159,0.01190829481313377
-0.0435,0.4531909337245919,0.01190829481313377
-0.0434875,0.4535290658413159,0.01190829481313377
-0.043475,0.4535290658413159,0.01190829481313377
-0.0434625,0.4535290658413159,0.01190829481313377
-0.04345,0.4535290658413159,0.01190829481313377
-0.0434375,0.4538671979580401,0.01190829481313377
-0.043425,0.4538671979580401,0.01190829481313377
-0.0434125,0.4535290658413159,0.01190829481313377
-0.0434,0.4535290658413159,0.01190829481313377
-0.0433875,0.4538671979580401,0.01190829481313377
-0.043375,0.4535290658413161,0.01190829481313377
-0.0433625,0.4538671979580401,0.01190829481313377
-0.04335,0.4538671979580401,0.01190829481313377
-0.0433375,0.4542053300747643,0.01157194406841983
-0.043325,0.4538671979580401,0.01157194406841983
-0.0433125,0.4542053300747641,0.01190829481313361
-0.0433,0.4538671979580401,0.01157194406841983
-0.0432875,0.4542053300747643,0.01190829481313377
-0.043275,0.4542053300747643,0.01190829481313377
-0.0432625,0.4542053300747643,0.01190829481313377
-0.04325,0.4545434621914882,0.01190829481313377
-0.0432375,0.4542053300747643,0.01190829481313377
-0.043225,0.4542053300747643,0.01190829481313377
-0.0432125,0.4545434621914884,0.01190829481313377
-0.0432,0.4545434621914884,0.01190829481313377
-0.0431875,0.4545434621914884,0.01190829481313377
-0.043175,0.4545434621914884,0.01190829481313377
-0.0431625,0.4545434621914884,0.01190829481313377
-0.04315,0.4545434621914884,0.01190829481313377
-0.0431375,0.4548815943082126,0.01190829481313377
-0.043125,0.4545434621914886,0.01190829481313377
-0.0431125,0.4548815943082126,0.01190829481313377
-0.0431,0.4548815943082126,0.01190829481313377
-0.0430875,0.4548815943082126,0.01190829481313377
-0.043075,0.4548815943082126,0.01190829481313377
-0.0430625,0.4548815943082126,0.01190829481313377
-0.04305,0.4548815943082126,0.01190829481313377
-0.0430375,0.4552197264249367,0.01190829481313377
-0.043025,0.4552197264249367,0.01190829481313377
-0.0430125,0.4552197264249367,0.01190829481313377
-0.043,0.4552197264249367,0.01190829481313377
-0.0429875,0.4552197264249367,0.01190829481313377
-0.042975,0.4555578585416609,0.01190829481313377
-0.0429625,0.4555578585416609,0.01190829481313377
-0.04295,0.4555578585416609,0.01190829481313377
-0.0429375,0.4555578585416609,0.01190829481313377
-0.042925,0.455895990658385,0.0122446455578477
-0.0429125,0.455895990658385,0.01190829481313377
-0.0429,0.455895990658385,0.01190829481313377
-0.0428875,0.4555578585416609,0.01190829481313377
-0.042875,0.4558959906583849,0.01190829481313377
-0.0428625,0.455895990658385,0.01190829481313377
-0.04285,0.455895990658385,0.01190829481313377
-0.0428375,0.455895990658385,0.01190829481313377
-0.042825,0.455895990658385,0.01190829481313377
-0.0428125,0.455895990658385,0.01190829481313377
-0.0428,0.4562341227751092,0.01190829481313377
-0.0427875,0.4562341227751092,0.01190829481313377
-0.042775,0.4562341227751092,0.01190829481313377
-0.0427625,0.4565722548918334,0.01190829481313377
-0.04275,0.4565722548918334,0.01190829481313377
-0.0427375,0.4562341227751092,0.01190829481313377
-0.042725,0.4565722548918334,0.01190829481313377
-0.0427125,0.4562341227751092,0.01190829481313377
-0.0427,0.4565722548918334,0.01190829481313377
-0.0426875,0.4565722548918334,0.01157194406841998
-0.042675,0.4565722548918334,0.01190829481313377
-0.0426625,0.4565722548918334,0.01157194406841983
-0.04265,0.4569103870085575,0.01190829481313377
-0.0426375,0.4565722548918334,0.01190829481313377
-0.042625,0.4569103870085574,0.01190829481313377
-0.0426125,0.4569103870085575,0.01157194406841983
-0.0426,0.4572485191252817,0.01190829481313377
-0.0425875,0.4569103870085575,0.01190829481313377
-0.042575,0.4569103870085575,0.01190829481313377
-0.0425625,0.4572485191252815,0.01190829481313377
-0.04255,0.4572485191252817,0.01190829481313377
-0.0425375,0.4569103870085575,0.01190829481313377
-0.042525,0.4572485191252817,0.01190829481313377
-0.0425125,0.4569103870085575,0.01190829481313377
-0.0425,0.4572485191252815,0.01190829481313377
-0.0424875,0.4572485191252817,0.01190829481313377
-0.042475,0.4575866512420059,0.01190829481313377
-0.0424625,0.4572485191252817,0.01190829481313377
-0.04245,0.4575866512420059,0.01190829481313377
-0.0424375,0.4575866512420059,0.01190829481313377
-0.042425,0.4575866512420059,0.01190829481313377
-0.0424125,0.4575866512420059,0.01190829481313377
-0.0424,0.45792478335873,0.01190829481313377
-0.0423875,0.4575866512420059,0.01190829481313377
-0.042375,0.4579247833587299,0.01190829481313377
-0.0423625,0.4575866512420059,0.01190829481313377
-0.04235,0.45792478335873,0.01190829481313377
-0.0423375,0.45792478335873,0.0122446455578477
-0.042325,0.45792478335873,0.01190829481313377
-0.0423125,0.45792478335873,0.01190829481313377
-0.0423,0.4582629154754542,0.01190829481313377
-0.0422875,0.45792478335873,0.01190829481313377
-0.042275,0.45792478335873,0.01190829481313377
-0.0422625,0.4582629154754542,0.01190829481313377
-0.04225,0.4582629154754542,0.01190829481313377
-0.0422375,0.4582629154754542,0.01190829481313377
-0.042225,0.4582629154754542,0.01157194406841983
-0.0422125,0.4582629154754542,0.01190829481313377
-0.0422,0.4586010475921783,0.01190829481313377
-0.0421875,0.4586010475921783,0.01190829481313377
-0.042175,0.4582629154754542,0.01190829481313377
-0.0421625,0.4586010475921783,0.01157194406841983
-0.04215,0.4586010475921783,0.01190829481313377
-0.0421375,0.4586010475921783,0.01190829481313377
-0.042125,0.4586010475921783,0.01190829481313377
-0.0421125,0.4589391797089025,0.01190829481313377
-0.0421,0.4589391797089025,0.01190829481313377
-0.0420875,0.4592773118256266,0.01157194406841983
-0.042075,0.4589391797089025,0.01190829481313377
-0.0420625,0.4592773118256266,0.01190829481313377
-0.04205,0.4592773118256266,0.01190829481313377
-0.0420375,0.4592773118256266,0.01190829481313377
-0.042025,0.4592773118256266,0.01190829481313377
-0.0420125,0.4592773118256266,0.01190829481313377
-0.042,0.4592773118256266,0.01190829481313377
-0.0419875,0.4596154439423507,0.01190829481313377
-0.041975,0.4592773118256266,0.01190829481313377
-0.0419625,0.4592773118256266,0.01190829481313377
-0.04195,0.4592773118256266,0.01190829481313377
-0.0419375,0.4596154439423508,0.01157194406841983
-0.041925,0.459615443942351,0.01224464555784755
-0.0419125,0.459953576059075,0.01190829481313377
-0.0419,0.4596154439423508,0.01190829481313377
-0.0418875,0.4596154439423508,0.0122446455578477
-0.041875,0.459953576059075,0.0122446455578477
-0.0418625,0.459615443942351,0.01190829481313377
-0.04185,0.459953576059075,0.01190829481313377
-0.0418375,0.459953576059075,0.01190829481313377
-0.041825,0.459953576059075,0.01190829481313377
-0.0418125,0.459953576059075,0.01190829481313377
-0.0418,0.459953576059075,0.01190829481313361
-0.0417875,0.459953576059075,0.01157194406841983
-0.041775,0.459953576059075,0.01190829481313377
-0.0417625,0.459953576059075,0.01157194406841983
-0.04175,0.459953576059075,0.01190829481313377
-0.0417375,0.459953576059075,0.01190829481313377
-0.041725,0.459953576059075,0.01190829481313377
-0.0417125,0.4602917081757992,0.01157194406841983
-0.0417,0.4602917081757992,0.01190829481313377
-0.0416875,0.4602917081757992,0.01190829481313377
-0.041675,0.4602917081757993,0.01190829481313361
-0.0416625,0.4606298402925233,0.01157194406841983
-0.04165,0.4606298402925233,0.01190829481313377
-0.0416375,0.4606298402925233,0.01190829481313377
-0.041625,0.4606298402925233,0.01190829481313377
-0.0416125,0.4606298402925235,0.01190829481313377
-0.0416,0.4609679724092475,0.01190829481313377
-0.0415875,0.4609679724092475,0.01190829481313377
-0.041575,0.4606298402925233,0.01190829481313377
-0.0415625,0.4609679724092475,0.01190829481313377
-0.04155,0.4609679724092475,0.01157194406841998
-0.0415375,0.4609679724092475,0.01190829481313377
-0.041525,0.4609679724092475,0.01190829481313377
-0.0415125,0.4613061045259716,0.01190829481313377
-0.0415,0.4609679724092475,0.01190829481313377
-0.0414875,0.4613061045259716,0.01190829481313377
-0.041475,0.4613061045259716,0.01190829481313377
-0.0414625,0.4613061045259716,0.01190829481313377
-0.04145,0.4616442366426958,0.01190829481313377
-0.0414375,0.4613061045259716,0.01190829481313377
-0.041425,0.4613061045259716,0.01190829481313377
-0.0414125,0.4613061045259716,0.01190829481313377
-0.0414,0.4616442366426958,0.01190829481313377
-0.0413875,0.4616442366426958,0.01190829481313377
-0.041375,0.4616442366426958,0.01190829481313377
-0.0413625,0.4616442366426958,0.01190829481313377
-0.04135,0.4616442366426958,0.01190829481313377
-0.0413375,0.4619823687594199,0.01190829481313377
-0.041325,0.4619823687594199,0.01190829481313377
-0.0413125,0.4619823687594199,0.01190829481313377
-0.0413,0.4619823687594199,0.01190829481313377
-0.0412875,0.4619823687594199,0.01190829481313377
-0.041275,0.4619823687594199,0.01190829481313377
-0.0412625,0.4619823687594199,0.01190829481313377
-0.04125,0.4623205008761441,0.01190829481313377
-0.0412375,0.4619823687594201,0.01190829481313377
-0.041225,0.4623205008761441,0.01190829481313377
-0.0412125,0.4623205008761441,0.01190829481313377
-0.0412,0.4623205008761441,0.01190829481313377
-0.0411875,0.4626586329928683,0.01190829481313377
-0.041175,0.4623205008761443,0.01190829481313377
-0.0411625,0.4626586329928683,0.01190829481313377
-0.04115,0.4626586329928683,0.01190829481313377
-0.0411375,0.4626586329928683,0.01190829481313377
-0.041125,0.4626586329928683,0.01190829481313377
-0.0411125,0.4626586329928683,0.01190829481313377
-0.0411,0.4626586329928683,0.01190829481313377
-0.0410875,0.4629967651095924,0.01190829481313377
-0.041075,0.4626586329928683,0.01190829481313377
-0.0410625,0.4626586329928683,0.01190829481313377
-0.04105,0.4626586329928683,0.01190829481313377
-0.0410375,0.4629967651095924,0.01190829481313377
-0.041025,0.4629967651095924,0.01190829481313377
-0.0410125,0.4629967651095924,0.01157194406841983
-0.041,0.4633348972263166,0.01190829481313377
-0.0409875,0.4629967651095926,0.01190829481313377
-0.040975,0.4633348972263166,0.01190829481313377
-0.0409625,0.4633348972263166,0.01190829481313377
-0.04095,0.4636730293430408,0.01190829481313377
-0.0409375,0.4633348972263166,0.01190829481313377
-0.040925,0.4633348972263166,0.01190829481313377
-0.0409125,0.4633348972263166,0.0122446455578477
-0.0409,0.4636730293430408,0.01190829481313377
-0.0408875,0.4633348972263166,0.01190829481313377
-0.040875,0.4636730293430408,0.01190829481313377
-0.0408625,0.4636730293430408,0.01190829481313377
-0.04085,0.464011161459765,0.01190829481313377
-0.0408375,0.464011161459765,0.0122446455578477
-0.040825,0.4636730293430408,0.01190829481313377
-0.0408125,0.464011161459765,0.01190829481313377
-0.0408,0.464011161459765,0.01190829481313377
-0.0407875,0.464011161459765,0.01190829481313377
-0.040775,0.464011161459765,0.01190829481313377
-0.0407625,0.464011161459765,0.01190829481313377
-0.04075,0.4643492935764891,0.01190829481313377
-0.0407375,0.4640111614597651,0.01190829481313377
-0.040725,0.4643492935764891,0.01190829481313377
-0.0407125,0.4643492935764891,0.01190829481313377
-0.0407,0.4643492935764891,0.01190829481313377
-0.0406875,0.464011161459765,0.01190829481313377
-0.040675,0.4643492935764891,0.01190829481313377
-0.0406625,0.4643492935764891,0.01190829481313377
-0.04065,0.4643492935764891,0.01190829481313377
-0.0406375,0.4646874256932133,0.01190829481313377
-0.040625,0.4646874256932133,0.01190829481313377
-0.0406125,0.4646874256932133,0.0122446455578477
-0.0406,0.4646874256932133,0.01190829481313377
-0.0405875,0.4646874256932133,0.01190829481313377
-0.040575,0.4646874256932133,0.01190829481313377
-0.0405625,0.4650255578099374,0.01190829481313377
-0.04055,0.4650255578099374,0.01190829481313377
-0.0405375,0.4650255578099374,0.01190829481313361
-0.040525,0.4650255578099374,0.01157194406841983
-0.0405125,0.4646874256932133,0.01190829481313377
-0.0405,0.4650255578099374,0.01190829481313377
-0.0404875,0.4650255578099374,0.01190829481313377
-0.040475,0.4653636899266614,0.01190829481313377
-0.0404625,0.4650255578099374,0.01190829481313377
-0.04045,0.4650255578099374,0.01190829481313377
-0.0404375,0.4650255578099374,0.01190829481313377
-0.040425,0.4653636899266616,0.01190829481313377
-0.0404125,0.4657018220433856,0.01157194406841998
-0.0404,0.4653636899266616,0.01190829481313377
-0.0403875,0.4657018220433857,0.01190829481313377
-0.040375,0.4653636899266616,0.01190829481313377
-0.0403625,0.4653636899266616,0.01190829481313377
-0.04035,0.4657018220433857,0.01157194406841998
-0.0403375,0.4657018220433857,0.01190829481313377
-0.040325,0.4657018220433857,0.01190829481313377
-0.0403125,0.4657018220433857,0.01190829481313377
-0.0403,0.4657018220433857,0.01190829481313377
-0.0402875,0.4657018220433859,0.01190829481313377
-0.040275,0.4660399541601099,0.01190829481313377
-0.0402625,0.4660399541601099,0.01190829481313377
-0.04025,0.4660399541601099,0.01190829481313377
-0.0402375,0.4660399541601099,0.01190829481313377
-0.040225,0.4660399541601099,0.01190829481313377
-0.0402125,0.4660399541601099,0.01190829481313377
-0.0402,0.4660399541601099,0.01190829481313377
-0.0401875,0.4663780862768341,0.01190829481313377
-0.040175,0.4663780862768341,0.01190829481313377
-0.0401625,0.466716218393558,0.01190829481313377
-0.04015,0.4663780862768341,0.01190829481313377
-0.0401375,0.4663780862768341,0.01190829481313377
-0.040125,0.4667162183935582,0.01190829481313377
-0.0401125,0.4667162183935582,0.01190829481313377
-0.0401,0.4667162183935582,0.01190829481313361
-0.0400875,0.4667162183935582,0.01157194406841983
-0.040075,0.4667162183935582,0.01190829481313377
-0.0400625,0.4667162183935582,0.01157194406841983
-0.04005,0.4663780862768341,0.01190829481313377
-0.0400375,0.4667162183935582,0.01190829481313377
-0.040025,0.4667162183935582,0.01190829481313377
-0.0400125,0.4670543505102824,0.01190829481313377
-0.04,0.4667162183935582,0.01190829481313377
-0.0399875,0.4670543505102824,0.01190829481313377
-0.039975,0.4670543505102824,0.01190829481313361
-0.0399625,0.4670543505102824,0.01157194406841983
-0.03995,0.4670543505102824,0.01190829481313377
-0.0399375,0.4670543505102824,0.01157194406841983
-0.039925,0.4670543505102824,0.01190829481313377
-0.0399125,0.4673924826270066,0.01190829481313361
-0.0399,0.4673924826270066,0.01157194406841983
-0.0398875,0.4670543505102824,0.01190829481313377
-0.039875,0.4673924826270066,0.01190829481313377
-0.0398625,0.4677306147437307,0.01190829481313377
-0.03985,0.4673924826270067,0.01190829481313377
-0.0398375,0.4677306147437307,0.01190829481313377
-0.039825,0.4677306147437307,0.01157194406841983
-0.0398125,0.4680687468604549,0.01190829481313377
-0.0398,0.4677306147437307,0.01190829481313377
-0.0397875,0.4677306147437307,0.01157194406841998
-0.039775,0.4680687468604549,0.01157194406841983
-0.0397625,0.4680687468604549,0.01190829481313377
-0.03975,0.4680687468604549,0.01157194406841983
-0.0397375,0.4680687468604549,0.01190829481313377
-0.039725,0.4680687468604549,0.01190829481313377
-0.0397125,0.4680687468604549,0.01190829481313377
-0.0397,0.4680687468604549,0.01157194406841983
-0.0396875,0.4680687468604549,0.01157194406841983
-0.039675,0.4680687468604549,0.01157194406841983
-0.0396625,0.4680687468604549,0.01190829481313361
-0.03965,0.468406878977179,0.01157194406841983
-0.0396375,0.468406878977179,0.01190829481313377
-0.039625,0.468406878977179,0.01190829481313377
-0.0396125,0.468406878977179,0.01190829481313377
-0.0396,0.468406878977179,0.01190829481313377
-0.0395875,0.468406878977179,0.01190829481313377
-0.039575,0.4687450110939032,0.01190829481313377
-0.0395625,0.4687450110939032,0.01190829481313377
-0.03955,0.4687450110939032,0.01190829481313377
-0.0395375,0.4687450110939032,0.01190829481313377
-0.039525,0.4687450110939032,0.01190829481313377
-0.0395125,0.4687450110939032,0.01190829481313377
-0.0395,0.4687450110939032,0.01190829481313377
-0.0394875,0.4687450110939032,0.01157194406841983
-0.039475,0.4690831432106272,0.01190829481313361
-0.0394625,0.4690831432106273,0.01190829481313377
-0.03945,0.4690831432106273,0.01190829481313377
-0.0394375,0.4694212753273515,0.01190829481313377
-0.039425,0.4690831432106273,0.01190829481313377
-0.0394125,0.4690831432106273,0.01157194406841998
-0.0394,0.4694212753273515,0.01190829481313377
-0.0393875,0.4694212753273515,0.01190829481313377
-0.039375,0.4694212753273515,0.01190829481313377
-0.0393625,0.4690831432106273,0.01157194406841983
-0.03935,0.4690831432106273,0.01190829481313361
-0.0393375,0.4694212753273515,0.01157194406841983
-0.039325,0.4697594074440757,0.01190829481313377
-0.0393125,0.4694212753273515,0.01190829481313377
-0.0393,0.4697594074440757,0.01190829481313377
-0.0392875,0.4697594074440757,0.01190829481313377
-0.039275,0.4697594074440757,0.01190829481313377
-0.0392625,0.4694212753273515,0.01190829481313377
-0.03925,0.4697594074440757,0.01190829481313377
-0.0392375,0.4697594074440757,0.01190829481313377
-0.039225,0.4700975395607997,0.01190829481313377
-0.0392125,0.4697594074440757,0.01190829481313377
-0.0392,0.4697594074440757,0.01190829481313377
-0.0391875,0.4700975395607999,0.01190829481313377
-0.039175,0.470435671677524,0.01190829481313377
-0.0391625,0.470435671677524,0.01190829481313377
-0.03915,0.470435671677524,0.01190829481313377
-0.0391375,0.4700975395607999,0.01190829481313377
-0.039125,0.4700975395607999,0.01190829481313377
-0.0391125,0.470435671677524,0.01190829481313377
-0.0391,0.470435671677524,0.01190829481313377
-0.0390875,0.470435671677524,0.01190829481313377
-0.039075,0.4707738037942482,0.01190829481313377
-0.0390625,0.470435671677524,0.01190829481313377
-0.03905,0.4707738037942482,0.01190829481313377
-0.0390375,0.4707738037942482,0.01190829481313377
-0.039025,0.4707738037942482,0.01190829481313377
-0.0390125,0.4707738037942482,0.01190829481313377
-0.039,0.4707738037942482,0.01190829481313377
-0.0389875,0.4707738037942482,0.01190829481313377
-0.038975,0.4707738037942482,0.01190829481313377
-0.0389625,0.4711119359109723,0.01190829481313377
-0.03895,0.4711119359109723,0.01190829481313377
-0.0389375,0.4707738037942482,0.01190829481313377
-0.038925,0.4711119359109723,0.01190829481313377
-0.0389125,0.4711119359109723,0.01190829481313377
-0.0389,0.4711119359109725,0.01190829481313377
-0.0388875,0.4714500680276965,0.01190829481313377
-0.038875,0.4714500680276965,0.01190829481313377
-0.0388625,0.4714500680276965,0.01190829481313377
-0.03885,0.4714500680276965,0.01190829481313377
-0.0388375,0.4714500680276965,0.01190829481313377
-0.038825,0.4714500680276965,0.01190829481313377
-0.0388125,0.4714500680276965,0.01190829481313377
-0.0388,0.4717882001444206,0.01190829481313377
-0.0387875,0.4717882001444206,0.01190829481313377
-0.038775,0.4717882001444208,0.01190829481313361
-0.0387625,0.4721263322611448,0.01157194406841983
-0.03875,0.4721263322611448,0.01190829481313377
-0.0387375,0.4721263322611448,0.01190829481313377
-0.038725,0.4721263322611448,0.01190829481313377
-0.0387125,0.4721263322611448,0.01190829481313377
-0.0387,0.4721263322611448,0.01190829481313377
-0.0386875,0.4721263322611448,0.01190829481313377
-0.038675,0.4721263322611448,0.01190829481313377
-0.0386625,0.4721263322611448,0.01190829481313377
-0.03865,0.472126332261145,0.01190829481313377
-0.0386375,0.472464464377869,0.01190829481313377
-0.038625,0.472464464377869,0.01190829481313377
-0.0386125,0.472464464377869,0.01190829481313377
-0.0386,0.472464464377869,0.01190829481313377
-0.0385875,0.472464464377869,0.01190829481313377
-0.038575,0.472464464377869,0.01190829481313377
-0.0385625,0.472464464377869,0.01190829481313377
-0.03855,0.472464464377869,0.01190829481313377
-0.0385375,0.4728025964945931,0.01190829481313377
-0.038525,0.4728025964945931,0.01157194406841998
-0.0385125,0.4728025964945931,0.01190829481313377
-0.0385,0.4728025964945931,0.01190829481313377
-0.0384875,0.4728025964945931,0.01190829481313377
-0.038475,0.4728025964945931,0.01190829481313377
-0.0384625,0.4728025964945931,0.01190829481313377
-0.03845,0.4728025964945931,0.01190829481313377
-0.0384375,0.4731407286113173,0.01190829481313377
-0.038425,0.4731407286113173,0.01190829481313377
-0.0384125,0.4734788607280415,0.01190829481313377
-0.0384,0.4731407286113175,0.01190829481313377
-0.0383875,0.4734788607280415,0.01190829481313377
-0.038375,0.4734788607280415,0.01190829481313377
-0.0383625,0.4734788607280415,0.01190829481313377
-0.03835,0.4734788607280415,0.01190829481313377
-0.0383375,0.4738169928447655,0.01190829481313377
-0.038325,0.4734788607280415,0.01190829481313377
-0.0383125,0.4738169928447656,0.01190829481313377
-0.0383,0.4738169928447656,0.01190829481313377
-0.0382875,0.4738169928447656,0.01190829481313377
-0.038275,0.4734788607280416,0.01190829481313377
-0.0382625,0.4734788607280415,0.01190829481313377
-0.03825,0.4734788607280415,0.01190829481313377
-0.0382375,0.4738169928447656,0.01157194406841983
-0.038225,0.4738169928447656,0.01190829481313377
-0.0382125,0.4741551249614896,0.01190829481313377
-0.0382,0.4738169928447656,0.01157194406841983
-0.0381875,0.4741551249614898,0.01190829481313377
-0.038175,0.4738169928447656,0.01190829481313377
-0.0381625,0.4741551249614898,0.01190829481313377
-0.03815,0.4741551249614898,0.01157194406841998
-0.0381375,0.4741551249614898,0.01190829481313377
-0.038125,0.4741551249614898,0.01190829481313377
-0.0381125,0.4741551249614898,0.01190829481313377
-0.0381,0.4741551249614898,0.01190829481313377
-0.0380875,0.4741551249614898,0.01190829481313377
-0.038075,0.4741551249614898,0.01190829481313377
-0.0380625,0.4744932570782139,0.01190829481313377
-0.03805,0.4744932570782139,0.01157194406841983
-0.0380375,0.4744932570782139,0.01190829481313377
-0.038025,0.4748313891949379,0.01190829481313377
-0.0380125,0.4748313891949381,0.01190829481313377
-0.038,0.4748313891949381,0.01190829481313377
-0.0379875,0.4748313891949381,0.01190829481313377
-0.037975,0.4748313891949381,0.01190829481313377
-0.0379625,0.4751695213116621,0.01190829481313377
-0.03795,0.4748313891949381,0.01190829481313377
-0.0379375,0.4751695213116622,0.01190829481313377
-0.037925,0.4751695213116622,0.0122446455578477
-0.0379125,0.4751695213116622,0.01190829481313377
-0.0379,0.4751695213116622,0.01190829481313377
-0.0378875,0.4751695213116622,0.01190829481313377
-0.037875,0.4751695213116622,0.01190829481313377
-0.0378625,0.4751695213116622,0.01190829481313377
-0.03785,0.4755076534283864,0.01190829481313377
-0.0378375,0.4755076534283864,0.01190829481313377
-0.037825,0.4751695213116622,0.01190829481313377
-0.0378125,0.4755076534283864,0.01190829481313377
-0.0378,0.4755076534283864,0.01190829481313377
-0.0377875,0.4755076534283864,0.01190829481313377
-0.037775,0.4755076534283864,0.01190829481313377
-0.0377625,0.4755076534283864,0.01157194406841983
-0.03775,0.4755076534283864,0.01157194406841983
-0.0377375,0.4755076534283864,0.01157194406841983
-0.037725,0.4758457855451106,0.01157194406841983
-0.0377125,0.4758457855451106,0.01190829481313361
-0.0377,0.4761839176618348,0.01157194406841983
-0.0376875,0.4755076534283864,0.01190829481313377
-0.037675,0.4761839176618348,0.01190829481313377
-0.0376625,0.4761839176618348,0.01190829481313377
-0.03765,0.4761839176618348,0.01157194406841998
-0.0376375,0.4761839176618348,0.01190829481313377
-0.037625,0.4765220497785589,0.01190829481313377
-0.0376125,0.4761839176618348,0.01190829481313377
-0.0376,0.4761839176618348,0.01190829481313377
-0.0375875,0.4761839176618348,0.01190829481313377
-0.037575,0.4761839176618348,0.01190829481313377
-0.0375625,0.4761839176618348,0.01157194406841983
-0.03755,0.4761839176618348,0.01190829481313377
-0.0375375,0.4765220497785589,0.01157194406841983
-0.037525,0.4765220497785589,0.01190829481313377
-0.0375125,0.4765220497785589,0.01190829481313377
-0.0375,0.4765220497785589,0.01157194406841983
-0.0374875,0.4768601818952831,0.01190829481313377
-0.037475,0.4768601818952831,0.01190829481313377
-0.0374625,0.4768601818952831,0.01157194406841983
-0.03745,0.4765220497785589,0.01190829481313377
-0.0374375,0.4768601818952831,0.01190829481313377
-0.037425,0.4771983140120072,0.01190829481313377
-0.0374125,0.4768601818952831,0.01190829481313377
-0.0374,0.4771983140120072,0.01190829481313377
-0.0373875,0.4768601818952832,0.01190829481313377
-0.037375,0.4771983140120072,0.01190829481313377
-0.0373625,0.4771983140120072,0.01190829481313377
-0.03735,0.4771983140120072,0.01190829481313377
-0.0373375,0.4771983140120072,0.01190829481313377
-0.037325,0.4775364461287312,0.01190829481313377
-0.0373125,0.4771983140120072,0.01190829481313377
-0.0373,0.4775364461287314,0.01190829481313377
-0.0372875,0.4771983140120072,0.01190829481313377
-0.037275,0.4775364461287314,0.01190829481313377
-0.0372625,0.4775364461287314,0.01190829481313377
-0.03725,0.4775364461287314,0.01190829481313377
-0.0372375,0.4775364461287314,0.01190829481313377
-0.037225,0.4778745782454555,0.01190829481313377
-0.0372125,0.4778745782454555,0.01190829481313377
-0.0372,0.4778745782454555,0.01190829481313377
-0.0371875,0.4778745782454555,0.01190829481313377
-0.037175,0.4782127103621797,0.01190829481313377
-0.0371625,0.4778745782454555,0.01190829481313377
-0.03715,0.4778745782454555,0.01190829481313377
-0.0371375,0.4778745782454555,0.01190829481313377
-0.037125,0.4778745782454555,0.01190829481313377
-0.0371125,0.4782127103621797,0.01190829481313377
-0.0371,0.4785508424789039,0.01190829481313377
-0.0370875,0.4782127103621797,0.01190829481313377
-0.037075,0.4782127103621797,0.01190829481313377
-0.0370625,0.4782127103621797,0.01190829481313377
-0.03705,0.4785508424789039,0.01190829481313377
-0.0370375,0.4785508424789039,0.01190829481313377
-0.037025,0.4785508424789039,0.01190829481313377
-0.0370125,0.4785508424789039,0.01224464555784755
-0.037,0.4785508424789039,0.01190829481313377
-0.0369875,0.4785508424789039,0.01190829481313377
-0.036975,0.478888974595628,0.01190829481313377
-0.0369625,0.478888974595628,0.01190829481313377
-0.03695,0.478888974595628,0.01190829481313377
-0.0369375,0.478888974595628,0.01190829481313377
-0.036925,0.478888974595628,0.01190829481313377
-0.0369125,0.478888974595628,0.01190829481313377
-0.0369,0.478888974595628,0.01190829481313377
-0.0368875,0.479227106712352,0.01190829481313377
-0.036875,0.478888974595628,0.01190829481313377
-0.0368625,0.4792271067123522,0.0122446455578477
-0.03685,0.4792271067123522,0.01190829481313377
-0.0368375,0.478888974595628,0.01190829481313377
-0.036825,0.4795652388290762,0.01190829481313377
-0.0368125,0.4792271067123522,0.01190829481313377
-0.0368,0.4792271067123522,0.01190829481313377
-0.0367875,0.4795652388290764,0.01190829481313377
-0.036775,0.4795652388290764,0.01190829481313377
-0.0367625,0.4795652388290764,0.01157194406841998
-0.03675,0.4795652388290764,0.01190829481313377
-0.0367375,0.4795652388290764,0.01190829481313377
-0.036725,0.4795652388290764,0.01190829481313377
-0.0367125,0.4799033709458005,0.01190829481313377
-0.0367,0.4795652388290765,0.01157194406841998
-0.0366875,0.4799033709458005,0.01190829481313377
-0.036675,0.4799033709458005,0.01190829481313377
-0.0366625,0.4799033709458005,0.01190829481313377
-0.03665,0.4799033709458005,0.01190829481313377
-0.0366375,0.4799033709458005,0.01190829481313377
-0.036625,0.4799033709458005,0.01190829481313377
-0.0366125,0.4799033709458005,0.01190829481313377
-0.0366,0.4799033709458005,0.01190829481313377
-0.0365875,0.4802415030625247,0.01190829481313377
-0.036575,0.4802415030625247,0.01157194406841998
-0.0365625,0.4802415030625247,0.01190829481313377
-0.03655,0.4802415030625247,0.01190829481313377
-0.0365375,0.4805796351792488,0.01190829481313377
-0.036525,0.4805796351792488,0.01190829481313377
-0.0365125,0.4805796351792488,0.01190829481313377
-0.0365,0.4805796351792488,0.01190829481313377
-0.0364875,0.4805796351792488,0.01190829481313377
-0.036475,0.4805796351792488,0.01190829481313377
-0.0364625,0.480917767295973,0.01190829481313377
-0.03645,0.480917767295973,0.01157194406841998
-0.0364375,0.480917767295973,0.01190829481313377
-0.036425,0.480917767295973,0.01190829481313377
-0.0364125,0.480917767295973,0.01190829481313377
-0.0364,0.480917767295973,0.01190829481313377
-0.0363875,0.480917767295973,0.01190829481313377
-0.036375,0.480917767295973,0.01190829481313377
-0.0363625,0.480917767295973,0.01190829481313377
-0.03635,0.480917767295973,0.01190829481313377
-0.0363375,0.480917767295973,0.01190829481313377
-0.036325,0.481255899412697,0.01157194406841998
-0.0363125,0.4812558994126971,0.01190829481313377
-0.0363,0.4812558994126971,0.01190829481313377
-0.0362875,0.4812558994126971,0.01190829481313377
-0.036275,0.4812558994126971,0.01190829481313377
-0.0362625,0.4815940315294212,0.01190829481313377
-0.03625,0.4812558994126971,0.01190829481313377
-0.0362375,0.4815940315294213,0.01190829481313377
-0.036225,0.4819321636461455,0.01190829481313377
-0.0362125,0.4819321636461455,0.01190829481313377
-0.0362,0.4819321636461455,0.01190829481313377
-0.0361875,0.4819321636461455,0.01190829481313377
-0.036175,0.4819321636461455,0.01190829481313377
-0.0361625,0.4819321636461455,0.01190829481313377
-0.03615,0.4819321636461455,0.01190829481313377
-0.0361375,0.4822702957628695,0.01190829481313377
-0.036125,0.4822702957628697,0.01190829481313377
-0.0361125,0.4822702957628697,0.0122446455578477
-0.0361,0.4819321636461455,0.01190829481313377
-0.0360875,0.4819321636461455,0.0122446455578477
-0.036075,0.4819321636461455,0.01190829481313392
-0.0360625,0.4822702957628697,0.0122446455578477
-0.03605,0.4819321636461455,0.01190829481313377
-0.0360375,0.4822702957628697,0.01190829481313377
-0.036025,0.4822702957628697,0.01190829481313377
-0.0360125,0.4822702957628697,0.01190829481313377
-0.036,0.4822702957628697,0.01190829481313377
-0.0359875,0.4826084278795938,0.0122446455578477
-0.035975,0.4826084278795938,0.01190829481313377
-0.0359625,0.4826084278795938,0.01190829481313377
-0.03595,0.4826084278795938,0.01190829481313377
-0.0359375,0.4826084278795938,0.01157194406841983
-0.035925,0.482946559996318,0.01190829481313377
-0.0359125,0.4826084278795938,0.01190829481313377
-0.0359,0.4826084278795938,0.01190829481313377
-0.0358875,0.482946559996318,0.01190829481313377
-0.035875,0.482946559996318,0.01190829481313377
-0.0358625,0.4826084278795938,0.01190829481313377
-0.03585,0.4832846921130421,0.01157194406841983
-0.0358375,0.482946559996318,0.01190829481313377
-0.035825,0.4832846921130421,0.01190829481313377
-0.0358125,0.4832846921130421,0.01190829481313377
-0.0358,0.4832846921130421,0.01190829481313377
-0.0357875,0.4832846921130421,0.01190829481313377
-0.035775,0.4836228242297663,0.01190829481313377
-0.0357625,0.4832846921130421,0.01190829481313377
-0.03575,0.4836228242297663,0.01190829481313361
-0.0357375,0.4836228242297663,0.01157194406841983
-0.035725,0.4836228242297663,0.01190829481313377
-0.0357125,0.4836228242297663,0.01190829481313377
-0.0357,0.4836228242297663,0.01190829481313377
-0.0356875,0.4836228242297665,0.01190829481313377
-0.035675,0.4839609563464904,0.01190829481313377
-0.0356625,0.4836228242297663,0.01157194406841983
-0.03565,0.4839609563464904,0.01190829481313377
-0.0356375,0.4836228242297663,0.01190829481313377
-0.035625,0.4839609563464903,0.01224464555784755
-0.0356125,0.4836228242297663,0.01190829481313377
-0.0356,0.4839609563464904,0.01190829481313377
-0.0355875,0.4839609563464904,0.01190829481313377
-0.035575,0.4839609563464904,0.01190829481313377
-0.0355625,0.4839609563464906,0.01190829481313377
-0.03555,0.4842990884632146,0.01190829481313377
-0.0355375,0.4839609563464904,0.01190829481313377
-0.035525,0.4839609563464904,0.01190829481313377
-0.0355125,0.4839609563464904,0.01190829481313377
-0.0355,0.4842990884632146,0.01157194406841983
-0.0354875,0.4842990884632146,0.01157194406841983
-0.035475,0.4842990884632146,0.01157194406841983
-0.0354625,0.4842990884632146,0.01157194406841983
-0.03545,0.4846372205799388,0.01190829481313377
-0.0354375,0.484299088463215,0.01190829481313377
-0.035425,0.4849753526966629,0.01190829481313377
-0.0354125,0.4846372205799388,0.01190829481313377
-0.0354,0.4846372205799388,0.01157194406841983
-0.0353875,0.4849753526966629,0.01190829481313377
-0.035375,0.4849753526966628,0.01190829481313377
-0.0353625,0.4846372205799388,0.01190829481313377
-0.03535,0.4849753526966629,0.01190829481313377
-0.0353375,0.4849753526966629,0.01190829481313377
-0.035325,0.4849753526966629,0.01190829481313377
-0.0353125,0.4849753526966629,0.01190829481313377
-0.0353,0.4849753526966629,0.01190829481313377
-0.0352875,0.4849753526966629,0.01190829481313377
-0.035275,0.4849753526966629,0.01190829481313377
-0.0352625,0.4849753526966629,0.01190829481313377
-0.03525,0.4853134848133871,0.01190829481313377
-0.0352375,0.4853134848133871,0.01190829481313377
-0.035225,0.4853134848133871,0.01190829481313377
-0.0352125,0.4853134848133871,0.01190829481313377
-0.0352,0.4853134848133871,0.01190829481313377
-0.0351875,0.4856516169301113,0.01190829481313377
-0.035175,0.4856516169301113,0.01190829481313377
-0.0351625,0.4856516169301113,0.01190829481313377
-0.03515,0.4856516169301113,0.01157194406841983
-0.0351375,0.4859897490468355,0.01190829481313377
-0.035125,0.4856516169301114,0.01190829481313377
-0.0351125,0.4856516169301113,0.01190829481313377
-0.0351,0.4856516169301113,0.01157194406841983
-0.0350875,0.4856516169301113,0.01190829481313377
-0.035075,0.4859897490468355,0.01157194406841983
-0.0350625,0.4859897490468355,0.01190829481313361
-0.03505,0.4859897490468355,0.01190829481313377
-0.0350375,0.4863278811635596,0.01190829481313377
-0.035025,0.4863278811635596,0.01190829481313377
-0.0350125,0.4863278811635596,0.01157194406841983
-0.035,0.4863278811635596,0.01190829481313361
-0.0349875,0.4863278811635596,0.01190829481313377
-0.034975,0.4863278811635596,0.01157194406841983
-0.0349625,0.4863278811635596,0.01190829481313377
-0.03495,0.4863278811635596,0.01190829481313377
-0.0349375,0.4863278811635596,0.01190829481313377
-0.034925,0.4863278811635596,0.01190829481313377
-0.0349125,0.4866660132802837,0.01190829481313377
-0.0349,0.4863278811635596,0.01190829481313377
-0.0348875,0.4866660132802837,0.01190829481313377
-0.034875,0.4866660132802837,0.01190829481313377
-0.0348625,0.4866660132802837,0.01190829481313377
-0.03485,0.4866660132802837,0.01190829481313377
-0.0348375,0.4866660132802837,0.01190829481313377
-0.034825,0.4866660132802837,0.01157194406841983
-0.0348125,0.4870041453970078,0.01190829481313361
-0.0348,0.4866660132802837,0.01157194406841983
-0.0347875,0.4870041453970079,0.01157194406841983
-0.034775,0.4870041453970079,0.01190829481313377
-0.0347625,0.487342277513732,0.01157194406841983
-0.03475,0.4870041453970081,0.01190829481313361
-0.0347375,0.4870041453970079,0.01190829481313377
-0.034725,0.4870041453970079,0.01190829481313377
-0.0347125,0.487342277513732,0.01190829481313377
-0.0347,0.487342277513732,0.01190829481313377
-0.0346875,0.4870041453970081,0.01190829481313377
-0.034675,0.4870041453970079,0.01190829481313377
-0.0346625,0.487342277513732,0.01190829481313377
-0.03465,0.487342277513732,0.01190829481313377
-0.0346375,0.487342277513732,0.01190829481313377
-0.034625,0.4870041453970081,0.01190829481313377
-0.0346125,0.487342277513732,0.01190829481313377
-0.0346,0.4876804096304562,0.01190829481313377
-0.0345875,0.4876804096304562,0.01190829481313377
-0.034575,0.4876804096304562,0.01190829481313377
-0.0345625,0.4880185417471802,0.01190829481313377
-0.03455,0.4876804096304562,0.01190829481313377
-0.0345375,0.4876804096304562,0.01190829481313377
-0.034525,0.4880185417471804,0.01157194406841983
-0.0345125,0.4880185417471804,0.01157194406841983
-0.0345,0.4880185417471804,0.01190829481313361
-0.0344875,0.4880185417471804,0.01157194406841983
-0.034475,0.4880185417471804,0.01157194406841983
-0.0344625,0.4880185417471804,0.01157194406841983
-0.03445,0.4883566738639046,0.01190829481313377
-0.0344375,0.4883566738639046,0.01190829481313377
-0.034425,0.4883566738639046,0.01190829481313377
-0.0344125,0.4883566738639046,0.01190829481313377
-0.0344,0.4880185417471804,0.01190829481313377
-0.0343875,0.4883566738639046,0.01190829481313377
-0.034375,0.4883566738639046,0.01157194406841983
-0.0343625,0.4883566738639046,0.01190829481313377
-0.03435,0.4883566738639046,0.01157194406841983
-0.0343375,0.4886948059806287,0.01190829481313377
-0.034325,0.4886948059806287,0.01157194406841983
-0.0343125,0.4886948059806287,0.01190829481313377
-0.0343,0.4886948059806287,0.01190829481313377
-0.0342875,0.4886948059806287,0.01190829481313377
-0.034275,0.4886948059806287,0.01157194406841983
-0.0342625,0.4886948059806287,0.01190829481313377
-0.03425,0.4886948059806287,0.01190829481313377
-0.0342375,0.4890329380973529,0.01190829481313377
-0.034225,0.4890329380973529,0.01190829481313377
-0.0342125,0.4890329380973529,0.01190829481313377
-0.0342,0.4893710702140771,0.01190829481313377
-0.0341875,0.4890329380973529,0.01157194406841983
-0.034175,0.4893710702140769,0.01190829481313361
-0.0341625,0.4890329380973529,0.01157194406841983
-0.03415,0.4893710702140771,0.01157194406841983
-0.0341375,0.4893710702140771,0.01157194406841983
-0.034125,0.4893710702140771,0.01190829481313377
-0.0341125,0.4893710702140771,0.01190829481313377
-0.0341,0.4893710702140771,0.01190829481313377
-0.0340875,0.4893710702140771,0.01190829481313377
-0.034075,0.4897092023308012,0.01190829481313377
-0.0340625,0.4897092023308012,0.01190829481313377
-0.03405,0.4897092023308012,0.01190829481313377
-0.0340375,0.4897092023308012,0.01190829481313377
-0.034025,0.4897092023308012,0.01190829481313377
-0.0340125,0.4897092023308012,0.01190829481313377
-0.034,0.4897092023308012,0.01190829481313377
-0.0339875,0.4897092023308014,0.01190829481313377
-0.033975,0.4900473344475254,0.01190829481313377
-0.0339625,0.4900473344475254,0.01190829481313377
-0.03395,0.4900473344475254,0.01190829481313377
-0.0339375,0.4900473344475254,0.01190829481313377
-0.033925,0.4903854665642494,0.01190829481313377
-0.0339125,0.4900473344475254,0.01190829481313377
-0.0339,0.4900473344475254,0.01190829481313377
-0.0338875,0.4900473344475254,0.01157194406841983
-0.033875,0.4903854665642495,0.0122446455578477
-0.0338625,0.4903854665642494,0.01190829481313361
-0.03385,0.4900473344475254,0.01157194406841983
-0.0338375,0.4903854665642495,0.01190829481313377
-0.033825,0.4907235986809737,0.01190829481313377
-0.0338125,0.4903854665642495,0.01190829481313377
-0.0338,0.4903854665642497,0.01190829481313377
-0.0337875,0.4907235986809737,0.01190829481313377
-0.033775,0.4907235986809737,0.0122446455578477
-0.0337625,0.4903854665642495,0.01190829481313377
-0.03375,0.4907235986809737,0.01190829481313377
-0.0337375,0.4907235986809737,0.01190829481313377
-0.033725,0.4907235986809737,0.01190829481313377
-0.0337125,0.4907235986809737,0.01190829481313377
-0.0337,0.4907235986809737,0.01190829481313377
-0.0336875,0.4910617307976978,0.01190829481313377
-0.033675,0.4910617307976978,0.01190829481313377
-0.0336625,0.4910617307976978,0.01190829481313377
-0.03365,0.4907235986809737,0.01190829481313377
-0.0336375,0.4910617307976978,0.01190829481313377
-0.033625,0.4910617307976978,0.01190829481313377
-0.0336125,0.491061730797698,0.01190829481313377
-0.0336,0.491399862914422,0.01190829481313377
-0.0335875,0.491399862914422,0.01157194406841983
-0.033575,0.491399862914422,0.01157194406841983
-0.0335625,0.491399862914422,0.01190829481313377
-0.03355,0.491399862914422,0.01190829481313377
-0.0335375,0.491399862914422,0.01190829481313377
-0.033525,0.491399862914422,0.01190829481313377
-0.0335125,0.491399862914422,0.01190829481313377
-0.0335,0.4917379950311462,0.01190829481313377
-0.0334875,0.4917379950311462,0.01190829481313377
-0.033475,0.4917379950311462,0.01190829481313377
-0.0334625,0.4917379950311462,0.01190829481313377
-0.03345,0.4917379950311462,0.01190829481313377
-0.0334375,0.4920761271478704,0.0122446455578477
-0.033425,0.4917379950311463,0.01190829481313392
-0.0334125,0.4920761271478704,0.01190829481313377
-0.0334,0.4920761271478704,0.01190829481313377
-0.0333875,0.4920761271478704,0.0122446455578477
-0.033375,0.4920761271478704,0.01190829481313377
-0.0333625,0.4920761271478704,0.01224464555784755
-0.03335,0.4920761271478704,0.01190829481313377
-0.0333375,0.4920761271478704,0.01190829481313377
-0.033325,0.4920761271478704,0.01190829481313377
-0.0333125,0.4924142592645945,0.01190829481313377
-0.0333,0.4924142592645945,0.01190829481313377
-0.0332875,0.4924142592645945,0.01190829481313377
-0.033275,0.4924142592645945,0.01190829481313377
-0.0332625,0.4924142592645945,0.01190829481313377
-0.03325,0.4924142592645945,0.01190829481313377
-0.0332375,0.4927523913813185,0.01190829481313377
-0.033225,0.4924142592645945,0.01190829481313377
-0.0332125,0.4927523913813187,0.01190829481313377
-0.0332,0.4927523913813187,0.01157194406841983
-0.0331875,0.4927523913813187,0.01157194406841983
-0.033175,0.4927523913813187,0.01190829481313361
-0.0331625,0.4927523913813187,0.01190829481313377
-0.03315,0.4927523913813187,0.01190829481313377
-0.0331375,0.4930905234980428,0.01190829481313377
-0.033125,0.4930905234980428,0.01190829481313377
-0.0331125,0.4930905234980428,0.01190829481313377
-0.0331,0.4930905234980428,0.01190829481313377
-0.0330875,0.493428655614767,0.01190829481313377
-0.033075,0.4930905234980428,0.01190829481313377
-0.0330625,0.4930905234980428,0.01190829481313377
-0.03305,0.4930905234980428,0.01190829481313377
-0.0330375,0.493428655614767,0.01190829481313377
-0.033025,0.493428655614767,0.01190829481313377
-0.0330125,0.493428655614767,0.01190829481313377
-0.033,0.493428655614767,0.01190829481313377
-0.0329875,0.493766787731491,0.01190829481313377
-0.032975,0.493428655614767,0.01190829481313377
-0.0329625,0.4937667877314911,0.01190829481313377
-0.03295,0.4937667877314911,0.01190829481313377
-0.0329375,0.4937667877314911,0.01190829481313377
-0.032925,0.4937667877314911,0.01190829481313377
-0.0329125,0.4941049198482153,0.01157194406841983
-0.0329,0.4937667877314911,0.01190829481313377
-0.0328875,0.4937667877314911,0.01190829481313377
-0.032875,0.4937667877314911,0.01190829481313377
-0.0328625,0.4941049198482153,0.01190829481313377
-0.03285,0.4937667877314911,0.01190829481313377
-0.0328375,0.4941049198482153,0.01190829481313377
-0.032825,0.4941049198482153,0.01190829481313377
-0.0328125,0.4941049198482153,0.01190829481313377
-0.0328,0.4941049198482153,0.01190829481313377
-0.0327875,0.4941049198482153,0.01190829481313377
-0.032775,0.4941049198482153,0.01190829481313377
-0.0327625,0.4941049198482153,0.01190829481313377
-0.03275,0.4944430519649395,0.01190829481313377
-0.0327375,0.4947811840816636,0.01190829481313377
-0.032725,0.4944430519649395,0.01190829481313377
-0.0327125,0.4944430519649395,0.01190829481313377
-0.0327,0.4944430519649395,0.01190829481313377
-0.0326875,0.4947811840816636,0.01190829481313377
-0.032675,0.4947811840816636,0.01190829481313377
-0.0326625,0.4947811840816636,0.01190829481313377
-0.03265,0.4947811840816636,0.01190829481313377
-0.0326375,0.4947811840816636,0.01190829481313377
-0.032625,0.4947811840816636,0.01190829481313377
-0.0326125,0.4947811840816636,0.0122446455578477
-0.0326,0.4951193161983876,0.01224464555784755
-0.0325875,0.4947811840816636,0.01190829481313377
-0.032575,0.4951193161983878,0.01190829481313377
-0.0325625,0.4951193161983878,0.01190829481313377
-0.03255,0.4951193161983878,0.01190829481313377
-0.0325375,0.4951193161983878,0.01190829481313377
-0.032525,0.4951193161983878,0.01190829481313377
-0.0325125,0.4951193161983878,0.01190829481313377
-0.0325,0.495457448315112,0.01157194406841983
-0.0324875,0.495457448315112,0.01190829481313377
-0.032475,0.495457448315112,0.01157194406841998
-0.0324625,0.495457448315112,0.01190829481313377
-0.03245,0.495457448315112,0.01190829481313377
-0.0324375,0.495457448315112,0.01190829481313377
-0.032425,0.4957955804318361,0.01190829481313377
-0.0324125,0.4954574483151121,0.01190829481313377
-0.0324,0.4957955804318361,0.01190829481313377
-0.0323875,0.495457448315112,0.01157194406841983
-0.032375,0.4957955804318361,0.01190829481313377
-0.0323625,0.4957955804318361,0.01190829481313377
-0.03235,0.4957955804318361,0.01190829481313377
-0.0323375,0.4957955804318361,0.01190829481313377
-0.032325,0.4961337125485603,0.01190829481313377
-0.0323125,0.4957955804318361,0.01190829481313377
-0.0323,0.4961337125485603,0.01190829481313377
-0.0322875,0.4961337125485604,0.01190829481313377
-0.032275,0.4964718446652844,0.01190829481313377
-0.0322625,0.4961337125485603,0.01190829481313377
-0.03225,0.4961337125485603,0.01190829481313377
-0.0322375,0.4961337125485603,0.0122446455578477
-0.032225,0.4964718446652844,0.01190829481313377
-0.0322125,0.4964718446652844,0.01190829481313377
-0.0322,0.4964718446652844,0.01190829481313377
-0.0321875,0.4964718446652844,0.01190829481313377
-0.032175,0.4964718446652844,0.01190829481313377
-0.0321625,0.4964718446652846,0.01190829481313377
-0.03215,0.4968099767820086,0.01190829481313377
-0.0321375,0.4964718446652844,0.01157194406841983
-0.032125,0.4968099767820086,0.01190829481313377
-0.0321125,0.4968099767820086,0.01190829481313377
-0.0321,0.4968099767820086,0.01190829481313377
-0.0320875,0.4968099767820086,0.01190829481313377
-0.032075,0.4968099767820086,0.01190829481313377
-0.0320625,0.4968099767820086,0.01190829481313377
-0.03205,0.4971481088987327,0.01190829481313377
-0.0320375,0.4968099767820088,0.01190829481313377
-0.032025,0.4971481088987327,0.01190829481313377
-0.0320125,0.4971481088987327,0.01190829481313377
-0.032,0.4971481088987327,0.01190829481313377
-0.0319875,0.4971481088987327,0.01190829481313377
-0.031975,0.4971481088987327,0.01190829481313377
-0.0319625,0.4974862410154569,0.01190829481313377
-0.03195,0.4971481088987327,0.01190829481313377
-0.0319375,0.4971481088987327,0.01190829481313377
-0.031925,0.4974862410154569,0.01190829481313377
-0.0319125,0.4974862410154569,0.01190829481313377
-0.0319,0.4974862410154569,0.01190829481313377
-0.0318875,0.4974862410154569,0.01190829481313377
-0.031875,0.4978243731321811,0.01190829481313377
-0.0318625,0.4978243731321811,0.01190829481313377
-0.03185,0.4978243731321811,0.01224464555784755
-0.0318375,0.4978243731321811,0.01190829481313377
-0.031825,0.4974862410154569,0.01190829481313377
-0.0318125,0.4978243731321811,0.01190829481313377
-0.0318,0.4978243731321811,0.01190829481313377
-0.0317875,0.4978243731321811,0.01190829481313377
-0.031775,0.4978243731321811,0.01190829481313377
-0.0317625,0.4978243731321811,0.01190829481313377
-0.03175,0.4981625052489053,0.01190829481313377
-0.0317375,0.4981625052489053,0.01190829481313377
-0.031725,0.4981625052489053,0.01190829481313377
-0.0317125,0.4981625052489053,0.01190829481313377
-0.0317,0.4981625052489053,0.01190829481313377
-0.0316875,0.4981625052489053,0.01190829481313377
-0.031675,0.4981625052489053,0.01190829481313377
-0.0316625,0.4985006373656292,0.01190829481313377
-0.03165,0.4985006373656294,0.01190829481313377
-0.0316375,0.4985006373656294,0.01190829481313377
-0.031625,0.4988387694823536,0.01190829481313377
-0.0316125,0.4988387694823536,0.01190829481313377
-0.0316,0.4988387694823536,0.01190829481313377
-0.0315875,0.4988387694823536,0.01190829481313377
-0.031575,0.4988387694823536,0.01190829481313377
-0.0315625,0.4988387694823536,0.01190829481313377
-0.03155,0.4988387694823536,0.01190829481313377
-0.0315375,0.4991769015990776,0.01190829481313377
-0.031525,0.4988387694823536,0.01190829481313377
-0.0315125,0.4988387694823536,0.01190829481313377
-0.0315,0.4991769015990777,0.01190829481313377
-0.0314875,0.4988387694823536,0.01190829481313377
-0.031475,0.4991769015990776,0.01190829481313377
-0.0314625,0.4995150337158019,0.01190829481313377
-0.03145,0.4991769015990777,0.01157194406841983
-0.0314375,0.4991769015990777,0.01190829481313377
-0.031425,0.4991769015990777,0.01190829481313377
-0.0314125,0.4995150337158017,0.01190829481313377
-0.0314,0.4995150337158019,0.01190829481313377
-0.0313875,0.4995150337158019,0.01190829481313377
-0.031375,0.4995150337158019,0.01190829481313377
-0.0313625,0.4995150337158019,0.01190829481313377
-0.03135,0.4995150337158019,0.01190829481313377
-0.0313375,0.4998531658325261,0.01190829481313377
-0.031325,0.4998531658325261,0.01157194406841983
-0.0313125,0.4995150337158019,0.01190829481313377
-0.0313,0.4995150337158019,0.01190829481313377
-0.0312875,0.4995150337158019,0.01190829481313377
-0.031275,0.4995150337158019,0.01190829481313377
-0.0312625,0.4995150337158019,0.01190829481313377
-0.03125,0.4998531658325261,0.01190829481313377
-0.0312375,0.5001912979492502,0.01157194406841983
-0.031225,0.4998531658325261,0.01157194406841983
-0.0312125,0.5001912979492502,0.01190829481313377
-0.0312,0.5001912979492502,0.01190829481313377
-0.0311875,0.5001912979492502,0.01157194406841983
-0.031175,0.4998531658325261,0.01190829481313377
-0.0311625,0.5001912979492502,0.01190829481313377
-0.03115,0.5005294300659744,0.01190829481313377
-0.0311375,0.5005294300659744,0.01190829481313377
-0.031125,0.5005294300659744,0.01190829481313377
-0.0311125,0.5005294300659744,0.01190829481313377
-0.0311,0.5005294300659744,0.0122446455578477
-0.0310875,0.5005294300659744,0.01190829481313377
-0.031075,0.5005294300659744,0.01190829481313377
-0.0310625,0.5008675621826986,0.01190829481313377
-0.03105,0.5005294300659744,0.01190829481313377
-0.0310375,0.5005294300659744,0.01190829481313377
-0.031025,0.5005294300659744,0.01190829481313377
-0.0310125,0.5008675621826986,0.01190829481313377
-0.031,0.5008675621826986,0.01157194406841983
-0.0309875,0.5008675621826986,0.01190829481313377
-0.030975,0.5008675621826986,0.01190829481313377
-0.0309625,0.5008675621826986,0.01190829481313377
-0.03095,0.5008675621826986,0.01190829481313377
-0.0309375,0.5008675621826986,0.01190829481313377
-0.030925,0.5012056942994227,0.01157194406841983
-0.0309125,0.5008675621826986,0.01190829481313377
-0.0309,0.5012056942994227,0.01190829481313377
-0.0308875,0.5012056942994227,0.01190829481313377
-0.030875,0.5012056942994227,0.01157194406841983
-0.0308625,0.5012056942994227,0.01190829481313377
-0.03085,0.5012056942994227,0.01157194406841983
-0.0308375,0.5015438264161469,0.01190829481313377
-0.030825,0.5012056942994227,0.01157194406841983
-0.0308125,0.5015438264161469,0.01190829481313377
-0.0308,0.5015438264161469,0.01157194406841983
-0.0307875,0.5015438264161469,0.01190829481313377
-0.030775,0.5015438264161469,0.01190829481313377
-0.0307625,0.5018819585328711,0.01157194406841983
-0.03075,0.5015438264161469,0.01157194406841983
-0.0307375,0.5018819585328711,0.01190829481313377
-0.030725,0.5018819585328711,0.01157194406841983
-0.0307125,0.5018819585328711,0.01190829481313377
-0.0307,0.5018819585328711,0.01157194406841983
-0.0306875,0.5018819585328711,0.01190829481313377
-0.030675,0.5018819585328711,0.01157194406841983
-0.0306625,0.5022200906495953,0.01190829481313377
-0.03065,0.5022200906495953,0.01157194406841983
-0.0306375,0.5018819585328711,0.01190829481313377
-0.030625,0.5022200906495953,0.01157194406841983
-0.0306125,0.5022200906495953,0.01190829481313377
-0.0306,0.5022200906495953,0.01190829481313377
-0.0305875,0.5022200906495953,0.01190829481313377
-0.030575,0.5025582227663195,0.01190829481313377
-0.0305625,0.5022200906495953,0.01190829481313377
-0.03055,0.5025582227663195,0.01190829481313377
-0.0305375,0.5022200906495953,0.01190829481313377
-0.030525,0.5025582227663195,0.01190829481313377
-0.0305125,0.5025582227663195,0.01190829481313377
-0.0305,0.5025582227663195,0.01190829481313377
-0.0304875,0.5025582227663195,0.01190829481313377
-0.030475,0.5025582227663195,0.01190829481313377
-0.0304625,0.5025582227663195,0.01190829481313377
-0.03045,0.5028963548830435,0.01190829481313377
-0.0304375,0.5028963548830435,0.01157194406841983
-0.030425,0.5028963548830435,0.01190829481313377
-0.0304125,0.5028963548830435,0.01190829481313377
-0.0304,0.5028963548830435,0.0122446455578477
-0.0303875,0.5028963548830435,0.01190829481313377
-0.030375,0.5035726191164919,0.0122446455578477
-0.0303625,0.5032344869997677,0.01190829481313377
-0.03035,0.5032344869997677,0.01190829481313377
-0.0303375,0.5032344869997677,0.01157194406841983
-0.030325,0.5032344869997677,0.01190829481313377
-0.0303125,0.5032344869997677,0.01190829481313377
-0.0303,0.5032344869997677,0.01190829481313377
-0.0302875,0.5032344869997677,0.01190829481313377
-0.030275,0.5035726191164919,0.01190829481313377
-0.0302625,0.5035726191164919,0.01190829481313377
-0.03025,0.5035726191164919,0.01190829481313377
-0.0302375,0.5035726191164919,0.01190829481313377
-0.030225,0.5035726191164919,0.01190829481313377
-0.0302125,0.5035726191164919,0.01190829481313377
-0.0302,0.5035726191164919,0.01190829481313377
-0.0301875,0.503910751233216,0.01157194406841983
-0.030175,0.503910751233216,0.01190829481313377
-0.0301625,0.503910751233216,0.01190829481313377
-0.03015,0.503910751233216,0.01190829481313377
-0.0301375,0.503910751233216,0.01190829481313377
-0.030125,0.503910751233216,0.01190829481313377
-0.0301125,0.503910751233216,0.01190829481313377
-0.0301,0.5042488833499402,0.01190829481313377
-0.0300875,0.503910751233216,0.01190829481313377
-0.030075,0.503910751233216,0.01190829481313377
-0.0300625,0.5042488833499402,0.01190829481313377
-0.03005,0.503910751233216,0.01190829481313377
-0.0300375,0.5042488833499402,0.01190829481313377
-0.030025,0.5045870154666644,0.01190829481313377
-0.0300125,0.5042488833499402,0.01190829481313377
-0.03,0.5045870154666644,0.01190829481313377
-0.0299875,0.5045870154666644,0.01190829481313377
-0.029975,0.5045870154666644,0.01190829481313377
-0.0299625,0.5042488833499402,0.01157194406841983
-0.02995,0.5045870154666644,0.01190829481313377
-0.0299375,0.5049251475833886,0.01190829481313377
-0.029925,0.5045870154666644,0.01190829481313377
-0.0299125,0.5049251475833886,0.01190829481313377
-0.0299,0.5049251475833886,0.01190829481313377
-0.0298875,0.5045870154666644,0.01190829481313377
-0.029875,0.5049251475833886,0.01190829481313377
-0.0298625,0.5049251475833886,0.01190829481313377
-0.02985,0.5052632797001126,0.01190829481313377
-0.0298375,0.5052632797001126,0.01190829481313377
-0.029825,0.5052632797001126,0.01190829481313377
-0.0298125,0.5052632797001126,0.01190829481313377
-0.0298,0.5052632797001126,0.01190829481313377
-0.0297875,0.5052632797001126,0.01190829481313377
-0.029775,0.5056014118168368,0.01190829481313377
-0.0297625,0.5056014118168368,0.01190829481313377
-0.02975,0.5052632797001126,0.01190829481313377
-0.0297375,0.5056014118168368,0.01190829481313377
-0.029725,0.5052632797001126,0.01190829481313377
-0.0297125,0.5056014118168368,0.01190829481313377
-0.0297,0.5056014118168368,0.01157194406841983
-0.0296875,0.5056014118168368,0.01190829481313377
-0.029675,0.5056014118168368,0.01190829481313377
-0.0296625,0.505939543933561,0.01190829481313377
-0.02965,0.505939543933561,0.01190829481313377
-0.0296375,0.505939543933561,0.01157194406841983
-0.029625,0.5056014118168368,0.01157194406841983
-0.0296125,0.505939543933561,0.01190829481313377
-0.0296,0.505939543933561,0.01157194406841983
-0.0295875,0.505939543933561,0.01157194406841983
-0.029575,0.505939543933561,0.01157194406841983
-0.0295625,0.505939543933561,0.01157194406841983
-0.02955,0.505939543933561,0.01157194406841983
-0.0295375,0.5062776760502852,0.01190829481313377
-0.029525,0.505939543933561,0.01157194406841983
-0.0295125,0.5062776760502852,0.01190829481313377
-0.0295,0.505939543933561,0.0122446455578477
-0.0294875,0.5062776760502852,0.01190829481313377
-0.029475,0.5062776760502852,0.01190829481313377
-0.0294625,0.5066158081670094,0.01190829481313377
-0.02945,0.5062776760502852,0.01157194406841983
-0.0294375,0.5066158081670094,0.01157194406841983
-0.029425,0.5066158081670094,0.01190829481313377
-0.0294125,0.5066158081670094,0.01190829481313377
-0.0294,0.5066158081670094,0.01190829481313377
-0.0293875,0.5069539402837335,0.01190829481313377
-0.029375,0.5069539402837335,0.01190829481313377
-0.0293625,0.5066158081670094,0.01157194406841983
-0.02935,0.5066158081670094,0.01190829481313377
-0.0293375,0.5069539402837335,0.01190829481313377
-0.029325,0.5069539402837335,0.01190829481313377
-0.0293125,0.5069539402837335,0.01190829481313377
-0.0293,0.5072920724004577,0.01190829481313377
-0.0292875,0.5069539402837335,0.01190829481313377
-0.029275,0.5069539402837335,0.01190829481313377
-0.0292625,0.5072920724004577,0.01190829481313377
-0.02925,0.5072920724004577,0.01190829481313377
-0.0292375,0.5072920724004577,0.01190829481313377
-0.029225,0.5072920724004577,0.01190829481313377
-0.0292125,0.5072920724004577,0.01157194406841983
-0.0292,0.5076302045171818,0.01157194406841983
-0.0291875,0.5076302045171818,0.01190829481313377
-0.029175,0.5076302045171818,0.01190829481313377
-0.0291625,0.5076302045171818,0.01190829481313377
-0.02915,0.5076302045171818,0.01190829481313377
-0.0291375,0.5076302045171818,0.01190829481313377
-0.029125,0.5076302045171818,0.01190829481313377
-0.0291125,0.5076302045171818,0.01190829481313377
-0.0291,0.5076302045171818,0.01157194406841983
-0.0290875,0.5076302045171818,0.01157194406841983
-0.029075,0.5076302045171818,0.01157194406841983
-0.0290625,0.5079683366339059,0.01190829481313377
-0.02905,0.5079683366339059,0.01190829481313377
-0.0290375,0.5079683366339059,0.01190829481313377
-0.029025,0.5079683366339059,0.01190829481313377
-0.0290125,0.5079683366339059,0.01190829481313377
-0.029,0.5083064687506301,0.01190829481313377
-0.0289875,0.5083064687506301,0.01190829481313377
-0.028975,0.5083064687506301,0.01190829481313377
-0.0289625,0.5083064687506301,0.01190829481313377
-0.02895,0.5083064687506301,0.01190829481313377
-0.0289375,0.5083064687506301,0.01190829481313377
-0.028925,0.5083064687506301,0.01157194406841983
-0.0289125,0.5083064687506301,0.01190829481313377
-0.0289,0.5083064687506301,0.01157194406841983
-0.0288875,0.5086446008673543,0.01190829481313377
-0.028875,0.5086446008673543,0.01157194406841983
-0.0288625,0.5083064687506301,0.01190829481313377
-0.02885,0.5083064687506301,0.01190829481313377
-0.0288375,0.5086446008673543,0.01190829481313377
-0.028825,0.5086446008673543,0.01190829481313377
-0.0288125,0.5086446008673543,0.01157194406841983
-0.0288,0.5086446008673543,0.01157194406841983
-0.0287875,0.5086446008673543,0.01190829481313377
-0.028775,0.5089827329840785,0.01157194406841983
-0.0287625,0.5089827329840785,0.01190829481313377
-0.02875,0.5089827329840785,0.01190829481313377
-0.0287375,0.5089827329840785,0.01157194406841983
-0.028725,0.5089827329840785,0.01157194406841983
-0.0287125,0.5089827329840785,0.01157194406841983
-0.0287,0.5089827329840785,0.01190829481313377
-0.0286875,0.5093208651008027,0.01190829481313377
-0.028675,0.5089827329840785,0.01157194406841983
-0.0286625,0.5093208651008027,0.01190829481313377
-0.02865,0.5093208651008027,0.01190829481313377
-0.0286375,0.5093208651008027,0.01190829481313377
-0.028625,0.5093208651008027,0.01190829481313377
-0.0286125,0.5096589972175268,0.01190829481313377
-0.0286,0.5096589972175268,0.01190829481313377
-0.0285875,0.5093208651008027,0.01157194406841983
-0.028575,0.5093208651008027,0.01190829481313377
-0.0285625,0.5096589972175268,0.01157194406841983
-0.02855,0.5099971293342509,0.01190829481313377
-0.0285375,0.5093208651008027,0.01190829481313377
-0.028525,0.5099971293342509,0.01190829481313377
-0.0285125,0.5096589972175268,0.01190829481313377
-0.0285,0.5096589972175268,0.01190829481313377
-0.0284875,0.5099971293342509,0.01157194406841983
-0.028475,0.5099971293342509,0.01190829481313377
-0.0284625,0.5099971293342509,0.01190829481313377
-0.02845,0.5103352614509751,0.01190829481313377
-0.0284375,0.5099971293342509,0.01190829481313377
-0.028425,0.5099971293342509,0.01190829481313377
-0.0284125,0.5103352614509751,0.01190829481313377
-0.0284,0.5103352614509751,0.01190829481313377
-0.0283875,0.5103352614509751,0.01190829481313377
-0.028375,0.5103352614509751,0.01190829481313377
-0.0283625,0.5103352614509751,0.01190829481313377
-0.02835,0.5103352614509751,0.01190829481313377
-0.0283375,0.5103352614509751,0.01190829481313377
-0.028325,0.5106733935676993,0.01190829481313377
-0.0283125,0.5103352614509751,0.01190829481313377
-0.0283,0.5106733935676993,0.01190829481313377
-0.0282875,0.5103352614509751,0.01157194406841983
-0.028275,0.5106733935676993,0.01190829481313377
-0.0282625,0.5106733935676993,0.01190829481313377
-0.02825,0.5106733935676993,0.01190829481313377
-0.0282375,0.5110115256844234,0.01190829481313377
-0.028225,0.5106733935676993,0.01157194406841983
-0.0282125,0.5110115256844234,0.01157194406841983
-0.0282,0.5110115256844234,0.01157194406841983
-0.0281875,0.5110115256844234,0.01190829481313377
-0.028175,0.5110115256844234,0.01190829481313377
-0.0281625,0.5113496578011476,0.01190829481313377
-0.02815,0.5113496578011476,0.01157194406841983
-0.0281375,0.5113496578011476,0.01190829481313377
-0.028125,0.5113496578011476,0.01190829481313377
-0.0281125,0.5113496578011476,0.01190829481313377
-0.0281,0.5113496578011476,0.01190829481313377
-0.0280875,0.5116877899178718,0.01190829481313377
-0.028075,0.5113496578011476,0.01157194406841983
-0.0280625,0.5113496578011476,0.01190829481313377
-0.02805,0.5113496578011476,0.01190829481313377
-0.0280375,0.5116877899178718,0.01190829481313377
-0.028025,0.5116877899178718,0.01190829481313377
-0.0280125,0.512025922034596,0.01190829481313377
-0.028,0.5116877899178718,0.01190829481313377
-0.0279875,0.512025922034596,0.01190829481313377
-0.027975,0.5116877899178718,0.01190829481313377
-0.0279625,0.5116877899178718,0.01157194406841983
-0.02795,0.5116877899178718,0.01157194406841983
-0.0279375,0.512025922034596,0.01190829481313377
-0.027925,0.5116877899178718,0.01157194406841983
-0.0279125,0.512025922034596,0.01190829481313377
-0.0279,0.512025922034596,0.01190829481313377
-0.0278875,0.512025922034596,0.01190829481313377
-0.027875,0.512025922034596,0.01157194406841983
-0.0278625,0.512025922034596,0.01190829481313377
-0.02785,0.512025922034596,0.01190829481313377
-0.0278375,0.512025922034596,0.01157194406841983
-0.027825,0.512025922034596,0.01157194406841983
-0.0278125,0.5123640541513201,0.01157194406841983
-0.0278,0.5123640541513201,0.01190829481313377
-0.0277875,0.5127021862680442,0.01157194406841983
-0.027775,0.5127021862680442,0.01190829481313377
-0.0277625,0.5127021862680442,0.01157194406841983
-0.02775,0.5127021862680442,0.01190829481313377
-0.0277375,0.5127021862680442,0.01190829481313377
-0.027725,0.5127021862680442,0.01190829481313377
-0.0277125,0.5130403183847684,0.01190829481313377
-0.0277,0.5127021862680442,0.01190829481313377
-0.0276875,0.5130403183847684,0.01190829481313377
-0.027675,0.5130403183847684,0.01190829481313377
-0.0276625,0.5130403183847684,0.01190829481313377
-0.02765,0.5130403183847684,0.0122446455578477
-0.0276375,0.5130403183847684,0.01157194406841983
-0.027625,0.5130403183847684,0.01190829481313377
-0.0276125,0.5133784505014926,0.01157194406841983
-0.0276,0.5130403183847684,0.01190829481313377
-0.0275875,0.5130403183847684,0.01157194406841983
-0.027575,0.5133784505014926,0.01190829481313377
-0.0275625,0.5133784505014926,0.01157194406841983
-0.02755,0.5133784505014926,0.01190829481313377
-0.0275375,0.5133784505014926,0.01157194406841983
-0.027525,0.5133784505014926,0.01157194406841983
-0.0275125,0.5133784505014926,0.01157194406841983
-0.0275,0.5133784505014926,0.01190829481313377
-0.0274875,0.5133784505014926,0.01190829481313377
-0.027475,0.5133784505014926,0.01157194406841983
-0.0274625,0.5137165826182167,0.01157194406841983
-0.02745,0.5137165826182167,0.01157194406841983
-0.0274375,0.5137165826182167,0.01190829481313377
-0.027425,0.5140547147349409,0.01190829481313377
-0.0274125,0.5137165826182167,0.01157194406841983
-0.0274,0.5137165826182167,0.01157194406841983
-0.0273875,0.5137165826182167,0.01190829481313377
-0.027375,0.5140547147349409,0.01190829481313377
-0.0273625,0.5140547147349409,0.01157194406841983
-0.02735,0.5140547147349409,0.01190829481313377
-0.0273375,0.5140547147349409,0.01190829481313377
-0.027325,0.5140547147349409,0.01190829481313377
-0.0273125,0.5140547147349409,0.01190829481313377
-0.0273,0.5140547147349409,0.01157194406841983
-0.0272875,0.5140547147349409,0.01157194406841983
-0.027275,0.5140547147349409,0.01190829481313377
-0.0272625,0.5140547147349409,0.01157194406841983
-0.02725,0.5140547147349409,0.01157194406841983
-0.0272375,0.5143928468516651,0.01190829481313377
-0.027225,0.5143928468516651,0.01190829481313377
-0.0272125,0.5140547147349409,0.01190829481313377
-0.0272,0.5147309789683893,0.01157194406841983
-0.0271875,0.5143928468516651,0.01190829481313377
-0.027175,0.5147309789683893,0.01157194406841983
-0.0271625,0.5147309789683893,0.01190829481313377
-0.02715,0.5147309789683893,0.01157194406841983
-0.0271375,0.5147309789683893,0.01190829481313377
-0.027125,0.5147309789683893,0.01157194406841983
-0.0271125,0.5150691110851133,0.01190829481313377
-0.0271,0.5150691110851133,0.01157194406841983
-0.0270875,0.5150691110851133,0.01157194406841983
-0.027075,0.5150691110851133,0.01190829481313377
-0.0270625,0.5150691110851133,0.01190829481313377
-0.02705,0.5154072432018375,0.01157194406841983
-0.0270375,0.5150691110851133,0.01157194406841983
-0.027025,0.5154072432018375,0.01190829481313377
-0.0270125,0.5150691110851133,0.01190829481313377
-0.027,0.5154072432018375,0.01157194406841983
-0.0269875,0.5154072432018375,0.01190829481313377
-0.026975,0.5154072432018375,0.01157194406841983
-0.0269625,0.5157453753185617,0.01190829481313377
-0.02695,0.5154072432018375,0.01157194406841983
-0.0269375,0.5157453753185617,0.01157194406841983
-0.026925,0.5157453753185617,0.01190829481313377
-0.0269125,0.5154072432018375,0.01157194406841983
-0.0269,0.5154072432018375,0.01190829481313377
-0.0268875,0.5157453753185617,0.01190829481313377
-0.026875,0.5157453753185617,0.01190829481313377
-0.0268625,0.5157453753185617,0.01190829481313377
-0.02685,0.5157453753185617,0.01190829481313377
-0.0268375,0.5157453753185617,0.01190829481313377
-0.026825,0.5160835074352859,0.01157194406841983
-0.0268125,0.5160835074352859,0.01190829481313377
-0.0268,0.5160835074352859,0.01157194406841983
-0.0267875,0.5157453753185617,0.01190829481313377
-0.026775,0.5160835074352859,0.01190829481313377
-0.0267625,0.5160835074352859,0.01157194406841983
-0.02675,0.51642163955201,0.01157194406841983
-0.0267375,0.5160835074352859,0.01157194406841983
-0.026725,0.5160835074352859,0.01190829481313377
-0.0267125,0.51642163955201,0.01157194406841983
-0.0267,0.51642163955201,0.01157194406841983
-0.0266875,0.5160835074352859,0.01190829481313377
-0.026675,0.5160835074352859,0.01190829481313377
-0.0266625,0.51642163955201,0.01157194406841983
-0.02665,0.5167597716687342,0.01190829481313377
-0.0266375,0.51642163955201,0.01157194406841983
-0.026625,0.5167597716687342,0.01190829481313377
-0.0266125,0.5167597716687342,0.01157194406841983
-0.0266,0.5167597716687342,0.01190829481313377
-0.0265875,0.5167597716687342,0.01157194406841983
-0.026575,0.5167597716687342,0.01190829481313377
-0.0265625,0.5167597716687342,0.01157194406841983
-0.02655,0.5167597716687342,0.01190829481313377
-0.0265375,0.5170979037854584,0.01190829481313377
-0.026525,0.5170979037854584,0.01190829481313377
-0.0265125,0.5170979037854584,0.01190829481313377
-0.0265,0.5170979037854584,0.01190829481313377
-0.0264875,0.5174360359021825,0.01190829481313377
-0.026475,0.5174360359021825,0.01190829481313377
-0.0264625,0.5174360359021825,0.01190829481313377
-0.02645,0.5174360359021825,0.01190829481313377
-0.0264375,0.5174360359021825,0.01190829481313377
-0.026425,0.5174360359021825,0.01190829481313377
-0.0264125,0.5174360359021825,0.01190829481313377
-0.0264,0.5174360359021825,0.01190829481313377
-0.0263875,0.5174360359021825,0.01190829481313377
-0.026375,0.5174360359021825,0.01190829481313377
-0.0263625,0.5177741680189066,0.01190829481313377
-0.02635,0.5174360359021825,0.01190829481313377
-0.0263375,0.5181123001356308,0.01190829481313377
-0.026325,0.5174360359021825,0.01190829481313377
-0.0263125,0.5177741680189066,0.01190829481313377
-0.0263,0.5177741680189066,0.01190829481313377
-0.0262875,0.5177741680189066,0.01190829481313377
-0.026275,0.5181123001356308,0.01157194406841983
-0.0262625,0.5181123001356308,0.01190829481313377
-0.02625,0.5181123001356308,0.01190829481313377
-0.0262375,0.5181123001356308,0.01190829481313377
-0.026225,0.5181123001356308,0.01157194406841983
-0.0262125,0.518450432252355,0.01190829481313377
-0.0262,0.5181123001356308,0.01190829481313377
-0.0261875,0.5181123001356308,0.01190829481313377
-0.026175,0.518450432252355,0.01190829481313377
-0.0261625,0.518450432252355,0.01157194406841983
-0.02615,0.518450432252355,0.01157194406841983
-0.0261375,0.518450432252355,0.01190829481313377
-0.026125,0.518450432252355,0.01190829481313377
-0.0261125,0.518450432252355,0.01157194406841983
-0.0261,0.5181123001356308,0.01157194406841983
-0.0260875,0.518450432252355,0.01157194406841983
-0.026075,0.5187885643690792,0.01157194406841983
-0.0260625,0.518450432252355,0.01157194406841983
-0.02605,0.5187885643690792,0.01157194406841983
-0.0260375,0.5187885643690792,0.01190829481313377
-0.026025,0.5187885643690792,0.01190829481313377
-0.0260125,0.5187885643690792,0.01157194406841983
-0.026,0.5187885643690792,0.01157194406841983
-0.0259875,0.5191266964858033,0.01157194406841983
-0.025975,0.5187885643690792,0.01190829481313377
-0.0259625,0.5191266964858033,0.01157194406841983
-0.02595,0.5191266964858033,0.01190829481313377
-0.0259375,0.5191266964858033,0.01190829481313377
-0.025925,0.5194648286025275,0.01190829481313377
-0.0259125,0.5191266964858033,0.01157194406841983
-0.0259,0.5194648286025275,0.01157194406841983
-0.0258875,0.5194648286025275,0.01157194406841983
-0.025875,0.5194648286025275,0.01190829481313377
-0.0258625,0.5194648286025275,0.01157194406841983
-0.02585,0.5194648286025275,0.01157194406841983
-0.0258375,0.5194648286025275,0.01157194406841983
-0.025825,0.5198029607192516,0.01157194406841983
-0.0258125,0.5194648286025275,0.01190829481313377
-0.0258,0.5194648286025275,0.01190829481313377
-0.0257875,0.5198029607192516,0.01157194406841983
-0.025775,0.5194648286025275,0.01190829481313377
-0.0257625,0.5194648286025275,0.01190829481313377
-0.02575,0.5198029607192516,0.01190829481313377
-0.0257375,0.5198029607192516,0.01157194406841983
-0.025725,0.5198029607192516,0.01190829481313377
-0.0257125,0.5201410928359758,0.01190829481313377
-0.0257,0.5201410928359758,0.01157194406841983
