-0.02559422429078014,0.5583500220258061,0.01325369779198951
-0.02558797429078014,0.5583500220258061,0.01325369779198951
-0.02558172429078014,0.5583500220258061,0.01325369779198951
-0.02557547429078014,0.5583500220258061,0.01325369779198951
-0.02556922429078014,0.5586881541425303,0.01359004853670345
-0.02556297429078014,0.5583500220258061,0.01291734704727558
-0.02555672429078014,0.5583500220258061,0.01325369779198951
-0.02555047429078014,0.5583500220258061,0.01325369779198951
-0.02554422429078014,0.5583500220258061,0.01325369779198951
-0.02553797429078014,0.5580118899090819,0.01291734704727558
-0.02553172429078014,0.5583500220258061,0.01359004853670345
-0.02552547429078014,0.5583500220258061,0.0135900485367033
-0.02551922429078014,0.5583500220258061,0.01325369779198951
-0.02551297429078014,0.5583500220258061,0.01325369779198951
-0.02550672429078014,0.5583500220258061,0.01325369779198951
-0.02550047429078014,0.5583500220258061,0.01359004853670345
-0.02549422429078014,0.5586881541425301,0.01325369779198967
-0.02548797429078014,0.5583500220258061,0.01359004853670345
-0.02548172429078014,0.5583500220258061,0.01325369779198951
-0.02547547429078014,0.5583500220258061,0.01325369779198951
-0.02546922429078014,0.5583500220258061,0.01325369779198951
-0.02546297429078014,0.558350022025806,0.01325369779198951
-0.02545672429078014,0.5580118899090819,0.01325369779198951
-0.02545047429078014,0.5583500220258061,0.01325369779198951
-0.02544422429078014,0.5583500220258061,0.01325369779198951
-0.02543797429078014,0.5583500220258061,0.01325369779198951
-0.02543172429078014,0.5586881541425301,0.01325369779198951
-0.02542547429078014,0.5583500220258061,0.01325369779198951
-0.02541922429078014,0.5583500220258061,0.01325369779198951
-0.02541297429078014,0.5583500220258061,0.01325369779198951
-0.02540672429078014,0.5586881541425303,0.01359004853670345
-0.02540047429078014,0.5586881541425301,0.01359004853670345
-0.02539422429078014,0.5583500220258061,0.01359004853670345
-0.02538797429078014,0.5583500220258061,0.01325369779198951
-0.02538172429078014,0.5583500220258061,0.01359004853670345
-0.02537547429078014,0.5583500220258061,0.01359004853670345
-0.02536922429078014,0.5586881541425301,0.01325369779198967
-0.02536297429078014,0.5580118899090819,0.01325369779198951
-0.02535672429078014,0.5580118899090819,0.01359004853670345
-0.02535047429078014,0.5586881541425303,0.01359004853670345
-0.02534422429078014,0.5583500220258061,0.01325369779198951
-0.02533797429078014,0.5586881541425301,0.0135900485367033
-0.02533172429078014,0.5583500220258061,0.01359004853670345
-0.02532547429078014,0.5586881541425303,0.01359004853670345
-0.02531922429078014,0.5583500220258061,0.01359004853670345
-0.02531297429078014,0.5580118899090819,0.01325369779198951
-0.02530672429078014,0.558350022025806,0.0135900485367033
-0.02530047429078014,0.5583500220258061,0.01359004853670345
-0.02529422429078014,0.5586881541425303,0.01359004853670345
-0.02528797429078014,0.5583500220258061,0.01359004853670345
-0.02528172429078014,0.5583500220258061,0.01359004853670345
-0.02527547429078014,0.5583500220258061,0.01359004853670345
-0.02526922429078014,0.5586881541425303,0.01325369779198951
-0.02526297429078014,0.5586881541425303,0.01325369779198951
-0.02525672429078014,0.5586881541425303,0.01359004853670345
-0.02525047429078014,0.5586881541425303,0.01325369779198951
-0.02524422429078014,0.5586881541425303,0.01325369779198951
-0.02523797429078014,0.5583500220258061,0.01325369779198951
-0.02523172429078014,0.5586881541425303,0.01325369779198951
-0.02522547429078014,0.5586881541425303,0.01359004853670345
-0.02521922429078014,0.5586881541425303,0.01359004853670345
-0.02521297429078014,0.5586881541425303,0.01291734704727588
-0.02520672429078014,0.5583500220258061,0.01359004853670345
-0.02520047429078014,0.5583500220258061,0.01325369779198951
-0.02519422429078014,0.5586881541425303,0.01325369779198951
-0.02518797429078014,0.5580118899090819,0.01325369779198951
-0.02518172429078014,0.558350022025806,0.01325369779198951
-0.02517547429078014,0.5586881541425303,0.01325369779198951
-0.02516922429078014,0.5583500220258061,0.01325369779198951
-0.02516297429078014,0.5583500220258061,0.01359004853670345
-0.02515672429078014,0.5583500220258061,0.01325369779198951
-0.02515047429078014,0.5583500220258061,0.01325369779198951
-0.02514422429078014,0.5583500220258061,0.01325369779198951
-0.02513797429078014,0.5583500220258061,0.01325369779198951
-0.02513172429078014,0.5583500220258061,0.01359004853670345
-0.02512547429078014,0.5580118899090819,0.01359004853670345
-0.02511922429078014,0.5586881541425299,0.01291734704727588
-0.02511297429078014,0.5583500220258061,0.01325369779198951
-0.02510672429078014,0.5583500220258061,0.01359004853670345
-0.02510047429078014,0.5583500220258061,0.01359004853670345
-0.02509422429078014,0.5583500220258061,0.01325369779198951
-0.02508797429078014,0.5583500220258061,0.0135900485367033
-0.02508172429078014,0.5583500220258061,0.01325369779198951
-0.02507547429078014,0.5583500220258061,0.01325369779198951
-0.02506922429078014,0.5583500220258061,0.01325369779198951
-0.02506297429078014,0.5583500220258061,0.01325369779198951
-0.02505672429078014,0.558011889909082,0.01325369779198951
-0.02505047429078014,0.5583500220258061,0.01325369779198951
-0.02504422429078014,0.5583500220258061,0.01325369779198951
-0.02503797429078014,0.5583500220258061,0.01359004853670345
-0.02503172429078014,0.5583500220258061,0.01325369779198951
-0.02502547429078014,0.5583500220258061,0.01291734704727558
-0.02501922429078014,0.5583500220258061,0.01325369779198951
-0.02501297429078014,0.5586881541425303,0.01325369779198951
-0.02500672429078014,0.5583500220258061,0.01325369779198951
-0.02500047429078014,0.5583500220258061,0.01359004853670345
-0.02499422429078014,0.5586881541425303,0.01325369779198951
-0.02498797429078014,0.5586881541425303,0.01325369779198951
-0.02498172429078014,0.5583500220258061,0.01359004853670345
-0.02497547429078014,0.5580118899090819,0.01291734704727558
-0.02496922429078014,0.5580118899090819,0.01325369779198951
-0.02496297429078014,0.5580118899090819,0.01359004853670345
-0.02495672429078014,0.5583500220258061,0.01325369779198951
-0.02495047429078014,0.5583500220258061,0.01325369779198951
-0.02494422429078014,0.5583500220258061,0.01325369779198951
-0.02493797429078014,0.5583500220258061,0.01359004853670345
-0.02493172429078014,0.5586881541425303,0.01325369779198951
-0.02492547429078014,0.5586881541425303,0.0135900485367033
-0.02491922429078014,0.5586881541425303,0.01325369779198951
-0.02491297429078014,0.5586881541425303,0.01359004853670345
-0.02490672429078014,0.5580118899090819,0.01325369779198951
-0.02490047429078014,0.5583500220258061,0.01325369779198951
-0.02489422429078014,0.5583500220258062,0.01325369779198951
-0.02488797429078014,0.5586881541425303,0.01325369779198951
-0.02488172429078014,0.5583500220258061,0.01359004853670345
-0.02487547429078014,0.5583500220258061,0.01325369779198951
-0.02486922429078014,0.5583500220258061,0.01359004853670345
-0.02486297429078014,0.5586881541425303,0.01325369779198951
-0.02485672429078014,0.5586881541425303,0.01325369779198951
-0.02485047429078014,0.5583500220258061,0.01325369779198951
-0.02484422429078014,0.5583500220258061,0.01359004853670345
-0.02483797429078014,0.5586881541425303,0.01325369779198951
-0.02483172429078014,0.5583500220258061,0.01325369779198951
-0.02482547429078014,0.5583500220258061,0.01325369779198951
-0.02481922429078014,0.5586881541425303,0.01359004853670345
-0.02481297429078014,0.5586881541425303,0.01359004853670345
-0.02480672429078014,0.5586881541425303,0.01325369779198951
-0.02480047429078014,0.5583500220258062,0.01359004853670345
-0.02479422429078014,0.5586881541425303,0.01359004853670345
-0.02478797429078014,0.5586881541425303,0.01359004853670345
-0.02478172429078014,0.5586881541425303,0.01359004853670345
-0.02477547429078014,0.5583500220258061,0.01359004853670345
-0.02476922429078014,0.5583500220258062,0.01325369779198967
-0.02476297429078014,0.5586881541425303,0.01359004853670345
-0.02475672429078014,0.5583500220258061,0.01325369779198951
-0.02475047429078014,0.5583500220258061,0.01325369779198951
-0.02474422429078014,0.5583500220258061,0.01325369779198951
-0.02473797429078014,0.559026286259254,0.01291734704727573
-0.02473172429078014,0.5583500220258061,0.01325369779198951
-0.02472547429078014,0.5586881541425303,0.01325369779198951
-0.02471922429078014,0.5583500220258061,0.01325369779198951
-0.02471297429078014,0.5583500220258061,0.01359004853670345
-0.02470672429078014,0.5583500220258061,0.01325369779198951
-0.02470047429078014,0.5583500220258061,0.01325369779198951
-0.02469422429078014,0.5586881541425303,0.01325369779198951
-0.02468797429078014,0.5583500220258061,0.01325369779198951
-0.02468172429078014,0.5583500220258061,0.01325369779198951
-0.02467547429078014,0.5583500220258061,0.01359004853670315
-0.02466922429078014,0.5583500220258061,0.01291734704727558
-0.02466297429078014,0.5583500220258061,0.01325369779198951
-0.02465672429078014,0.5583500220258061,0.01325369779198951
-0.02465047429078014,0.5583500220258061,0.01325369779198951
-0.02464422429078014,0.5583500220258061,0.01325369779198951
-0.02463797429078014,0.5583500220258061,0.01325369779198951
-0.02463172429078014,0.5583500220258061,0.01325369779198951
-0.02462547429078014,0.5583500220258061,0.01359004853670345
-0.02461922429078014,0.5583500220258061,0.01325369779198951
-0.02461297429078014,0.5583500220258061,0.01291734704727573
-0.02460672429078014,0.5583500220258061,0.01325369779198951
-0.02460047429078014,0.5583500220258061,0.01325369779198951
-0.02459422429078014,0.5583500220258061,0.01325369779198951
-0.02458797429078014,0.5583500220258061,0.01325369779198951
-0.02458172429078014,0.5583500220258061,0.01325369779198951
-0.02457547429078014,0.5580118899090819,0.01359004853670345
-0.02456922429078014,0.5583500220258061,0.01325369779198951
-0.02456297429078014,0.5583500220258061,0.01291734704727558
-0.02455672429078014,0.5583500220258061,0.01325369779198951
-0.02455047429078014,0.558011889909082,0.01325369779198951
-0.02454422429078014,0.5583500220258061,0.01325369779198951
-0.02453797429078014,0.5580118899090819,0.01325369779198951
-0.02453172429078014,0.5583500220258061,0.01325369779198951
-0.02452547429078014,0.5580118899090819,0.01359004853670345
-0.02451922429078014,0.5586881541425299,0.01325369779198967
-0.02451297429078014,0.5583500220258061,0.01325369779198951
-0.02450672429078014,0.5583500220258061,0.01325369779198951
-0.02450047429078014,0.5583500220258061,0.01325369779198951
-0.02449422429078014,0.5583500220258061,0.01325369779198951
-0.02448797429078014,0.5583500220258061,0.01325369779198951
-0.02448172429078014,0.5583500220258061,0.01325369779198951
-0.02447547429078014,0.5580118899090819,0.01325369779198951
-0.02446922429078014,0.5583500220258061,0.01325369779198951
-0.02446297429078014,0.5583500220258061,0.01325369779198951
-0.02445672429078014,0.5583500220258061,0.0135900485367033
-0.02445047429078014,0.5580118899090819,0.01325369779198951
-0.02444422429078014,0.5583500220258061,0.01325369779198951
-0.02443797429078014,0.5583500220258061,0.01325369779198951
-0.02443172429078014,0.5580118899090819,0.01359004853670345
-0.02442547429078014,0.5586881541425299,0.01325369779198967
-0.02441922429078014,0.5580118899090819,0.01325369779198951
-0.02441297429078014,0.5583500220258061,0.01291734704727558
-0.02440672429078014,0.5583500220258061,0.01325369779198951
-0.02440047429078014,0.5583500220258061,0.01325369779198951
-0.02439422429078014,0.558011889909082,0.01325369779198951
-0.02438797429078014,0.5583500220258061,0.01325369779198951
-0.02438172429078014,0.5583500220258061,0.01325369779198951
-0.02437547429078014,0.5583500220258061,0.01325369779198951
-0.02436922429078014,0.5583500220258061,0.01325369779198951
-0.02436297429078014,0.5583500220258061,0.0135900485367033
-0.02435672429078014,0.5583500220258061,0.01325369779198951
-0.02435047429078014,0.5583500220258061,0.01325369779198951
-0.02434422429078014,0.5580118899090819,0.01325369779198951
-0.02433797429078014,0.5583500220258061,0.01325369779198951
-0.02433172429078014,0.558011889909082,0.01325369779198951
-0.02432547429078014,0.5580118899090819,0.01325369779198951
-0.02431922429078014,0.5580118899090819,0.01325369779198951
-0.02431297429078014,0.5580118899090819,0.01325369779198951
-0.02430672429078014,0.5580118899090819,0.01325369779198951
-0.02430047429078014,0.5580118899090819,0.01325369779198951
-0.02429422429078014,0.5580118899090819,0.01325369779198951
-0.02428797429078014,0.5583500220258061,0.01325369779198951
-0.02428172429078014,0.5586881541425303,0.01325369779198951
-0.02427547429078014,0.5583500220258061,0.01325369779198951
-0.02426922429078014,0.5583500220258061,0.01325369779198951
-0.02426297429078014,0.5583500220258061,0.01325369779198951
-0.02425672429078014,0.5583500220258061,0.01325369779198951
-0.02425047429078014,0.5583500220258061,0.01359004853670345
-0.02424422429078014,0.5580118899090819,0.01291734704727558
-0.02423797429078014,0.5580118899090819,0.01325369779198951
-0.02423172429078014,0.5583500220258061,0.01325369779198951
-0.02422547429078014,0.5583500220258061,0.01359004853670345
-0.02421922429078014,0.5583500220258061,0.01325369779198951
-0.02421297429078014,0.5583500220258061,0.01325369779198951
-0.02420672429078014,0.5583500220258061,0.01325369779198951
-0.02420047429078014,0.5580118899090819,0.01325369779198951
-0.02419422429078014,0.5583500220258061,0.01325369779198951
-0.02418797429078014,0.5583500220258061,0.01325369779198951
-0.02418172429078014,0.5580118899090819,0.01325369779198951
-0.02417547429078014,0.5583500220258061,0.01359004853670345
-0.02416922429078014,0.5583500220258062,0.01325369779198951
-0.02416297429078014,0.5586881541425303,0.01325369779198951
-0.02415672429078014,0.5583500220258061,0.01325369779198951
-0.02415047429078014,0.5583500220258061,0.01325369779198951
-0.02414422429078014,0.5583500220258061,0.01325369779198951
-0.02413797429078014,0.5583500220258062,0.01325369779198951
-0.02413172429078014,0.5586881541425303,0.01325369779198951
-0.02412547429078014,0.5586881541425303,0.01325369779198951
-0.02411922429078014,0.5583500220258061,0.01325369779198951
-0.02411297429078014,0.5583500220258061,0.01325369779198951
-0.02410672429078014,0.5583500220258061,0.01325369779198951
-0.02410047429078014,0.5583500220258061,0.01325369779198951
-0.02409422429078014,0.5583500220258061,0.01325369779198951
-0.02408797429078014,0.5580118899090819,0.01325369779198951
-0.02408172429078014,0.5583500220258061,0.01325369779198951
-0.02407547429078014,0.5583500220258061,0.01325369779198951
-0.02406922429078014,0.5583500220258061,0.01325369779198951
-0.02406297429078014,0.5576737577923577,0.01325369779198951
-0.02405672429078014,0.5583500220258061,0.01325369779198951
-0.02405047429078014,0.5583500220258061,0.01325369779198951
-0.02404422429078014,0.5583500220258061,0.01325369779198936
-0.02403797429078014,0.5583500220258061,0.01291734704727558
-0.02403172429078014,0.5586881541425303,0.01325369779198951
-0.02402547429078014,0.5583500220258061,0.01325369779198951
-0.02401922429078014,0.5583500220258061,0.01291734704727558
-0.02401297429078014,0.558011889909082,0.01325369779198951
-0.02400672429078014,0.5583500220258061,0.01325369779198951
-0.02400047429078014,0.5583500220258061,0.01359004853670345
-0.02399422429078014,0.5583500220258061,0.01325369779198951
-0.02398797429078014,0.5580118899090819,0.01325369779198951
-0.02398172429078014,0.5583500220258061,0.01325369779198951
-0.02397547429078014,0.5583500220258061,0.01325369779198951
-0.02396922429078014,0.5583500220258061,0.01325369779198951
-0.02396297429078014,0.5580118899090819,0.01325369779198951
-0.02395672429078014,0.5583500220258061,0.01325369779198951
-0.02395047429078014,0.5586881541425301,0.01291734704727573
-0.02394422429078014,0.5583500220258061,0.01325369779198951
-0.02393797429078014,0.5583500220258061,0.01325369779198951
-0.02393172429078014,0.5580118899090819,0.01325369779198951
-0.02392547429078014,0.5583500220258061,0.01359004853670345
-0.02391922429078014,0.5583500220258061,0.01359004853670345
-0.02391297429078014,0.5583500220258061,0.01359004853670345
-0.02390672429078014,0.5583500220258061,0.01359004853670345
-0.02390047429078014,0.5586881541425303,0.01359004853670345
-0.02389422429078014,0.5583500220258061,0.01359004853670345
-0.02388797429078014,0.5583500220258061,0.0135900485367033
-0.02388172429078014,0.5583500220258061,0.01325369779198951
-0.02387547429078014,0.5583500220258061,0.01325369779198951
-0.02386922429078014,0.5583500220258061,0.01359004853670345
-0.02386297429078014,0.5583500220258061,0.01325369779198951
-0.02385672429078014,0.5583500220258061,0.01325369779198951
-0.02385047429078014,0.5583500220258061,0.01325369779198951
-0.02384422429078014,0.5583500220258061,0.01359004853670345
-0.02383797429078014,0.5583500220258061,0.01325369779198951
-0.02383172429078014,0.5583500220258061,0.01325369779198951
-0.02382547429078014,0.5583500220258061,0.01392639928141708
-0.02381922429078014,0.5583500220258061,0.01325369779198951
-0.02381297429078014,0.5580118899090819,0.01325369779198951
-0.02380672429078014,0.5583500220258061,0.01325369779198951
-0.02380047429078014,0.5586881541425303,0.01325369779198951
-0.02379422429078014,0.5583500220258062,0.01325369779198951
-0.02378797429078014,0.5580118899090819,0.01291734704727558
-0.02378172429078014,0.5583500220258061,0.01325369779198951
-0.02377547429078014,0.5583500220258061,0.01359004853670345
-0.02376922429078014,0.5583500220258061,0.01325369779198951
-0.02376297429078014,0.558011889909082,0.01291734704727573
-0.02375672429078014,0.5583500220258061,0.01325369779198951
-0.02375047429078014,0.5583500220258061,0.01325369779198951
-0.02374422429078014,0.5583500220258061,0.01325369779198951
-0.02373797429078014,0.5583500220258061,0.01325369779198951
-0.02373172429078014,0.5583500220258061,0.01325369779198951
-0.02372547429078014,0.5583500220258061,0.01359004853670345
-0.02371922429078014,0.5580118899090819,0.01325369779198951
-0.02371297429078014,0.5583500220258061,0.01291734704727558
-0.02370672429078014,0.5583500220258061,0.01325369779198951
-0.02370047429078014,0.5586881541425301,0.01325369779198951
-0.02369422429078014,0.5583500220258061,0.01291734704727558
-0.02368797429078014,0.5583500220258061,0.01325369779198951
-0.02368172429078014,0.5583500220258061,0.01325369779198951
-0.02367547429078014,0.5583500220258061,0.01325369779198951
-0.02366922429078014,0.5583500220258061,0.01325369779198951
-0.02366297429078014,0.5583500220258061,0.01291734704727558
-0.02365672429078014,0.5580118899090819,0.01325369779198951
-0.02365047429078014,0.5586881541425303,0.01325369779198951
-0.02364422429078014,0.5586881541425303,0.01325369779198951
-0.02363797429078014,0.5580118899090822,0.01291734704727573
-0.02363172429078014,0.5580118899090819,0.01325369779198951
-0.02362547429078014,0.5586881541425303,0.01359004853670345
-0.02361922429078014,0.5586881541425303,0.01291734704727558
-0.02361297429078014,0.5580118899090819,0.01291734704727558
-0.02360672429078014,0.5580118899090819,0.01325369779198936
-0.02360047429078014,0.5583500220258061,0.01325369779198951
-0.02359422429078014,0.5583500220258061,0.01325369779198951
-0.02358797429078014,0.5583500220258061,0.01325369779198951
-0.02358172429078014,0.5583500220258061,0.01359004853670345
-0.02357547429078014,0.558011889909082,0.01325369779198967
-0.02356922429078014,0.5583500220258061,0.01325369779198951
-0.02356297429078014,0.5583500220258061,0.01325369779198951
-0.02355672429078014,0.5583500220258061,0.01359004853670345
-0.02355047429078014,0.5583500220258061,0.01325369779198951
-0.02354422429078014,0.5583500220258061,0.01325369779198951
-0.02353797429078014,0.5583500220258061,0.01325369779198951
-0.02353172429078014,0.5583500220258061,0.01325369779198951
-0.02352547429078014,0.5580118899090819,0.01325369779198951
-0.02351922429078014,0.5583500220258061,0.01325369779198951
-0.02351297429078014,0.5583500220258061,0.01325369779198951
-0.02350672429078014,0.5580118899090819,0.01325369779198951
-0.02350047429078014,0.5586881541425303,0.01325369779198951
-0.02349422429078014,0.5583500220258061,0.01325369779198951
-0.02348797429078014,0.5583500220258061,0.01325369779198951
-0.02348172429078014,0.5583500220258061,0.01325369779198951
-0.02347547429078014,0.5583500220258061,0.01359004853670345
-0.02346922429078014,0.5583500220258061,0.01325369779198951
-0.02346297429078014,0.5586881541425303,0.01325369779198951
-0.02345672429078014,0.5583500220258061,0.01325369779198951
-0.02345047429078014,0.5583500220258061,0.01325369779198951
-0.02344422429078014,0.5583500220258061,0.01325369779198951
-0.02343797429078014,0.5583500220258061,0.01325369779198951
-0.02343172429078014,0.5580118899090819,0.01359004853670345
-0.02342547429078014,0.5583500220258061,0.01325369779198951
-0.02341922429078014,0.5583500220258061,0.01325369779198951
-0.02341297429078014,0.5580118899090819,0.01325369779198951
-0.02340672429078014,0.5583500220258061,0.01359004853670345
-0.02340047429078014,0.5583500220258061,0.01325369779198951
-0.02339422429078014,0.5583500220258061,0.01325369779198951
-0.02338797429078014,0.5586881541425303,0.01325369779198951
-0.02338172429078014,0.5580118899090822,0.0135900485367033
-0.02337547429078014,0.5586881541425303,0.01325369779198951
-0.02336922429078014,0.5583500220258061,0.01325369779198951
-0.02336297429078014,0.5583500220258061,0.01359004853670345
-0.02335672429078014,0.5583500220258061,0.01325369779198951
-0.02335047429078014,0.558350022025806,0.01325369779198951
-0.02334422429078014,0.5580118899090819,0.01325369779198951
-0.02333797429078014,0.5583500220258061,0.01325369779198951
-0.02333172429078014,0.5580118899090819,0.01359004853670345
-0.02332547429078014,0.5583500220258061,0.01359004853670345
-0.02331922429078014,0.558350022025806,0.01325369779198951
-0.02331297429078014,0.5580118899090819,0.01325369779198951
-0.02330672429078014,0.5580118899090819,0.01325369779198951
-0.02330047429078014,0.5583500220258061,0.01359004853670345
-0.02329422429078014,0.5583500220258061,0.01325369779198951
-0.02328797429078014,0.558350022025806,0.01325369779198951
-0.02328172429078014,0.5580118899090819,0.01325369779198951
-0.02327547429078014,0.5580118899090819,0.01325369779198951
-0.02326922429078014,0.5583500220258061,0.01325369779198951
-0.02326297429078014,0.5583500220258061,0.01325369779198951
-0.02325672429078014,0.558011889909082,0.01325369779198951
-0.02325047429078014,0.5583500220258061,0.01325369779198951
-0.02324422429078014,0.5586881541425303,0.01325369779198951
-0.02323797429078014,0.5583500220258061,0.01325369779198951
-0.02323172429078014,0.5580118899090819,0.01359004853670345
-0.02322547429078014,0.5583500220258061,0.01325369779198967
-0.02321922429078014,0.5583500220258061,0.01359004853670345
-0.02321297429078014,0.5586881541425303,0.01359004853670345
-0.02320672429078014,0.5583500220258061,0.01325369779198951
-0.02320047429078014,0.5583500220258061,0.01359004853670345
-0.02319422429078014,0.5586881541425301,0.01359004853670345
-0.02318797429078014,0.5583500220258061,0.01359004853670345
-0.02318172429078014,0.5580118899090819,0.01325369779198951
-0.02317547429078014,0.5583500220258061,0.01359004853670345
-0.02316922429078014,0.5583500220258061,0.01325369779198951
-0.02316297429078014,0.5586881541425301,0.0135900485367033
-0.02315672429078014,0.5583500220258061,0.01325369779198951
-0.02315047429078014,0.5583500220258061,0.01325369779198951
-0.02314422429078014,0.5583500220258061,0.01325369779198951
-0.02313797429078014,0.5586881541425303,0.01325369779198951
-0.02313172429078014,0.5583500220258061,0.01325369779198967
-0.02312547429078014,0.5583500220258061,0.01359004853670345
-0.02311922429078014,0.5583500220258061,0.01359004853670345
-0.02311297429078014,0.5583500220258061,0.01325369779198951
-0.02310672429078014,0.5580118899090819,0.01325369779198951
-0.02310047429078014,0.558011889909082,0.0135900485367033
-0.02309422429078014,0.5583500220258061,0.01325369779198951
-0.02308797429078014,0.5583500220258061,0.01359004853670345
-0.02308172429078014,0.5583500220258061,0.01325369779198951
-0.02307547429078014,0.5583500220258061,0.01325369779198951
-0.02306922429078014,0.5583500220258062,0.01325369779198951
-0.02306297429078014,0.5586881541425303,0.01325369779198951
-0.02305672429078014,0.5580118899090819,0.01325369779198951
-0.02305047429078014,0.5583500220258061,0.01325369779198951
-0.02304422429078014,0.5583500220258061,0.01359004853670345
-0.02303797429078014,0.5586881541425301,0.01359004853670345
-0.02303172429078014,0.5583500220258061,0.01325369779198951
-0.02302547429078014,0.5583500220258061,0.01325369779198951
-0.02301922429078014,0.5580118899090819,0.01325369779198951
-0.02301297429078014,0.5583500220258061,0.01325369779198951
-0.02300672429078014,0.5583500220258061,0.01325369779198951
-0.02300047429078014,0.5583500220258061,0.01325369779198951
-0.02299422429078014,0.5580118899090819,0.01359004853670345
-0.02298797429078014,0.5583500220258061,0.01325369779198951
-0.02298172429078014,0.5580118899090819,0.01325369779198951
-0.02297547429078014,0.558350022025806,0.01325369779198951
-0.02296922429078014,0.5583500220258061,0.01325369779198951
-0.02296297429078014,0.5583500220258061,0.01325369779198951
-0.02295672429078014,0.5580118899090819,0.01325369779198951
-0.02295047429078014,0.5583500220258061,0.01325369779198951
-0.02294422429078014,0.5583500220258061,0.01325369779198951
-0.02293797429078014,0.5583500220258061,0.01325369779198951
-0.02293172429078014,0.5580118899090819,0.01325369779198951
-0.02292547429078014,0.5583500220258061,0.01325369779198951
-0.02291922429078014,0.5583500220258061,0.01359004853670345
-0.02291297429078014,0.5583500220258061,0.01325369779198967
-0.02290672429078014,0.5580118899090819,0.01325369779198951
-0.02290047429078014,0.5583500220258061,0.01325369779198951
-0.02289422429078014,0.5583500220258061,0.01325369779198951
-0.02288797429078014,0.5586881541425303,0.01325369779198951
-0.02288172429078014,0.5583500220258062,0.01325369779198951
-0.02287547429078014,0.5580118899090819,0.01359004853670345
-0.02286922429078014,0.5583500220258061,0.01359004853670345
-0.02286297429078014,0.5583500220258061,0.01359004853670345
-0.02285672429078014,0.5583500220258061,0.01359004853670345
-0.02285047429078014,0.5583500220258061,0.01359004853670345
-0.02284422429078014,0.5583500220258061,0.01359004853670345
-0.02283797429078014,0.5583500220258061,0.01359004853670345
-0.02283172429078014,0.5583500220258061,0.01359004853670345
-0.02282547429078014,0.5583500220258061,0.01359004853670345
-0.02281922429078014,0.5586881541425301,0.01325369779198967
-0.02281297429078014,0.5583500220258061,0.01325369779198951
-0.02280672429078014,0.5580118899090819,0.01325369779198951
-0.02280047429078014,0.5583500220258061,0.01359004853670345
-0.02279422429078014,0.5580118899090819,0.01325369779198951
-0.02278797429078014,0.558350022025806,0.01325369779198951
-0.02278172429078014,0.5583500220258061,0.01325369779198951
-0.02277547429078014,0.5580118899090819,0.01359004853670345
-0.02276922429078014,0.5583500220258061,0.01325369779198951
-0.02276297429078014,0.5583500220258061,0.01291734704727558
-0.02275672429078014,0.5583500220258061,0.01325369779198936
-0.02275047429078014,0.5580118899090819,0.01359004853670345
-0.02274422429078014,0.5583500220258061,0.01325369779198951
-0.02273797429078014,0.5580118899090819,0.01325369779198951
-0.02273172429078014,0.5580118899090819,0.01325369779198951
-0.02272547429078014,0.5580118899090819,0.01325369779198951
-0.02271922429078014,0.5583500220258061,0.01325369779198951
-0.02271297429078014,0.5583500220258061,0.01325369779198951
-0.02270672429078014,0.5586881541425303,0.01291734704727558
-0.02270047429078014,0.5580118899090819,0.01325369779198951
-0.02269422429078014,0.558350022025806,0.01325369779198951
-0.02268797429078014,0.5580118899090819,0.01359004853670345
-0.02268172429078014,0.5583500220258061,0.01359004853670345
-0.02267547429078014,0.5583500220258061,0.01359004853670345
-0.02266922429078014,0.5583500220258061,0.01325369779198951
-0.02266297429078014,0.5586881541425303,0.01359004853670345
-0.02265672429078014,0.5583500220258061,0.01359004853670345
-0.02265047429078014,0.5583500220258061,0.01359004853670345
-0.02264422429078014,0.5580118899090819,0.01291734704727558
-0.02263797429078014,0.5583500220258061,0.01325369779198951
-0.02263172429078014,0.5586881541425303,0.01325369779198951
-0.02262547429078014,0.5580118899090819,0.01325369779198951
-0.02261922429078014,0.5583500220258061,0.01291734704727558
-0.02261297429078014,0.5583500220258061,0.01325369779198951
-0.02260672429078014,0.5583500220258061,0.01359004853670345
-0.02260047429078014,0.5580118899090819,0.01359004853670345
-0.02259422429078014,0.558011889909082,0.01325369779198951
-0.02258797429078014,0.5583500220258061,0.01325369779198951
-0.02258172429078014,0.5583500220258061,0.01325369779198951
-0.02257547429078014,0.5580118899090819,0.01325369779198951
-0.02256922429078014,0.5583500220258061,0.01325369779198951
-0.02256297429078014,0.5583500220258062,0.01325369779198951
-0.02255672429078014,0.5586881541425303,0.01325369779198951
-0.02255047429078014,0.5580118899090819,0.01291734704727558
-0.02254422429078014,0.5580118899090819,0.01359004853670345
-0.02253797429078014,0.5586881541425303,0.01325369779198951
-0.02253172429078014,0.5586881541425299,0.01325369779198936
-0.02252547429078014,0.5580118899090819,0.01291734704727558
-0.02251922429078014,0.5580118899090819,0.01325369779198951
-0.02251297429078014,0.5583500220258061,0.01291734704727558
-0.02250672429078014,0.5590262862592543,0.01359004853670345
-0.02250047429078014,0.5586881541425301,0.01325369779198951
-0.02249422429078014,0.5583500220258061,0.01325369779198951
-0.02248797429078014,0.5583500220258061,0.01325369779198951
-0.02248172429078014,0.5586881541425303,0.01325369779198951
-0.02247547429078014,0.5583500220258061,0.01325369779198951
-0.02246922429078014,0.558011889909082,0.01291734704727573
-0.02246297429078014,0.5583500220258061,0.01325369779198951
-0.02245672429078014,0.5583500220258061,0.01291734704727558
-0.02245047429078014,0.5583500220258061,0.01325369779198951
-0.02244422429078014,0.5580118899090819,0.01325369779198951
-0.02243797429078014,0.5583500220258061,0.01325369779198951
-0.02243172429078014,0.5583500220258061,0.01325369779198951
-0.02242547429078014,0.5580118899090819,0.01325369779198951
-0.02241922429078014,0.5580118899090819,0.01325369779198951
-0.02241297429078014,0.5580118899090819,0.01325369779198951
-0.02240672429078014,0.5583500220258061,0.01325369779198951
-0.02240047429078014,0.5583500220258061,0.01325369779198951
-0.02239422429078014,0.5583500220258061,0.01325369779198951
-0.02238797429078014,0.5583500220258061,0.01359004853670345
-0.02238172429078014,0.5583500220258061,0.01359004853670345
-0.02237547429078014,0.5583500220258062,0.01325369779198951
-0.02236922429078014,0.5586881541425303,0.01325369779198951
-0.02236297429078014,0.5583500220258061,0.01359004853670345
-0.02235672429078014,0.5583500220258061,0.01325369779198951
-0.02235047429078014,0.5583500220258061,0.01325369779198951
-0.02234422429078014,0.558011889909082,0.01325369779198967
-0.02233797429078014,0.5583500220258061,0.01359004853670345
-0.02233172429078014,0.5583500220258061,0.01359004853670345
-0.02232547429078014,0.5583500220258061,0.01359004853670345
-0.02231922429078014,0.5583500220258061,0.01359004853670345
-0.02231297429078014,0.5583500220258062,0.0135900485367033
-0.02230672429078014,0.5586881541425303,0.01325369779198951
-0.02230047429078014,0.5583500220258061,0.01325369779198951
-0.02229422429078014,0.5583500220258061,0.01325369779198951
-0.02228797429078014,0.5580118899090819,0.01325369779198951
-0.02228172429078014,0.5586881541425301,0.01325369779198951
-0.02227547429078014,0.5583500220258061,0.01325369779198951
-0.02226922429078014,0.5583500220258061,0.01325369779198951
-0.02226297429078014,0.5583500220258061,0.01359004853670345
-0.02225672429078014,0.5583500220258061,0.01325369779198951
-0.02225047429078014,0.5583500220258061,0.01325369779198951
-0.02224422429078014,0.5580118899090819,0.01325369779198951
-0.02223797429078014,0.5586881541425303,0.01325369779198951
-0.02223172429078014,0.5583500220258061,0.01325369779198951
-0.02222547429078014,0.5583500220258061,0.01359004853670345
-0.02221922429078014,0.5583500220258061,0.01359004853670345
-0.02221297429078014,0.5583500220258061,0.01325369779198951
-0.02220672429078014,0.5583500220258061,0.01359004853670345
-0.02220047429078014,0.5583500220258061,0.01325369779198951
-0.02219422429078014,0.5583500220258061,0.01325369779198951
-0.02218797429078014,0.558011889909082,0.0135900485367033
-0.02218172429078014,0.5580118899090819,0.01325369779198951
-0.02217547429078014,0.5583500220258061,0.01325369779198951
-0.02216922429078014,0.5583500220258061,0.01325369779198951
-0.02216297429078014,0.5583500220258061,0.01359004853670345
-0.02215672429078014,0.5583500220258061,0.01325369779198967
-0.02215047429078014,0.5583500220258061,0.01325369779198951
-0.02214422429078014,0.5580118899090819,0.01325369779198951
-0.02213797429078014,0.5583500220258061,0.01325369779198951
-0.02213172429078014,0.5583500220258061,0.01291734704727558
-0.02212547429078014,0.5586881541425301,0.01325369779198936
-0.02211922429078014,0.5583500220258061,0.01325369779198951
-0.02211297429078014,0.5583500220258061,0.01325369779198951
-0.02210672429078014,0.5583500220258061,0.01325369779198951
-0.02210047429078014,0.5583500220258061,0.01325369779198951
-0.02209422429078014,0.5583500220258061,0.01325369779198951
-0.02208797429078014,0.5583500220258061,0.01325369779198951
-0.02208172429078014,0.5580118899090819,0.01359004853670345
-0.02207547429078014,0.5580118899090819,0.01325369779198951
-0.02206922429078014,0.5583500220258061,0.01325369779198951
-0.02206297429078014,0.5576737577923581,0.0135900485367033
-0.02205672429078014,0.5580118899090819,0.01325369779198951
-0.02205047429078014,0.5583500220258061,0.01325369779198951
-0.02204422429078014,0.5580118899090819,0.01325369779198951
-0.02203797429078014,0.5583500220258061,0.01325369779198951
-0.02203172429078014,0.5583500220258061,0.01291734704727573
-0.02202547429078014,0.5583500220258061,0.01325369779198951
-0.02201922429078014,0.5580118899090819,0.01325369779198951
-0.02201297429078014,0.5580118899090819,0.01325369779198951
-0.02200672429078014,0.5583500220258061,0.01325369779198951
-0.02200047429078014,0.5586881541425301,0.0135900485367033
-0.02199422429078014,0.5580118899090819,0.01325369779198951
-0.02198797429078014,0.5583500220258061,0.01325369779198951
-0.02198172429078014,0.5580118899090819,0.01325369779198951
-0.02197547429078014,0.5586881541425303,0.01325369779198951
-0.02196922429078014,0.5583500220258062,0.01325369779198951
-0.02196297429078014,0.5583500220258061,0.01325369779198951
-0.02195672429078014,0.5583500220258061,0.01291734704727558
-0.02195047429078014,0.5586881541425303,0.01325369779198951
-0.02194422429078014,0.5580118899090819,0.01325369779198951
-0.02193797429078014,0.558350022025806,0.01325369779198951
-0.02193172429078014,0.5580118899090819,0.01359004853670345
-0.02192547429078014,0.5583500220258061,0.01325369779198951
-0.02191922429078014,0.5583500220258061,0.01291734704727558
-0.02191297429078014,0.5580118899090819,0.01325369779198951
-0.02190672429078014,0.5580118899090819,0.01359004853670345
-0.02190047429078014,0.5583500220258061,0.01359004853670345
-0.02189422429078014,0.5583500220258061,0.01325369779198951
-0.02188797429078014,0.5583500220258061,0.01291734704727558
-0.02188172429078014,0.5583500220258061,0.01359004853670345
-0.02187547429078014,0.5583500220258061,0.01325369779198951
-0.02186922429078014,0.5580118899090819,0.01325369779198951
-0.02186297429078014,0.5580118899090819,0.01325369779198951
-0.02185672429078014,0.5583500220258061,0.01325369779198951
-0.02185047429078014,0.5583500220258061,0.01359004853670345
-0.02184422429078014,0.5583500220258061,0.01325369779198951
-0.02183797429078014,0.5583500220258061,0.01325369779198951
-0.02183172429078014,0.5580118899090819,0.01325369779198951
-0.02182547429078014,0.5583500220258061,0.01325369779198951
-0.02181922429078014,0.5583500220258061,0.01325369779198951
-0.02181297429078014,0.5583500220258061,0.01325369779198951
-0.02180672429078014,0.5583500220258061,0.01325369779198967
-0.02180047429078014,0.5583500220258061,0.01359004853670345
-0.02179422429078014,0.5583500220258061,0.01325369779198951
-0.02178797429078014,0.5583500220258061,0.01325369779198951
-0.02178172429078014,0.5583500220258061,0.01325369779198951
-0.02177547429078014,0.5583500220258061,0.01325369779198951
-0.02176922429078014,0.5583500220258061,0.01325369779198951
-0.02176297429078014,0.5583500220258061,0.01325369779198951
-0.02175672429078014,0.5583500220258061,0.01325369779198951
-0.02175047429078014,0.5580118899090819,0.01359004853670345
-0.02174422429078014,0.5586881541425301,0.01291734704727588
-0.02173797429078014,0.5583500220258061,0.01359004853670345
-0.02173172429078014,0.5583500220258061,0.01359004853670345
-0.02172547429078014,0.5583500220258061,0.01325369779198951
-0.02171922429078014,0.5583500220258061,0.01325369779198951
-0.02171297429078014,0.5583500220258061,0.0135900485367033
-0.02170672429078014,0.5583500220258061,0.01325369779198951
-0.02170047429078014,0.5583500220258061,0.01325369779198951
-0.02169422429078014,0.5583500220258061,0.01325369779198951
-0.02168797429078014,0.5583500220258061,0.01325369779198951
-0.02168172429078014,0.558011889909082,0.01325369779198951
-0.02167547429078014,0.5583500220258061,0.01325369779198951
-0.02166922429078014,0.5583500220258061,0.01325369779198951
-0.02166297429078014,0.5580118899090819,0.01325369779198951
-0.02165672429078014,0.5583500220258061,0.01325369779198951
-0.02165047429078014,0.5583500220258061,0.01325369779198951
-0.02164422429078014,0.5583500220258061,0.01325369779198951
-0.02163797429078014,0.5580118899090819,0.01359004853670345
-0.02163172429078014,0.5583500220258061,0.01325369779198951
-0.02162547429078014,0.5580118899090819,0.01325369779198951
-0.02161922429078014,0.5586881541425301,0.01291734704727588
-0.02161297429078014,0.5583500220258061,0.01359004853670345
-0.02160672429078014,0.5580118899090819,0.01325369779198951
-0.02160047429078014,0.5583500220258061,0.01325369779198951
-0.02159422429078014,0.5583500220258061,0.01325369779198951
-0.02158797429078014,0.5583500220258061,0.01325369779198951
-0.02158172429078014,0.5583500220258061,0.01325369779198951
-0.02157547429078014,0.5583500220258061,0.01325369779198951
-0.02156922429078014,0.5580118899090819,0.01325369779198951
-0.02156297429078014,0.5583500220258061,0.01359004853670345
-0.02155672429078014,0.558011889909082,0.01359004853670315
-0.02155047429078014,0.5583500220258061,0.01291734704727558
-0.02154422429078014,0.5583500220258061,0.01325369779198951
-0.02153797429078014,0.5586881541425303,0.01325369779198951
-0.02153172429078014,0.5580118899090819,0.01359004853670345
-0.02152547429078014,0.558011889909082,0.01325369779198951
-0.02151922429078014,0.5583500220258061,0.01325369779198951
-0.02151297429078014,0.5580118899090819,0.01359004853670345
-0.02150672429078014,0.5580118899090819,0.01325369779198951
-0.02150047429078014,0.5583500220258061,0.01325369779198951
-0.02149422429078014,0.5583500220258061,0.01325369779198951
-0.02148797429078014,0.5583500220258061,0.01325369779198951
-0.02148172429078014,0.5580118899090819,0.01325369779198951
-0.02147547429078014,0.5580118899090819,0.01325369779198951
-0.02146922429078014,0.5583500220258061,0.01325369779198951
-0.02146297429078014,0.558011889909082,0.01325369779198951
-0.02145672429078014,0.5580118899090819,0.01291734704727558
-0.02145047429078014,0.5583500220258061,0.01325369779198951
-0.02144422429078014,0.5583500220258061,0.01325369779198951
-0.02143797429078014,0.5583500220258061,0.01325369779198951
-0.02143172429078014,0.558011889909082,0.01325369779198951
-0.02142547429078014,0.5580118899090819,0.01291734704727558
-0.02141922429078014,0.5583500220258061,0.01325369779198951
-0.02141297429078014,0.5580118899090819,0.01325369779198951
-0.02140672429078014,0.5580118899090819,0.01325369779198951
-0.02140047429078014,0.5580118899090819,0.01325369779198951
-0.02139422429078014,0.5580118899090819,0.01325369779198951
-0.02138797429078014,0.5583500220258061,0.01325369779198951
-0.02138172429078014,0.5580118899090819,0.01291734704727558
-0.02137547429078014,0.5576737577923577,0.01325369779198951
-0.02136922429078014,0.5583500220258057,0.0135900485367033
-0.02136297429078014,0.5583500220258061,0.01325369779198951
-0.02135672429078014,0.5583500220258061,0.01325369779198951
-0.02135047429078014,0.5580118899090819,0.01291734704727558
-0.02134422429078014,0.5580118899090819,0.01325369779198951
-0.02133797429078014,0.558350022025806,0.01325369779198951
-0.02133172429078014,0.5580118899090819,0.01325369779198951
-0.02132547429078014,0.5583500220258061,0.01325369779198951
-0.02131922429078014,0.5583500220258061,0.01325369779198951
-0.02131297429078014,0.5583500220258061,0.01325369779198951
-0.02130672429078014,0.5583500220258061,0.0135900485367033
-0.02130047429078014,0.5580118899090819,0.01359004853670345
-0.02129422429078014,0.5586881541425303,0.01325369779198951
-0.02128797429078014,0.5583500220258061,0.01359004853670345
-0.02128172429078014,0.5583500220258061,0.01325369779198951
-0.02127547429078014,0.5583500220258061,0.01325369779198951
-0.02126922429078014,0.5583500220258061,0.01325369779198951
-0.02126297429078014,0.5583500220258061,0.01325369779198951
-0.02125672429078014,0.5580118899090819,0.01325369779198951
-0.02125047429078014,0.5580118899090819,0.01325369779198951
-0.02124422429078014,0.558350022025806,0.01325369779198951
-0.02123797429078014,0.5583500220258061,0.01325369779198951
-0.02123172429078014,0.5583500220258061,0.01325369779198951
-0.02122547429078014,0.5580118899090819,0.01325369779198951
-0.02121922429078014,0.5580118899090819,0.01325369779198951
-0.02121297429078014,0.5580118899090819,0.01325369779198951
-0.02120672429078014,0.5583500220258061,0.01325369779198951
-0.02120047429078014,0.5583500220258061,0.01325369779198951
-0.02119422429078014,0.5583500220258061,0.01325369779198951
-0.02118797429078014,0.5583500220258061,0.01325369779198951
-0.02118172429078014,0.558011889909082,0.01325369779198951
-0.02117547429078014,0.5583500220258061,0.01325369779198951
-0.02116922429078014,0.5583500220258061,0.01359004853670345
-0.02116297429078014,0.5580118899090819,0.01325369779198951
-0.02115672429078014,0.5583500220258061,0.01325369779198951
-0.02115047429078014,0.558011889909082,0.01325369779198951
-0.02114422429078014,0.5583500220258061,0.01325369779198951
-0.02113797429078014,0.5583500220258061,0.01359004853670345
-0.02113172429078014,0.5583500220258061,0.01325369779198951
-0.02112547429078014,0.5583500220258061,0.01359004853670345
-0.02111922429078014,0.5583500220258061,0.01325369779198951
-0.02111297429078014,0.5583500220258061,0.01325369779198951
-0.02110672429078014,0.5586881541425303,0.01325369779198951
-0.02110047429078014,0.5586881541425303,0.01325369779198951
-0.02109422429078014,0.5583500220258061,0.01359004853670345
-0.02108797429078014,0.5583500220258061,0.01325369779198951
-0.02108172429078014,0.5583500220258061,0.01359004853670345
-0.02107547429078014,0.5583500220258061,0.01325369779198951
-0.02106922429078014,0.5586881541425303,0.01325369779198951
-0.02106297429078014,0.5583500220258061,0.01325369779198951
-0.02105672429078014,0.5583500220258061,0.01325369779198951
-0.02105047429078014,0.5583500220258061,0.01325369779198951
-0.02104422429078014,0.5583500220258061,0.01359004853670345
-0.02103797429078014,0.5583500220258061,0.01325369779198951
-0.02103172429078014,0.5583500220258061,0.01325369779198951
-0.02102547429078014,0.5580118899090819,0.01325369779198951
-0.02101922429078014,0.5576737577923581,0.0135900485367033
-0.02101297429078014,0.5583500220258061,0.01325369779198951
-0.02100672429078014,0.5583500220258061,0.01325369779198951
-0.02100047429078014,0.5583500220258061,0.01325369779198951
-0.02099422429078014,0.5583500220258061,0.01325369779198951
-0.02098797429078014,0.5583500220258061,0.01325369779198967
-0.02098172429078014,0.5583500220258061,0.01359004853670345
-0.02097547429078014,0.5580118899090819,0.01359004853670345
-0.02096922429078014,0.5580118899090819,0.01325369779198951
-0.02096297429078014,0.5583500220258061,0.01325369779198951
-0.02095672429078014,0.558011889909082,0.01325369779198951
-0.02095047429078014,0.5583500220258061,0.01325369779198951
-0.02094422429078014,0.5580118899090819,0.01325369779198951
-0.02093797429078014,0.5583500220258061,0.01359004853670345
-0.02093172429078014,0.5580118899090819,0.01359004853670345
-0.02092547429078014,0.5583500220258061,0.0135900485367033
-0.02091922429078014,0.5583500220258061,0.01325369779198951
-0.02091297429078014,0.5583500220258061,0.01291734704727558
-0.02090672429078014,0.5583500220258061,0.01359004853670345
-0.02090047429078014,0.5583500220258061,0.01325369779198951
-0.02089422429078014,0.558011889909082,0.01325369779198951
-0.02088797429078014,0.5583500220258061,0.01325369779198951
-0.02088172429078014,0.5583500220258061,0.01359004853670345
-0.02087547429078014,0.5580118899090819,0.01325369779198951
-0.02086922429078014,0.5580118899090819,0.01325369779198951
-0.02086297429078014,0.5583500220258057,0.01325369779198951
-0.02085672429078014,0.5576737577923577,0.01325369779198951
-0.02085047429078014,0.5580118899090819,0.01325369779198951
-0.02084422429078014,0.5580118899090819,0.01325369779198951
-0.02083797429078014,0.5580118899090819,0.01325369779198951
-0.02083172429078014,0.5583500220258061,0.01325369779198951
-0.02082547429078014,0.5583500220258061,0.01325369779198951
-0.02081922429078014,0.5583500220258061,0.01325369779198951
-0.02081297429078014,0.5583500220258061,0.01325369779198951
-0.02080672429078014,0.5586881541425303,0.01325369779198951
-0.02080047429078014,0.5583500220258061,0.01325369779198951
-0.02079422429078014,0.5583500220258061,0.01325369779198951
-0.02078797429078014,0.5583500220258061,0.01325369779198951
-0.02078172429078014,0.5583500220258061,0.01359004853670345
-0.02077547429078014,0.5583500220258061,0.01325369779198951
-0.02076922429078014,0.558011889909082,0.01325369779198951
-0.02076297429078014,0.5583500220258061,0.01325369779198951
-0.02075672429078014,0.5583500220258061,0.01359004853670345
-0.02075047429078014,0.5583500220258061,0.01291734704727558
-0.02074422429078014,0.5580118899090819,0.01325369779198951
-0.02073797429078014,0.5583500220258061,0.0135900485367033
-0.02073172429078014,0.5583500220258061,0.01325369779198951
-0.02072547429078014,0.5580118899090819,0.01291734704727558
-0.02071922429078014,0.5583500220258061,0.01325369779198951
-0.02071297429078014,0.5580118899090819,0.01359004853670345
-0.02070672429078014,0.558350022025806,0.01359004853670315
-0.02070047429078014,0.5580118899090819,0.01291734704727558
-0.02069422429078014,0.5583500220258061,0.01325369779198951
-0.02068797429078014,0.5583500220258061,0.01359004853670345
-0.02068172429078014,0.5583500220258061,0.01325369779198951
-0.02067547429078014,0.558011889909082,0.01325369779198951
-0.02066922429078014,0.5580118899090819,0.01325369779198951
-0.02066297429078014,0.5580118899090819,0.01325369779198951
-0.02065672429078014,0.5583500220258061,0.01325369779198951
-0.02065047429078014,0.5583500220258061,0.01325369779198951
-0.02064422429078014,0.558011889909082,0.01325369779198951
-0.02063797429078014,0.5583500220258061,0.01325369779198951
-0.02063172429078014,0.5583500220258061,0.01325369779198951
-0.02062547429078014,0.5583500220258061,0.01325369779198951
-0.02061922429078014,0.5580118899090819,0.01325369779198951
-0.02061297429078014,0.558350022025806,0.0135900485367033
-0.02060672429078014,0.5583500220258061,0.01325369779198951
-0.02060047429078014,0.5580118899090819,0.01359004853670345
-0.02059422429078014,0.5580118899090819,0.01325369779198951
-0.02058797429078014,0.5583500220258061,0.01325369779198951
-0.02058172429078014,0.558011889909082,0.01325369779198951
-0.02057547429078014,0.5583500220258061,0.01325369779198951
-0.02056922429078014,0.5580118899090819,0.01325369779198951
-0.02056297429078014,0.5583500220258061,0.01359004853670345
-0.02055672429078014,0.5583500220258061,0.01325369779198951
-0.02055047429078014,0.5583500220258061,0.0135900485367033
-0.02054422429078014,0.5580118899090819,0.01325369779198951
-0.02053797429078014,0.5583500220258061,0.01291734704727558
-0.02053172429078014,0.5583500220258061,0.01325369779198951
-0.02052547429078014,0.5583500220258061,0.01325369779198951
-0.02051922429078014,0.5583500220258061,0.01325369779198951
-0.02051297429078014,0.5580118899090819,0.01359004853670345
-0.02050672429078014,0.5583500220258061,0.01325369779198951
-0.02050047429078014,0.5580118899090819,0.01325369779198951
-0.02049422429078014,0.5583500220258061,0.01325369779198951
-0.02048797429078014,0.5583500220258061,0.01325369779198951
-0.02048172429078014,0.5583500220258061,0.01325369779198951
-0.02047547429078014,0.5586881541425303,0.01291734704727558
-0.02046922429078014,0.5583500220258061,0.01291734704727558
-0.02046297429078014,0.5580118899090819,0.01325369779198951
-0.02045672429078014,0.5576737577923578,0.01325369779198951
-0.02045047429078014,0.5583500220258061,0.01325369779198951
-0.02044422429078014,0.5580118899090819,0.01325369779198951
-0.02043797429078014,0.5580118899090819,0.01359004853670345
-0.02043172429078014,0.5583500220258061,0.01325369779198951
-0.02042547429078014,0.5583500220258061,0.01325369779198951
-0.02041922429078014,0.5583500220258061,0.01359004853670345
-0.02041297429078014,0.5580118899090819,0.01325369779198951
-0.02040672429078014,0.5580118899090819,0.01325369779198951
-0.02040047429078014,0.5580118899090819,0.01325369779198951
-0.02039422429078014,0.5580118899090819,0.01325369779198951
-0.02038797429078014,0.5580118899090819,0.01325369779198951
-0.02038172429078014,0.5583500220258061,0.01291734704727558
-0.02037547429078014,0.5583500220258061,0.01325369779198951
-0.02036922429078014,0.5583500220258061,0.01359004853670345
-0.02036297429078014,0.5583500220258061,0.01325369779198967
-0.02035672429078014,0.5583500220258061,0.01325369779198951
-0.02035047429078014,0.5583500220258061,0.01359004853670345
-0.02034422429078014,0.5580118899090819,0.01325369779198951
-0.02033797429078014,0.5580118899090819,0.01325369779198951
-0.02033172429078014,0.5580118899090819,0.01325369779198951
-0.02032547429078014,0.5583500220258061,0.01359004853670345
-0.02031922429078014,0.5583500220258061,0.01325369779198951
-0.02031297429078014,0.5583500220258061,0.01325369779198951
-0.02030672429078014,0.5583500220258061,0.01325369779198951
-0.02030047429078014,0.5583500220258061,0.01359004853670345
-0.02029422429078014,0.5580118899090819,0.01325369779198951
-0.02028797429078014,0.5580118899090819,0.01325369779198951
-0.02028172429078014,0.5580118899090819,0.01325369779198951
-0.02027547429078014,0.5583500220258061,0.01325369779198951
-0.02026922429078014,0.5580118899090819,0.01325369779198951
-0.02026297429078014,0.558350022025806,0.01325369779198951
-0.02025672429078014,0.5580118899090819,0.01325369779198951
-0.02025047429078014,0.5583500220258061,0.01325369779198951
-0.02024422429078014,0.5583500220258061,0.01325369779198951
-0.02023797429078014,0.5583500220258061,0.01325369779198951
-0.02023172429078014,0.5583500220258061,0.01325369779198951
-0.02022547429078014,0.5583500220258061,0.01325369779198951
-0.02021922429078014,0.5583500220258061,0.01325369779198951
-0.02021297429078014,0.5580118899090819,0.01325369779198951
-0.02020672429078014,0.5583500220258061,0.01291734704727558
-0.02020047429078014,0.558011889909082,0.01325369779198951
-0.02019422429078014,0.5583500220258061,0.01325369779198951
-0.02018797429078014,0.5580118899090819,0.01325369779198951
-0.02018172429078014,0.5583500220258061,0.01325369779198951
-0.02017547429078014,0.5580118899090819,0.01325369779198951
-0.02016922429078014,0.5580118899090819,0.0135900485367033
-0.02016297429078014,0.5580118899090819,0.01325369779198951
-0.02015672429078014,0.5580118899090819,0.01325369779198951
-0.02015047429078014,0.5580118899090819,0.01325369779198951
-0.02014422429078014,0.5583500220258061,0.01359004853670345
-0.02013797429078014,0.558011889909082,0.0135900485367033
-0.02013172429078014,0.5583500220258061,0.01325369779198951
-0.02012547429078014,0.5580118899090819,0.01325369779198951
-0.02011922429078014,0.5583500220258061,0.01359004853670345
-0.02011297429078014,0.5580118899090819,0.01325369779198951
-0.02010672429078014,0.5576737577923581,0.01359004853670345
-0.02010047429078014,0.5583500220258061,0.01359004853670345
-0.02009422429078014,0.5583500220258061,0.01325369779198951
-0.02008797429078014,0.5580118899090819,0.01325369779198951
-0.02008172429078014,0.5576737577923577,0.01359004853670345
-0.02007547429078014,0.558011889909082,0.01325369779198936
-0.02006922429078014,0.5583500220258061,0.01291734704727558
-0.02006297429078014,0.5583500220258061,0.01325369779198951
-0.02005672429078014,0.5583500220258061,0.01325369779198951
-0.02005047429078014,0.5583500220258061,0.01325369779198951
-0.02004422429078014,0.5583500220258061,0.01325369779198951
-0.02003797429078014,0.5583500220258061,0.01325369779198951
-0.02003172429078014,0.5580118899090819,0.01325369779198951
-0.02002547429078014,0.5583500220258061,0.01325369779198951
-0.02001922429078014,0.5580118899090819,0.01325369779198951
-0.02001297429078014,0.558011889909082,0.01325369779198967
-0.02000672429078014,0.5583500220258061,0.01359004853670345
-0.02000047429078014,0.5586881541425303,0.01325369779198951
-0.01999422429078014,0.5583500220258061,0.01325369779198951
-0.01998797429078014,0.5580118899090819,0.01291734704727558
-0.01998172429078014,0.5580118899090819,0.01325369779198951
-0.01997547429078014,0.5580118899090819,0.01325369779198951
-0.01996922429078014,0.5583500220258061,0.01325369779198951
-0.01996297429078014,0.5583500220258061,0.01325369779198951
-0.01995672429078014,0.5580118899090819,0.01325369779198951
-0.01995047429078014,0.5583500220258061,0.01325369779198967
-0.01994422429078014,0.5583500220258061,0.01359004853670345
-0.01993797429078014,0.5583500220258061,0.01291734704727558
-0.01993172429078014,0.5583500220258061,0.01325369779198951
-0.01992547429078014,0.5583500220258061,0.01325369779198951
-0.01991922429078014,0.5580118899090819,0.01325369779198951
-0.01991297429078014,0.5580118899090819,0.01325369779198951
-0.01990672429078014,0.5583500220258061,0.01325369779198951
-0.01990047429078014,0.5576737577923577,0.01325369779198951
-0.01989422429078014,0.5583500220258061,0.01325369779198951
-0.01988797429078014,0.5583500220258061,0.01325369779198951
-0.01988172429078014,0.5586881541425303,0.01325369779198951
-0.01987547429078014,0.5580118899090819,0.01325369779198951
-0.01986922429078014,0.5583500220258061,0.01291734704727558
-0.01986297429078014,0.5580118899090819,0.01325369779198951
-0.01985672429078014,0.5580118899090819,0.01325369779198951
-0.01985047429078014,0.5583500220258061,0.01325369779198951
-0.01984422429078014,0.5583500220258061,0.01325369779198951
-0.01983797429078014,0.5580118899090819,0.01325369779198951
-0.01983172429078014,0.5580118899090819,0.01359004853670345
-0.01982547429078014,0.558350022025806,0.01325369779198967
-0.01981922429078014,0.5583500220258061,0.01325369779198951
-0.01981297429078014,0.5580118899090819,0.01325369779198951
-0.01980672429078014,0.5583500220258061,0.01291734704727558
-0.01980047429078014,0.5583500220258061,0.01325369779198951
-0.01979422429078014,0.5583500220258061,0.01325369779198951
-0.01978797429078014,0.5580118899090819,0.01325369779198951
-0.01978172429078014,0.5583500220258061,0.01291734704727558
-0.01977547429078014,0.5580118899090819,0.01325369779198951
-0.01976922429078014,0.5580118899090819,0.01325369779198951
-0.01976297429078014,0.558350022025806,0.01325369779198951
-0.01975672429078014,0.5583500220258061,0.01359004853670345
-0.01975047429078014,0.5583500220258061,0.01325369779198951
-0.01974422429078014,0.5580118899090819,0.01359004853670345
-0.01973797429078014,0.5580118899090819,0.01359004853670345
-0.01973172429078014,0.5580118899090819,0.01325369779198967
-0.01972547429078014,0.5583500220258061,0.01325369779198951
-0.01971922429078014,0.5583500220258061,0.01325369779198951
-0.01971297429078014,0.5580118899090819,0.01325369779198951
-0.01970672429078014,0.5580118899090819,0.01325369779198951
-0.01970047429078014,0.5580118899090819,0.0135900485367033
-0.01969422429078014,0.5583500220258061,0.01359004853670345
-0.01968797429078014,0.5586881541425303,0.01325369779198951
-0.01968172429078014,0.5580118899090819,0.01291734704727558
-0.01967547429078014,0.5583500220258061,0.01325369779198951
-0.01966922429078014,0.5583500220258061,0.01325369779198951
-0.01966297429078014,0.5580118899090819,0.01325369779198951
-0.01965672429078014,0.5580118899090819,0.01325369779198951
-0.01965047429078014,0.5583500220258061,0.01359004853670345
-0.01964422429078014,0.5583500220258061,0.01359004853670345
-0.01963797429078014,0.5583500220258061,0.01359004853670345
-0.01963172429078014,0.5583500220258061,0.01325369779198951
-0.01962547429078014,0.5580118899090819,0.01359004853670345
-0.01961922429078014,0.5583500220258061,0.01325369779198951
-0.01961297429078014,0.5583500220258061,0.01359004853670345
-0.01960672429078014,0.5583500220258061,0.01325369779198967
-0.01960047429078014,0.5580118899090819,0.01325369779198951
-0.01959422429078014,0.5583500220258061,0.01325369779198951
-0.01958797429078014,0.5583500220258061,0.01325369779198951
-0.01958172429078014,0.5580118899090819,0.01291734704727558
-0.01957547429078014,0.558350022025806,0.01325369779198936
-0.01956922429078014,0.5583500220258061,0.01325369779198951
-0.01956297429078014,0.5583500220258061,0.01325369779198951
-0.01955672429078014,0.5580118899090819,0.01325369779198951
-0.01955047429078014,0.5580118899090819,0.01359004853670345
-0.01954422429078014,0.5583500220258061,0.01359004853670345
-0.01953797429078014,0.5583500220258061,0.01359004853670345
-0.01953172429078014,0.5586881541425303,0.01325369779198951
-0.01952547429078014,0.5580118899090819,0.01359004853670345
-0.01951922429078014,0.5583500220258061,0.01359004853670345
-0.01951297429078014,0.5580118899090819,0.01325369779198951
-0.01950672429078014,0.5580118899090819,0.01325369779198951
-0.01950047429078014,0.5580118899090819,0.01325369779198951
-0.01949422429078014,0.5580118899090819,0.01359004853670345
-0.01948797429078014,0.5583500220258061,0.01325369779198951
-0.01948172429078014,0.5583500220258061,0.01325369779198951
-0.01947547429078014,0.5583500220258061,0.01325369779198967
-0.01946922429078014,0.5583500220258061,0.01359004853670345
-0.01946297429078014,0.5583500220258061,0.01325369779198951
-0.01945672429078014,0.5583500220258061,0.01325369779198951
-0.01945047429078014,0.5583500220258061,0.01359004853670345
-0.01944422429078014,0.558350022025806,0.01325369779198951
-0.01943797429078014,0.5580118899090819,0.01325369779198951
-0.01943172429078014,0.5583500220258061,0.01325369779198951
-0.01942547429078014,0.5576737577923577,0.01325369779198951
-0.01941922429078014,0.5583500220258061,0.01325369779198951
-0.01941297429078014,0.558350022025806,0.01291734704727573
-0.01940672429078014,0.5580118899090819,0.01325369779198951
-0.01940047429078014,0.5583500220258061,0.01325369779198951
-0.01939422429078014,0.5583500220258061,0.01359004853670345
-0.01938797429078014,0.5583500220258061,0.01291734704727558
-0.01938172429078014,0.558011889909082,0.01325369779198951
-0.01937547429078014,0.5583500220258061,0.01325369779198951
-0.01936922429078014,0.5580118899090819,0.01359004853670345
-0.01936297429078014,0.5583500220258061,0.01325369779198951
-0.01935672429078014,0.5580118899090819,0.01325369779198951
-0.01935047429078014,0.5580118899090819,0.01325369779198951
-0.01934422429078014,0.5580118899090819,0.01325369779198951
-0.01933797429078014,0.5583500220258061,0.01325369779198951
-0.01933172429078014,0.5583500220258061,0.01325369779198951
-0.01932547429078014,0.5583500220258061,0.01325369779198951
-0.01931922429078014,0.5583500220258061,0.01325369779198951
-0.01931297429078014,0.5583500220258061,0.01325369779198951
-0.01930672429078014,0.5583500220258061,0.01325369779198951
-0.01930047429078014,0.5580118899090819,0.01325369779198951
-0.01929422429078014,0.5583500220258061,0.01325369779198951
-0.01928797429078014,0.5583500220258061,0.01325369779198951
-0.01928172429078014,0.5583500220258061,0.01325369779198951
-0.01927547429078014,0.5583500220258061,0.01359004853670345
-0.01926922429078014,0.5583500220258061,0.01325369779198951
-0.01926297429078014,0.5580118899090819,0.01325369779198951
-0.01925672429078014,0.5583500220258061,0.01325369779198951
-0.01925047429078014,0.5583500220258061,0.01325369779198951
-0.01924422429078014,0.5583500220258061,0.01325369779198951
-0.01923797429078014,0.5583500220258061,0.01325369779198951
-0.01923172429078014,0.5586881541425303,0.01325369779198951
-0.01922547429078014,0.5583500220258061,0.01359004853670345
-0.01921922429078014,0.5583500220258061,0.01359004853670345
-0.01921297429078014,0.5583500220258061,0.01325369779198951
-0.01920672429078014,0.5583500220258061,0.01325369779198951
-0.01920047429078014,0.5583500220258061,0.01325369779198951
-0.01919422429078014,0.5583500220258061,0.01325369779198951
-0.01918797429078014,0.5583500220258061,0.01325369779198951
-0.01918172429078014,0.5580118899090819,0.01359004853670345
-0.01917547429078014,0.5583500220258061,0.01325369779198951
-0.01916922429078014,0.5583500220258061,0.01325369779198951
-0.01916297429078014,0.5583500220258061,0.01325369779198951
-0.01915672429078014,0.5583500220258061,0.01325369779198951
-0.01915047429078014,0.5583500220258061,0.01325369779198951
-0.01914422429078014,0.5580118899090819,0.01325369779198951
-0.01913797429078014,0.5583500220258061,0.01359004853670345
-0.01913172429078014,0.5586881541425301,0.01325369779198967
-0.01912547429078014,0.5583500220258061,0.01359004853670345
-0.01911922429078014,0.5583500220258061,0.01325369779198951
-0.01911297429078014,0.5583500220258061,0.01325369779198951
-0.01910672429078014,0.5583500220258061,0.01359004853670345
-0.01910047429078014,0.5583500220258061,0.01325369779198967
-0.01909422429078014,0.5580118899090819,0.01325369779198951
-0.01908797429078014,0.5580118899090819,0.01359004853670345
-0.01908172429078014,0.5583500220258061,0.01359004853670345
-0.01907547429078014,0.5583500220258061,0.01325369779198951
-0.01906922429078014,0.558011889909082,0.01325369779198951
-0.01906297429078014,0.5583500220258061,0.01325369779198951
-0.01905672429078014,0.5583500220258061,0.01325369779198951
-0.01905047429078014,0.5583500220258061,0.01325369779198951
-0.01904422429078014,0.5580118899090819,0.01325369779198951
-0.01903797429078014,0.558350022025806,0.01325369779198951
-0.01903172429078014,0.5583500220258061,0.01359004853670345
-0.01902547429078014,0.5583500220258061,0.01325369779198951
-0.01901922429078014,0.5583500220258061,0.01291734704727558
-0.01901297429078014,0.5580118899090819,0.01325369779198951
-0.01900672429078014,0.558350022025806,0.0135900485367033
-0.01900047429078014,0.5583500220258061,0.01359004853670345
-0.01899422429078014,0.5583500220258061,0.01325369779198951
-0.01898797429078014,0.5583500220258061,0.01325369779198951
-0.01898172429078014,0.5583500220258061,0.01359004853670345
-0.01897547429078014,0.5583500220258061,0.01359004853670345
-0.01896922429078014,0.5583500220258061,0.01325369779198951
-0.01896297429078014,0.5583500220258061,0.01325369779198951
-0.01895672429078014,0.5583500220258061,0.01325369779198951
-0.01895047429078014,0.5583500220258061,0.01325369779198951
-0.01894422429078014,0.5583500220258061,0.0135900485367033
-0.01893797429078014,0.5580118899090819,0.01325369779198951
-0.01893172429078014,0.5583500220258061,0.01325369779198951
-0.01892547429078014,0.5586881541425303,0.01325369779198951
-0.01891922429078014,0.5583500220258061,0.01325369779198951
-0.01891297429078014,0.558011889909082,0.01325369779198951
-0.01890672429078014,0.5583500220258061,0.01325369779198951
-0.01890047429078014,0.5583500220258061,0.01325369779198951
-0.01889422429078014,0.5580118899090819,0.01325369779198951
-0.01888797429078014,0.5583500220258061,0.01359004853670345
-0.01888172429078014,0.558011889909082,0.01325369779198967
-0.01887547429078014,0.5583500220258061,0.01325369779198951
-0.01886922429078014,0.5583500220258061,0.01325369779198951
-0.01886297429078014,0.5583500220258061,0.01325369779198951
-0.01885672429078014,0.5583500220258061,0.01325369779198951
-0.01885047429078014,0.558011889909082,0.01325369779198951
-0.01884422429078014,0.5583500220258061,0.01325369779198951
-0.01883797429078014,0.5583500220258061,0.01359004853670345
-0.01883172429078014,0.5583500220258061,0.01325369779198951
-0.01882547429078014,0.5583500220258061,0.01359004853670345
-0.01881922429078014,0.558011889909082,0.01325369779198967
-0.01881297429078014,0.5583500220258061,0.01359004853670345
-0.01880672429078014,0.5583500220258061,0.01325369779198951
-0.01880047429078014,0.5583500220258061,0.01325369779198951
-0.01879422429078014,0.5580118899090819,0.01359004853670345
-0.01878797429078014,0.5580118899090819,0.01325369779198967
-0.01878172429078014,0.5583500220258061,0.01291734704727558
-0.01877547429078014,0.5583500220258061,0.01291734704727558
-0.01876922429078014,0.5580118899090819,0.01325369779198951
-0.01876297429078014,0.5580118899090819,0.01325369779198951
-0.01875672429078014,0.5583500220258061,0.01325369779198951
-0.01875047429078014,0.5583500220258061,0.01359004853670345
-0.01874422429078014,0.5580118899090819,0.01359004853670345
-0.01873797429078014,0.5583500220258061,0.01325369779198951
-0.01873172429078014,0.5583500220258061,0.01325369779198951
-0.01872547429078014,0.5583500220258061,0.01325369779198951
-0.01871922429078014,0.5583500220258061,0.01359004853670345
-0.01871297429078014,0.5580118899090819,0.01325369779198951
-0.01870672429078014,0.5583500220258061,0.01325369779198951
-0.01870047429078014,0.5583500220258061,0.01325369779198951
-0.01869422429078014,0.5580118899090819,0.01325369779198951
-0.01868797429078014,0.5580118899090819,0.01291734704727573
-0.01868172429078014,0.5580118899090819,0.01325369779198951
-0.01867547429078014,0.5583500220258061,0.01325369779198951
-0.01866922429078014,0.5583500220258061,0.01325369779198951
-0.01866297429078014,0.5583500220258061,0.01325369779198951
-0.01865672429078014,0.558011889909082,0.01325369779198967
-0.01865047429078014,0.5583500220258061,0.01359004853670345
-0.01864422429078014,0.5583500220258061,0.01325369779198951
-0.01863797429078014,0.5580118899090819,0.01325369779198951
-0.01863172429078014,0.5583500220258061,0.01325369779198951
-0.01862547429078014,0.558350022025806,0.01325369779198951
-0.01861922429078014,0.5580118899090819,0.01325369779198951
-0.01861297429078014,0.5583500220258061,0.01325369779198951
-0.01860672429078014,0.5583500220258061,0.01325369779198951
-0.01860047429078014,0.5583500220258061,0.01325369779198951
-0.01859422429078014,0.5583500220258061,0.0135900485367033
-0.01858797429078014,0.5583500220258061,0.01325369779198951
-0.01858172429078014,0.5583500220258061,0.01325369779198951
-0.01857547429078014,0.5583500220258061,0.01325369779198951
-0.01856922429078014,0.5580118899090819,0.01325369779198951
-0.01856297429078014,0.5583500220258061,0.01325369779198951
-0.01855672429078014,0.5583500220258061,0.01325369779198951
-0.01855047429078014,0.5586881541425303,0.01325369779198951
-0.01854422429078014,0.5586881541425303,0.01325369779198951
-0.01853797429078014,0.5580118899090819,0.01291734704727558
-0.01853172429078014,0.558011889909082,0.01325369779198951
-0.01852547429078014,0.5583500220258061,0.01325369779198951
-0.01851922429078014,0.5583500220258061,0.01359004853670345
-0.01851297429078014,0.5583500220258061,0.01325369779198951
-0.01850672429078014,0.5583500220258061,0.01325369779198951
-0.01850047429078014,0.5583500220258061,0.01325369779198967
-0.01849422429078014,0.5583500220258061,0.01359004853670345
-0.01848797429078014,0.5583500220258061,0.01359004853670345
-0.01848172429078014,0.5580118899090819,0.01325369779198951
-0.01847547429078014,0.5586881541425303,0.01325369779198951
-0.01846922429078014,0.5583500220258061,0.01325369779198951
-0.01846297429078014,0.5583500220258061,0.01325369779198951
-0.01845672429078014,0.5580118899090819,0.01359004853670345
-0.01845047429078014,0.5586881541425303,0.01325369779198951
-0.01844422429078014,0.5583500220258061,0.01325369779198951
-0.01843797429078014,0.558011889909082,0.01325369779198951
-0.01843172429078014,0.5583500220258061,0.01325369779198951
-0.01842547429078014,0.5583500220258061,0.01325369779198951
-0.01841922429078014,0.5580118899090819,0.01359004853670345
-0.01841297429078014,0.5580118899090819,0.01325369779198951
-0.01840672429078014,0.5583500220258061,0.01325369779198967
-0.01840047429078014,0.5583500220258061,0.01359004853670345
-0.01839422429078014,0.5580118899090819,0.01291734704727558
-0.01838797429078014,0.5580118899090819,0.01291734704727558
-0.01838172429078014,0.5580118899090819,0.01325369779198951
-0.01837547429078014,0.5583500220258061,0.01325369779198951
-0.01836922429078014,0.5583500220258061,0.01325369779198951
-0.01836297429078014,0.5580118899090819,0.01325369779198951
-0.01835672429078014,0.5580118899090819,0.01325369779198951
-0.01835047429078014,0.5583500220258061,0.01325369779198951
-0.01834422429078014,0.558011889909082,0.0135900485367033
-0.01833797429078014,0.5580118899090819,0.01325369779198951
-0.01833172429078014,0.5580118899090819,0.01359004853670345
-0.01832547429078014,0.5580118899090819,0.01359004853670345
-0.01831922429078014,0.5583500220258061,0.01325369779198951
-0.01831297429078014,0.558011889909082,0.01325369779198951
-0.01830672429078014,0.5580118899090819,0.01325369779198951
-0.01830047429078014,0.5583500220258061,0.01359004853670345
-0.01829422429078014,0.5580118899090819,0.01325369779198951
-0.01828797429078014,0.5583500220258061,0.01359004853670345
-0.01828172429078014,0.558011889909082,0.01359004853670345
-0.01827547429078014,0.5580118899090819,0.01325369779198951
-0.01826922429078014,0.5583500220258061,0.01325369779198951
-0.01826297429078014,0.5580118899090819,0.01325369779198951
-0.01825672429078014,0.5580118899090819,0.01325369779198951
-0.01825047429078014,0.558350022025806,0.01325369779198951
-0.01824422429078014,0.5583500220258061,0.01291734704727558
-0.01823797429078014,0.5580118899090819,0.01325369779198951
-0.01823172429078014,0.5583500220258061,0.01325369779198951
-0.01822547429078014,0.5580118899090819,0.01325369779198951
-0.01821922429078014,0.558350022025806,0.01325369779198951
-0.01821297429078014,0.5580118899090819,0.01325369779198951
-0.01820672429078014,0.5580118899090819,0.01325369779198951
-0.01820047429078014,0.5583500220258061,0.01325369779198951
-0.01819422429078014,0.5583500220258061,0.01325369779198951
-0.01818797429078014,0.558011889909082,0.01325369779198951
-0.01818172429078014,0.5583500220258061,0.01359004853670345
-0.01817547429078014,0.5583500220258061,0.01325369779198951
-0.01816922429078014,0.5586881541425303,0.01325369779198951
-0.01816297429078014,0.5583500220258061,0.01325369779198951
-0.01815672429078014,0.5583500220258061,0.01325369779198951
-0.01815047429078014,0.5583500220258061,0.01291734704727558
-0.01814422429078014,0.5583500220258061,0.01325369779198951
-0.01813797429078014,0.5586881541425303,0.01359004853670345
-0.01813172429078014,0.5583500220258061,0.01359004853670345
-0.01812547429078014,0.5583500220258061,0.01325369779198967
-0.01811922429078014,0.5583500220258061,0.01325369779198951
-0.01811297429078014,0.5583500220258061,0.01325369779198951
-0.01810672429078014,0.5583500220258061,0.01325369779198951
-0.01810047429078014,0.5583500220258061,0.01325369779198951
-0.01809422429078014,0.5583500220258061,0.01325369779198951
-0.01808797429078014,0.5583500220258061,0.01359004853670345
-0.01808172429078014,0.5583500220258061,0.01325369779198951
-0.01807547429078014,0.5583500220258061,0.01325369779198951
-0.01806922429078014,0.5586881541425303,0.01325369779198951
-0.01806297429078014,0.5583500220258062,0.01325369779198951
-0.01805672429078014,0.5583500220258061,0.01325369779198951
-0.01805047429078014,0.5583500220258061,0.01359004853670345
-0.01804422429078014,0.5583500220258061,0.01325369779198951
-0.01803797429078014,0.5583500220258061,0.01325369779198951
-0.01803172429078014,0.5583500220258061,0.01325369779198951
-0.01802547429078014,0.5586881541425303,0.01359004853670345
-0.01801922429078014,0.5583500220258061,0.01325369779198951
-0.01801297429078014,0.5583500220258061,0.01325369779198951
-0.01800672429078014,0.5580118899090819,0.01325369779198951
-0.01800047429078014,0.5580118899090819,0.01325369779198951
-0.01799422429078014,0.5583500220258061,0.01325369779198951
-0.01798797429078014,0.5583500220258061,0.01325369779198951
-0.01798172429078014,0.5580118899090819,0.01325369779198951
-0.01797547429078014,0.5583500220258061,0.01359004853670345
-0.01796922429078014,0.5586881541425303,0.01359004853670345
-0.01796297429078014,0.5583500220258061,0.01359004853670345
-0.01795672429078014,0.5583500220258061,0.01325369779198951
-0.01795047429078014,0.5583500220258061,0.01325369779198951
-0.01794422429078014,0.5586881541425303,0.01325369779198951
-0.01793797429078014,0.5583500220258061,0.01359004853670345
-0.01793172429078014,0.5580118899090819,0.01325369779198951
-0.01792547429078014,0.5580118899090819,0.01359004853670345
-0.01791922429078014,0.5583500220258061,0.01359004853670345
-0.01791297429078014,0.5583500220258061,0.01325369779198951
-0.01790672429078014,0.5583500220258061,0.01359004853670345
-0.01790047429078014,0.558350022025806,0.01325369779198951
-0.01789422429078014,0.5580118899090819,0.01325369779198951
-0.01788797429078014,0.5580118899090819,0.01325369779198951
-0.01788172429078014,0.5583500220258061,0.01325369779198951
-0.01787547429078014,0.5583500220258061,0.01291734704727558
-0.01786922429078014,0.5583500220258061,0.01325369779198951
-0.01786297429078014,0.5583500220258061,0.01325369779198951
-0.01785672429078014,0.5580118899090819,0.01325369779198951
-0.01785047429078014,0.5580118899090819,0.01325369779198951
-0.01784422429078014,0.5580118899090819,0.01325369779198951
-0.01783797429078014,0.558011889909082,0.01325369779198951
-0.01783172429078014,0.5583500220258061,0.01325369779198951
-0.01782547429078014,0.5583500220258061,0.01325369779198951
-0.01781922429078014,0.5583500220258061,0.01325369779198951
-0.01781297429078014,0.5583500220258061,0.01325369779198951
-0.01780672429078014,0.5583500220258061,0.01325369779198951
-0.01780047429078014,0.5583500220258061,0.01325369779198951
-0.01779422429078014,0.5583500220258061,0.01325369779198951
-0.01778797429078014,0.5583500220258061,0.01325369779198951
-0.01778172429078014,0.5580118899090819,0.01325369779198951
-0.01777547429078014,0.558011889909082,0.01325369779198967
-0.01776922429078014,0.5583500220258061,0.01359004853670345
-0.01776297429078014,0.5583500220258061,0.01325369779198951
-0.01775672429078014,0.5580118899090819,0.01325369779198951
-0.01775047429078014,0.5583500220258061,0.01325369779198951
-0.01774422429078014,0.558011889909082,0.01325369779198951
-0.01773797429078014,0.5583500220258061,0.01325369779198951
-0.01773172429078014,0.5580118899090819,0.01325369779198951
-0.01772547429078014,0.5583500220258061,0.01359004853670345
-0.01771922429078014,0.5586881541425303,0.01325369779198951
-0.01771297429078014,0.5583500220258061,0.0135900485367033
-0.01770672429078014,0.5583500220258061,0.01325369779198951
-0.01770047429078014,0.5583500220258061,0.01325369779198951
-0.01769422429078014,0.5583500220258061,0.01359004853670345
-0.01768797429078014,0.5586881541425303,0.01291734704727558
-0.01768172429078014,0.558350022025806,0.0135900485367033
-0.01767547429078014,0.5580118899090819,0.01325369779198951
-0.01766922429078014,0.5583500220258061,0.01325369779198951
-0.01766297429078014,0.5583500220258061,0.01325369779198951
-0.01765672429078014,0.5586881541425303,0.01325369779198951
-0.01765047429078014,0.5583500220258061,0.0135900485367033
-0.01764422429078014,0.5583500220258061,0.01325369779198951
-0.01763797429078014,0.5583500220258061,0.01325369779198951
-0.01763172429078014,0.5586881541425303,0.01325369779198951
-0.01762547429078014,0.5583500220258061,0.01359004853670345
-0.01761922429078014,0.5583500220258061,0.0135900485367033
-0.01761297429078014,0.5583500220258061,0.01325369779198951
-0.01760672429078014,0.5583500220258061,0.01325369779198951
-0.01760047429078014,0.5583500220258061,0.01359004853670345
-0.01759422429078014,0.5580118899090819,0.01325369779198951
-0.01758797429078014,0.5580118899090819,0.01325369779198967
-0.01758172429078014,0.5580118899090819,0.01359004853670345
-0.01757547429078014,0.5580118899090819,0.01359004853670345
-0.01756922429078014,0.5583500220258061,0.01359004853670345
-0.01756297429078014,0.5583500220258061,0.01325369779198951
-0.01755672429078014,0.5583500220258061,0.0135900485367033
-0.01755047429078014,0.5580118899090819,0.01359004853670345
-0.01754422429078014,0.5580118899090819,0.01325369779198951
-0.01753797429078014,0.5583500220258061,0.01325369779198951
-0.01753172429078014,0.5583500220258061,0.01325369779198951
-0.01752547429078014,0.558011889909082,0.0135900485367033
-0.01751922429078014,0.5583500220258061,0.01325369779198951
-0.01751297429078014,0.5583500220258061,0.01325369779198951
-0.01750672429078014,0.5583500220258061,0.01325369779198951
-0.01750047429078014,0.5583500220258061,0.01359004853670345
-0.01749422429078014,0.558011889909082,0.01325369779198967
-0.01748797429078014,0.5583500220258061,0.01359004853670345
-0.01748172429078014,0.5583500220258061,0.01359004853670345
-0.01747547429078014,0.5583500220258061,0.01325369779198951
-0.01746922429078014,0.5583500220258061,0.01359004853670345
-0.01746297429078014,0.5583500220258061,0.01325369779198967
-0.01745672429078014,0.5583500220258061,0.01325369779198951
-0.01745047429078014,0.5580118899090819,0.01325369779198951
-0.01744422429078014,0.5580118899090819,0.01325369779198951
-0.01743797429078014,0.5580118899090819,0.01359004853670345
-0.01743172429078014,0.558350022025806,0.01325369779198967
-0.01742547429078014,0.5583500220258061,0.01325369779198951
-0.01741922429078014,0.5583500220258061,0.01325369779198951
-0.01741297429078014,0.5580118899090819,0.01325369779198951
-0.01740672429078014,0.5580118899090819,0.01325369779198951
-0.01740047429078014,0.558350022025806,0.01325369779198951
-0.01739422429078014,0.5583500220258061,0.01291734704727558
-0.01738797429078014,0.5580118899090819,0.01325369779198951
-0.01738172429078014,0.5583500220258061,0.01359004853670345
-0.01737547429078014,0.5583500220258061,0.01325369779198951
-0.01736922429078014,0.5583500220258061,0.01325369779198951
-0.01736297429078014,0.5583500220258061,0.01325369779198951
-0.01735672429078014,0.5583500220258061,0.01359004853670345
-0.01735047429078014,0.5583500220258061,0.01325369779198951
-0.01734422429078014,0.5583500220258061,0.01325369779198951
-0.01733797429078014,0.5583500220258061,0.01325369779198951
-0.01733172429078014,0.5583500220258061,0.01325369779198951
-0.01732547429078014,0.5583500220258061,0.01325369779198951
-0.01731922429078014,0.5583500220258061,0.01359004853670345
-0.01731297429078014,0.5583500220258061,0.01359004853670345
-0.01730672429078014,0.5583500220258061,0.01359004853670345
-0.01730047429078014,0.5583500220258061,0.01325369779198951
-0.01729422429078014,0.5583500220258061,0.01325369779198951
-0.01728797429078014,0.5586881541425303,0.01325369779198951
-0.01728172429078014,0.5583500220258061,0.01359004853670345
-0.01727547429078014,0.5586881541425301,0.01325369779198967
-0.01726922429078014,0.5583500220258061,0.01325369779198951
-0.01726297429078014,0.5583500220258061,0.01325369779198951
-0.01725672429078014,0.5583500220258061,0.01325369779198951
-0.01725047429078014,0.5583500220258061,0.01325369779198951
-0.01724422429078014,0.5583500220258061,0.0135900485367033
-0.01723797429078014,0.5583500220258061,0.01359004853670345
-0.01723172429078014,0.5583500220258061,0.01325369779198951
-0.01722547429078014,0.5583500220258061,0.01325369779198951
-0.01721922429078014,0.5583500220258061,0.01325369779198951
-0.01721297429078014,0.5580118899090819,0.01359004853670345
-0.01720672429078014,0.5583500220258061,0.01359004853670345
-0.01720047429078014,0.5583500220258061,0.01325369779198951
-0.01719422429078014,0.5580118899090819,0.01325369779198951
-0.01718797429078014,0.5580118899090819,0.01325369779198951
-0.01718172429078014,0.5586881541425303,0.01325369779198951
-0.01717547429078014,0.5583500220258061,0.01325369779198951
-0.01716922429078014,0.5583500220258061,0.01325369779198951
-0.01716297429078014,0.5586881541425303,0.01325369779198951
-0.01715672429078014,0.5583500220258061,0.01325369779198951
-0.01715047429078014,0.5583500220258061,0.01359004853670345
-0.01714422429078014,0.5583500220258061,0.01325369779198951
-0.01713797429078014,0.5583500220258061,0.01359004853670345
-0.01713172429078014,0.5583500220258061,0.01325369779198951
-0.01712547429078014,0.5583500220258061,0.01325369779198951
-0.01711922429078014,0.5580118899090819,0.01325369779198951
-0.01711297429078014,0.5580118899090822,0.0135900485367033
-0.01710672429078014,0.5586881541425303,0.01325369779198951
-0.01710047429078014,0.5583500220258061,0.01359004853670345
-0.01709422429078014,0.5586881541425303,0.01325369779198951
-0.01708797429078014,0.5583500220258061,0.01359004853670345
-0.01708172429078014,0.5583500220258061,0.01325369779198951
-0.01707547429078014,0.5583500220258061,0.01325369779198951
-0.01706922429078014,0.5580118899090819,0.01325369779198951
-0.01706297429078014,0.5580118899090819,0.01325369779198951
-0.01705672429078014,0.5583500220258061,0.01291734704727558
-0.01705047429078014,0.5583500220258061,0.01291734704727573
-0.01704422429078014,0.5583500220258061,0.01325369779198951
-0.01703797429078014,0.5583500220258061,0.01325369779198951
-0.01703172429078014,0.5583500220258061,0.01325369779198951
-0.01702547429078014,0.5583500220258061,0.01325369779198951
-0.01701922429078014,0.5580118899090819,0.01325369779198951
-0.01701297429078014,0.5580118899090819,0.01325369779198951
-0.01700672429078014,0.5583500220258061,0.01291734704727558
-0.01700047429078014,0.5583500220258061,0.01359004853670345
-0.01699422429078014,0.5580118899090819,0.01325369779198951
-0.01698797429078014,0.558011889909082,0.01325369779198967
-0.01698172429078014,0.5583500220258061,0.01359004853670345
-0.01697547429078014,0.5583500220258061,0.01325369779198951
-0.01696922429078014,0.5586881541425303,0.01325369779198951
-0.01696297429078014,0.5583500220258061,0.01359004853670345
-0.01695672429078014,0.5583500220258061,0.01325369779198951
-0.01695047429078014,0.5583500220258061,0.01325369779198951
-0.01694422429078014,0.5583500220258061,0.01325369779198951
-0.01693797429078014,0.5583500220258061,0.01325369779198951
-0.01693172429078014,0.5583500220258061,0.01325369779198951
-0.01692547429078014,0.558350022025806,0.01325369779198967
-0.01691922429078014,0.5580118899090819,0.01359004853670345
-0.01691297429078014,0.5583500220258061,0.01325369779198951
-0.01690672429078014,0.5583500220258061,0.01325369779198951
-0.01690047429078014,0.5583500220258061,0.01359004853670345
-0.01689422429078014,0.5583500220258061,0.01325369779198951
-0.01688797429078014,0.5583500220258061,0.01325369779198951
-0.01688172429078014,0.5583500220258061,0.01325369779198951
-0.01687547429078014,0.5586881541425303,0.01325369779198951
-0.01686922429078014,0.5583500220258061,0.01325369779198951
-0.01686297429078014,0.558011889909082,0.01325369779198936
-0.01685672429078014,0.5583500220258061,0.01291734704727558
-0.01685047429078014,0.5583500220258061,0.01325369779198951
-0.01684422429078014,0.5583500220258061,0.01359004853670345
-0.01683797429078014,0.5583500220258061,0.01291734704727558
-0.01683172429078014,0.558350022025806,0.01325369779198951
-0.01682547429078014,0.5580118899090819,0.01325369779198951
-0.01681922429078014,0.5583500220258061,0.01325369779198951
-0.01681297429078014,0.5586881541425303,0.01325369779198951
-0.01680672429078014,0.5580118899090819,0.01325369779198951
-0.01680047429078014,0.5583500220258061,0.01325369779198951
-0.01679422429078014,0.5583500220258061,0.01325369779198951
-0.01678797429078014,0.5583500220258061,0.01325369779198951
-0.01678172429078014,0.5580118899090819,0.01359004853670345
-0.01677547429078014,0.5583500220258061,0.01359004853670345
-0.01676922429078014,0.5583500220258061,0.01359004853670345
-0.01676297429078014,0.5580118899090819,0.01325369779198951
-0.01675672429078014,0.5580118899090819,0.01325369779198951
-0.01675047429078014,0.5583500220258061,0.01325369779198951
-0.01674422429078014,0.5583500220258061,0.01325369779198951
-0.01673797429078014,0.558011889909082,0.01325369779198951
-0.01673172429078014,0.5580118899090819,0.01325369779198951
-0.01672547429078014,0.5583500220258061,0.01291734704727558
-0.01671922429078014,0.5583500220258061,0.01291734704727558
-0.01671297429078014,0.5583500220258061,0.01325369779198951
-0.01670672429078014,0.5583500220258061,0.01325369779198951
-0.01670047429078014,0.5583500220258061,0.01325369779198951
-0.01669422429078014,0.5583500220258061,0.01325369779198951
-0.01668797429078014,0.5583500220258061,0.01325369779198951
-0.01668172429078014,0.5583500220258061,0.01359004853670345
-0.01667547429078014,0.558011889909082,0.01325369779198967
-0.01666922429078014,0.5580118899090819,0.01359004853670345
-0.01666297429078014,0.5583500220258061,0.01325369779198951
-0.01665672429078014,0.5580118899090819,0.01325369779198951
-0.01665047429078014,0.5583500220258061,0.01325369779198951
-0.01664422429078014,0.558011889909082,0.01325369779198951
-0.01663797429078014,0.5583500220258061,0.01325369779198951
-0.01663172429078014,0.5580118899090819,0.01325369779198951
-0.01662547429078014,0.5583500220258061,0.01359004853670345
-0.01661922429078014,0.5586881541425303,0.01325369779198951
-0.01661297429078014,0.5580118899090822,0.01325369779198951
-0.01660672429078014,0.5580118899090819,0.01325369779198951
-0.01660047429078014,0.5583500220258061,0.01325369779198951
-0.01659422429078014,0.5583500220258061,0.01325369779198951
-0.01658797429078014,0.5580118899090819,0.01325369779198951
-0.01658172429078014,0.558350022025806,0.01325369779198951
-0.01657547429078014,0.5583500220258061,0.01359004853670345
-0.01656922429078014,0.5580118899090819,0.01325369779198951
-0.01656297429078014,0.5580118899090819,0.01325369779198951
-0.01655672429078014,0.5580118899090819,0.01291734704727558
-0.01655047429078014,0.558350022025806,0.01359004853670315
-0.01654422429078014,0.5580118899090819,0.01359004853670345
-0.01653797429078014,0.5583500220258061,0.01325369779198951
-0.01653172429078014,0.5583500220258061,0.01359004853670345
-0.01652547429078014,0.5583500220258061,0.01359004853670345
-0.01651922429078014,0.5583500220258061,0.01359004853670345
-0.01651297429078014,0.5583500220258061,0.01325369779198951
-0.01650672429078014,0.5580118899090819,0.01325369779198951
-0.01650047429078014,0.5583500220258061,0.01359004853670345
-0.01649422429078014,0.5580118899090819,0.01325369779198951
-0.01648797429078014,0.558350022025806,0.0135900485367033
-0.01648172429078014,0.5583500220258061,0.01359004853670345
-0.01647547429078014,0.5583500220258061,0.01359004853670345
-0.01646922429078014,0.5583500220258061,0.01325369779198951
-0.01646297429078014,0.5583500220258061,0.01359004853670345
-0.01645672429078014,0.558011889909082,0.01325369779198967
-0.01645047429078014,0.5586881541425303,0.01325369779198951
-0.01644422429078014,0.5583500220258061,0.01291734704727558
-0.01643797429078014,0.5583500220258061,0.01325369779198951
-0.01643172429078014,0.5580118899090819,0.01325369779198951
-0.01642547429078014,0.5580118899090819,0.01325369779198951
-0.01641922429078014,0.5583500220258061,0.01325369779198951
-0.01641297429078014,0.5580118899090819,0.01325369779198951
-0.01640672429078014,0.5580118899090819,0.01359004853670345
-0.01640047429078014,0.5580118899090819,0.01325369779198951
-0.01639422429078014,0.5583500220258061,0.01359004853670345
-0.01638797429078014,0.5580118899090819,0.01359004853670345
-0.01638172429078014,0.5586881541425303,0.01325369779198951
-0.01637547429078014,0.5583500220258061,0.01359004853670345
-0.01636922429078014,0.5583500220258061,0.01325369779198951
-0.01636297429078014,0.5583500220258061,0.01359004853670345
-0.01635672429078014,0.558011889909082,0.0135900485367033
-0.01635047429078014,0.5583500220258061,0.01325369779198951
-0.01634422429078014,0.5583500220258061,0.01325369779198951
-0.01633797429078014,0.5583500220258061,0.01359004853670345
-0.01633172429078014,0.5586881541425303,0.01325369779198951
-0.01632547429078014,0.5586881541425304,0.01325369779198951
-0.01631922429078014,0.5590262862592543,0.01325369779198951
-0.01631297429078014,0.5586881541425303,0.01359004853670345
-0.01630672429078014,0.5583500220258061,0.01359004853670345
-0.01630047429078014,0.5583500220258061,0.01359004853670345
-0.01629422429078014,0.5586881541425301,0.01325369779198967
-0.01628797429078014,0.5583500220258061,0.01359004853670345
-0.01628172429078014,0.5580118899090819,0.01359004853670345
-0.01627547429078014,0.5583500220258061,0.01325369779198951
-0.01626922429078014,0.5586881541425303,0.01359004853670345
-0.01626297429078014,0.5583500220258061,0.01359004853670345
-0.01625672429078014,0.5583500220258061,0.01359004853670345
-0.01625047429078014,0.5580118899090819,0.01359004853670345
-0.01624422429078014,0.5586881541425303,0.01325369779198951
-0.01623797429078014,0.5583500220258061,0.01359004853670345
-0.01623172429078014,0.5583500220258061,0.0135900485367033
-0.01622547429078014,0.5583500220258061,0.01325369779198951
-0.01621922429078014,0.5583500220258061,0.01359004853670345
-0.01621297429078014,0.5586881541425303,0.01359004853670345
-0.01620672429078014,0.5583500220258061,0.01325369779198951
-0.01620047429078014,0.5583500220258061,0.01325369779198951
-0.01619422429078014,0.5583500220258061,0.01325369779198951
-0.01618797429078014,0.5586881541425303,0.01325369779198951
-0.01618172429078014,0.5583500220258061,0.01325369779198951
-0.01617547429078014,0.5583500220258061,0.01325369779198951
-0.01616922429078014,0.5583500220258061,0.01325369779198951
-0.01616297429078014,0.5583500220258061,0.01325369779198951
-0.01615672429078014,0.5583500220258061,0.01359004853670345
-0.01615047429078014,0.5583500220258061,0.01291734704727558
-0.01614422429078014,0.5583500220258061,0.01325369779198951
-0.01613797429078014,0.5586881541425301,0.0135900485367033
-0.01613172429078014,0.5583500220258061,0.01325369779198951
-0.01612547429078014,0.5583500220258061,0.01325369779198951
-0.01611922429078014,0.5586881541425303,0.01325369779198951
-0.01611297429078014,0.5583500220258061,0.01359004853670345
-0.01610672429078014,0.5586881541425301,0.0135900485367033
-0.01610047429078014,0.5583500220258061,0.01325369779198951
-0.01609422429078014,0.5583500220258061,0.01359004853670345
-0.01608797429078014,0.5586881541425303,0.01325369779198951
-0.01608172429078014,0.5583500220258061,0.01325369779198951
-0.01607547429078014,0.5583500220258061,0.01325369779198967
-0.01606922429078014,0.5583500220258061,0.01359004853670345
-0.01606297429078014,0.5583500220258061,0.01325369779198951
-0.01605672429078014,0.5583500220258061,0.01325369779198951
-0.01605047429078014,0.5583500220258061,0.01359004853670345
-0.01604422429078014,0.558011889909082,0.01359004853670345
-0.01603797429078014,0.5583500220258061,0.01359004853670345
-0.01603172429078014,0.5580118899090819,0.01325369779198951
-0.01602547429078014,0.5580118899090819,0.01325369779198951
-0.01601922429078014,0.5583500220258061,0.01359004853670345
-0.01601297429078014,0.5583500220258061,0.01325369779198951
-0.01600672429078014,0.5583500220258061,0.01325369779198951
-0.01600047429078014,0.5583500220258061,0.01325369779198951
-0.01599422429078014,0.5583500220258061,0.01359004853670345
-0.01598797429078014,0.5583500220258061,0.01359004853670345
-0.01598172429078014,0.558011889909082,0.01359004853670345
-0.01597547429078014,0.5580118899090819,0.01325369779198951
-0.01596922429078014,0.5586881541425303,0.01359004853670345
-0.01596297429078014,0.5583500220258061,0.01325369779198951
-0.01595672429078014,0.5583500220258061,0.01325369779198951
-0.01595047429078014,0.5583500220258061,0.0135900485367033
-0.01594422429078014,0.5583500220258061,0.01359004853670345
-0.01593797429078014,0.5583500220258061,0.01325369779198951
-0.01593172429078014,0.5583500220258061,0.01325369779198951
-0.01592547429078014,0.5583500220258061,0.01325369779198951
-0.01591922429078014,0.5583500220258061,0.0135900485367033
-0.01591297429078014,0.5583500220258061,0.01325369779198951
-0.01590672429078014,0.5583500220258061,0.01325369779198951
-0.01590047429078014,0.5580118899090819,0.01325369779198951
-0.01589422429078014,0.5580118899090819,0.01325369779198951
-0.01588797429078014,0.5586881541425299,0.01325369779198951
-0.01588172429078014,0.5583500220258061,0.01325369779198951
-0.01587547429078014,0.5583500220258061,0.01325369779198951
-0.01586922429078014,0.5583500220258061,0.01325369779198951
-0.01586297429078014,0.5583500220258061,0.01325369779198951
-0.01585672429078014,0.5583500220258061,0.01325369779198951
-0.01585047429078014,0.5583500220258061,0.01359004853670345
-0.01584422429078014,0.5583500220258061,0.01359004853670345
-0.01583797429078014,0.5583500220258061,0.01325369779198951
-0.01583172429078014,0.5583500220258061,0.01325369779198951
-0.01582547429078014,0.558011889909082,0.01325369779198951
-0.01581922429078014,0.5583500220258061,0.01325369779198951
-0.01581297429078014,0.5583500220258061,0.01325369779198951
-0.01580672429078014,0.5583500220258061,0.01325369779198951
-0.01580047429078014,0.5583500220258061,0.01359004853670345
-0.01579422429078014,0.5583500220258061,0.01325369779198967
-0.01578797429078014,0.5586881541425303,0.01325369779198951
-0.01578172429078014,0.5583500220258061,0.01325369779198951
-0.01577547429078014,0.5580118899090819,0.01359004853670345
-0.01576922429078014,0.5583500220258061,0.01359004853670345
-0.01576297429078014,0.5583500220258061,0.01325369779198967
-0.01575672429078014,0.5583500220258061,0.01359004853670345
-0.01575047429078014,0.5583500220258061,0.01359004853670345
-0.01574422429078014,0.5580118899090819,0.01325369779198951
-0.01573797429078014,0.5583500220258061,0.01359004853670345
-0.01573172429078014,0.5586881541425301,0.01359004853670345
-0.01572547429078014,0.5580118899090819,0.01359004853670345
-0.01571922429078014,0.5583500220258061,0.01325369779198951
-0.01571297429078014,0.5583500220258061,0.01325369779198951
-0.01570672429078014,0.5583500220258061,0.01359004853670345
-0.01570047429078014,0.5583500220258061,0.01359004853670345
-0.01569422429078014,0.5583500220258061,0.01325369779198951
-0.01568797429078014,0.5583500220258061,0.01325369779198951
-0.01568172429078014,0.5586881541425303,0.01325369779198951
-0.01567547429078014,0.5583500220258061,0.01359004853670345
-0.01566922429078014,0.5583500220258061,0.01325369779198967
-0.01566297429078014,0.5586881541425303,0.01325369779198951
-0.01565672429078014,0.5583500220258061,0.01325369779198951
-0.01565047429078014,0.5583500220258061,0.01359004853670345
-0.01564422429078014,0.5586881541425303,0.01325369779198951
-0.01563797429078014,0.5583500220258061,0.01325369779198951
-0.01563172429078014,0.5583500220258061,0.01325369779198951
-0.01562547429078014,0.5583500220258061,0.01359004853670345
-0.01561922429078014,0.5583500220258061,0.01325369779198951
-0.01561297429078014,0.5583500220258061,0.01325369779198951
-0.01560672429078014,0.5583500220258061,0.01359004853670345
-0.01560047429078014,0.5586881541425303,0.01325369779198951
-0.01559422429078014,0.5583500220258061,0.01291734704727558
-0.01558797429078014,0.5583500220258061,0.01325369779198951
-0.01558172429078014,0.5586881541425303,0.01325369779198951
-0.01557547429078014,0.5580118899090819,0.01325369779198951
-0.01556922429078014,0.5583500220258061,0.01325369779198951
-0.01556297429078014,0.5583500220258061,0.01359004853670345
-0.01555672429078014,0.5583500220258061,0.01325369779198951
-0.01555047429078014,0.5583500220258061,0.01291734704727558
-0.01554422429078014,0.5583500220258061,0.01325369779198951
-0.01553797429078014,0.5580118899090819,0.01325369779198951
-0.01553172429078014,0.5583500220258061,0.01325369779198951
-0.01552547429078014,0.5583500220258061,0.01325369779198951
-0.01551922429078014,0.5583500220258061,0.01359004853670345
-0.01551297429078014,0.5583500220258061,0.01325369779198951
-0.01550672429078014,0.5586881541425303,0.01359004853670345
-0.01550047429078014,0.5580118899090819,0.01325369779198951
-0.01549422429078014,0.5583500220258061,0.01359004853670345
-0.01548797429078014,0.5580118899090819,0.01325369779198951
-0.01548172429078014,0.5583500220258061,0.01325369779198951
-0.01547547429078014,0.5580118899090819,0.01325369779198951
-0.01546922429078014,0.5580118899090819,0.01325369779198951
-0.01546297429078014,0.5580118899090819,0.01325369779198951
-0.01545672429078014,0.5583500220258061,0.01325369779198951
-0.01545047429078014,0.5580118899090819,0.01325369779198951
-0.01544422429078014,0.5580118899090819,0.01291734704727558
-0.01543797429078014,0.5580118899090819,0.01325369779198951
-0.01543172429078014,0.5580118899090819,0.01325369779198951
-0.01542547429078014,0.5583500220258061,0.01325369779198951
-0.01541922429078014,0.5580118899090819,0.01325369779198951
-0.01541297429078014,0.5580118899090819,0.01325369779198951
-0.01540672429078014,0.5583500220258061,0.01325369779198951
-0.01540047429078014,0.5583500220258061,0.01325369779198951
-0.01539422429078014,0.5583500220258061,0.01359004853670345
-0.01538797429078014,0.5580118899090819,0.01325369779198951
-0.01538172429078014,0.5580118899090819,0.01291734704727558
-0.01537547429078014,0.5583500220258061,0.01325369779198951
-0.01536922429078014,0.5580118899090819,0.01325369779198951
-0.01536297429078014,0.5580118899090819,0.01325369779198951
-0.01535672429078014,0.5583500220258061,0.01325369779198951
-0.01535047429078014,0.5580118899090819,0.01291734704727558
-0.01534422429078014,0.5580118899090819,0.01325369779198951
-0.01533797429078014,0.5583500220258061,0.01325369779198951
-0.01533172429078014,0.5580118899090819,0.01325369779198951
-0.01532547429078014,0.5580118899090819,0.01325369779198951
-0.01531922429078014,0.5583500220258061,0.01325369779198951
-0.01531297429078014,0.5586881541425303,0.01359004853670345
-0.01530672429078014,0.5580118899090819,0.01325369779198951
-0.01530047429078014,0.5580118899090819,0.01325369779198951
-0.01529422429078014,0.5580118899090819,0.01325369779198951
-0.01528797429078014,0.5580118899090819,0.01359004853670345
-0.01528172429078014,0.5583500220258061,0.01325369779198951
-0.01527547429078014,0.5580118899090819,0.01291734704727558
-0.01526922429078014,0.5580118899090819,0.01325369779198951
-0.01526297429078014,0.5580118899090819,0.01325369779198951
-0.01525672429078014,0.5580118899090819,0.01325369779198951
-0.01525047429078014,0.5583500220258061,0.01325369779198951
-0.01524422429078014,0.5580118899090819,0.01359004853670345
-0.01523797429078014,0.5580118899090819,0.01359004853670345
-0.01523172429078014,0.5583500220258061,0.01325369779198951
-0.01522547429078014,0.5583500220258061,0.01325369779198951
-0.01521922429078014,0.5580118899090819,0.01359004853670345
-0.01521297429078014,0.5580118899090819,0.01325369779198951
-0.01520672429078014,0.5583500220258061,0.01359004853670345
-0.01520047429078014,0.5586881541425303,0.01325369779198951
-0.01519422429078014,0.5583500220258061,0.01325369779198951
-0.01518797429078014,0.5580118899090819,0.01359004853670345
-0.01518172429078014,0.5583500220258061,0.01359004853670345
-0.01517547429078014,0.5586881541425303,0.01325369779198951
