-0.1024,0.5576737577923577,0.01392639928141739
-0.102375,0.5576737577923577,0.01392639928141739
-0.10235,0.5576737577923577,0.01392639928141739
-0.102325,0.5580118899090819,0.01426275002613133
-0.1023,0.5576737577923577,0.01392639928141739
-0.102275,0.5580118899090819,0.01426275002613133
-0.10225,0.5580118899090819,0.01426275002613133
-0.102225,0.5580118899090819,0.01426275002613133
-0.1022,0.5583500220258061,0.01426275002613133
-0.102175,0.5583500220258061,0.01426275002613133
-0.10215,0.5586881541425303,0.01392639928141739
-0.102125,0.5583500220258062,0.01392639928141754
-0.1021,0.5586881541425303,0.01426275002613133
-0.102075,0.5586881541425303,0.01392639928141739
-0.10205,0.5590262862592543,0.01426275002613133
-0.102025,0.5590262862592543,0.01392639928141739
-0.102,0.5590262862592543,0.01426275002613117
-0.101975,0.5590262862592543,0.01392639928141739
-0.10195,0.5593644183759785,0.01426275002613133
-0.101925,0.5597025504927027,0.01392639928141739
-0.1019,0.5597025504927027,0.01392639928141739
-0.101875,0.5597025504927027,0.01392639928141739
-0.10185,0.5597025504927027,0.01392639928141739
-0.101825,0.5600406826094269,0.01392639928141739
-0.1018,0.5600406826094269,0.01426275002613133
-0.101775,0.560378814726151,0.01426275002613133
-0.10175,0.560040682609427,0.01426275002613117
-0.101725,0.560378814726151,0.01392639928141739
-0.1017,0.560378814726151,0.01392639928141739
-0.101675,0.560378814726151,0.01392639928141739
-0.10165,0.5607169468428752,0.01392639928141739
-0.101625,0.5607169468428752,0.01392639928141739
-0.1016,0.5607169468428752,0.01392639928141739
-0.101575,0.5610550789595994,0.01426275002613133
-0.10155,0.5610550789595994,0.01426275002613133
-0.101525,0.5613932110763235,0.01392639928141739
-0.1015,0.5613932110763235,0.01392639928141739
-0.101475,0.5613932110763235,0.01426275002613133
-0.10145,0.5617313431930476,0.01426275002613133
-0.101425,0.5617313431930476,0.01426275002613133
-0.1014,0.5617313431930476,0.01392639928141739
-0.101375,0.5617313431930476,0.01392639928141739
-0.10135,0.5620694753097718,0.01392639928141739
-0.101325,0.5620694753097718,0.01392639928141739
-0.1013,0.5620694753097718,0.01392639928141739
-0.101275,0.5620694753097718,0.01392639928141739
-0.10125,0.5624076074264959,0.01392639928141739
-0.101225,0.562407607426496,0.01392639928141739
-0.1012,0.562407607426496,0.01392639928141739
-0.101175,0.5627457395432202,0.01392639928141739
-0.10115,0.5627457395432202,0.01392639928141739
-0.101125,0.5627457395432202,0.01426275002613117
-0.1011,0.5630838716599443,0.01392639928141739
-0.101075,0.5634220037766685,0.01392639928141739
-0.10105,0.5634220037766685,0.01426275002613133
-0.101025,0.5634220037766685,0.01392639928141739
-0.101,0.5634220037766685,0.01426275002613117
-0.100975,0.5637601358933927,0.01392639928141739
-0.10095,0.5637601358933927,0.01392639928141739
-0.100925,0.5637601358933927,0.01392639928141739
-0.1009,0.5640982680101168,0.01392639928141739
-0.100875,0.5640982680101168,0.01392639928141739
-0.10085,0.5640982680101168,0.01392639928141739
-0.100825,0.5644364001268409,0.01392639928141739
-0.1008,0.5644364001268409,0.01392639928141739
-0.100775,0.5644364001268409,0.01392639928141739
-0.10075,0.5644364001268409,0.01392639928141739
-0.100725,0.5647745322435651,0.01392639928141739
-0.1007,0.5647745322435651,0.01392639928141739
-0.100675,0.5647745322435651,0.01392639928141739
-0.10065,0.5651126643602893,0.01392639928141739
-0.100625,0.5651126643602893,0.01426275002613117
-0.1006,0.5651126643602893,0.01392639928141739
-0.100575,0.5651126643602893,0.01392639928141739
-0.10055,0.5651126643602893,0.01392639928141739
-0.100525,0.5654507964770135,0.01392639928141739
-0.1005,0.5654507964770135,0.01392639928141739
-0.100475,0.5657889285937376,0.01392639928141739
-0.10045,0.5657889285937376,0.01392639928141739
-0.100425,0.5657889285937376,0.01392639928141739
-0.1004,0.5661270607104618,0.01426275002613133
-0.100375,0.5661270607104618,0.01392639928141754
-0.10035,0.5661270607104618,0.01392639928141739
-0.100325,0.5664651928271859,0.01392639928141739
-0.1003,0.5664651928271859,0.01392639928141739
-0.100275,0.5668033249439101,0.01392639928141739
-0.10025,0.5668033249439101,0.01392639928141739
-0.100225,0.5668033249439101,0.01392639928141739
-0.1002,0.5671414570606342,0.01426275002613133
-0.100175,0.5671414570606342,0.01426275002613133
-0.10015,0.5671414570606342,0.01392639928141739
-0.100125,0.5671414570606342,0.01392639928141739
-0.1001,0.5674795891773584,0.01392639928141739
-0.100075,0.5674795891773584,0.01392639928141739
-0.10005,0.5674795891773584,0.01392639928141739
-0.100025,0.5678177212940826,0.01426275002613133
-0.1,0.5678177212940826,0.01392639928141739
-0.09997499999999999,0.5678177212940826,0.01426275002613133
-0.09995,0.5678177212940826,0.01426275002613133
-0.099925,0.5681558534108068,0.01392639928141739
-0.0999,0.5681558534108068,0.01392639928141739
-0.09987500000000001,0.5684939855275309,0.01426275002613133
-0.09984999999999999,0.5684939855275309,0.01392639928141739
-0.099825,0.5684939855275309,0.01392639928141739
-0.0998,0.5684939855275309,0.01392639928141739
-0.099775,0.568832117644255,0.01392639928141739
-0.09975000000000001,0.568832117644255,0.01392639928141739
-0.09972499999999999,0.5688321176442551,0.01392639928141739
-0.0997,0.5691702497609792,0.01392639928141739
-0.099675,0.5695083818777034,0.01426275002613133
-0.09965,0.5691702497609792,0.01426275002613133
-0.09962500000000001,0.5695083818777034,0.01392639928141739
-0.09959999999999999,0.5695083818777035,0.01426275002613133
-0.099575,0.5698465139944275,0.01426275002613133
-0.09955,0.5698465139944275,0.01426275002613133
-0.099525,0.5698465139944275,0.01392639928141739
-0.09950000000000001,0.5698465139944275,0.01392639928141739
-0.09947499999999999,0.5701846461111517,0.01392639928141739
-0.09945,0.5701846461111517,0.01392639928141739
-0.099425,0.5701846461111517,0.01392639928141739
-0.0994,0.5705227782278759,0.01392639928141739
-0.099375,0.5705227782278759,0.01392639928141739
-0.09934999999999999,0.5705227782278759,0.01392639928141739
-0.099325,0.5705227782278759,0.01392639928141739
-0.0993,0.5705227782278759,0.01392639928141739
-0.099275,0.5705227782278759,0.01392639928141739
-0.09925,0.5708609103446001,0.01392639928141739
-0.09922499999999999,0.5708609103446002,0.01392639928141739
-0.0992,0.5711990424613241,0.01392639928141739
-0.099175,0.5711990424613241,0.01392639928141739
-0.09915,0.5711990424613241,0.01392639928141739
-0.099125,0.5715371745780483,0.01392639928141739
-0.09909999999999999,0.5715371745780484,0.01392639928141739
-0.099075,0.5718753066947725,0.01392639928141739
-0.09905,0.5718753066947725,0.01392639928141739
-0.099025,0.5718753066947725,0.01392639928141739
-0.099,0.5722134388114967,0.01392639928141739
-0.09897499999999999,0.5722134388114967,0.01392639928141739
-0.09895,0.5722134388114967,0.01392639928141739
-0.098925,0.5722134388114967,0.01392639928141739
-0.0989,0.5725515709282208,0.01392639928141739
-0.098875,0.5725515709282208,0.01392639928141739
-0.09884999999999999,0.5728897030449449,0.01392639928141739
-0.098825,0.5725515709282208,0.01392639928141739
-0.0988,0.572889703044945,0.01426275002613133
-0.098775,0.572889703044945,0.01426275002613133
-0.09875,0.572889703044945,0.01392639928141739
-0.09872499999999999,0.5728897030449451,0.01426275002613117
-0.0987,0.5732278351616692,0.01392639928141739
-0.098675,0.5732278351616692,0.01392639928141739
-0.09865,0.5732278351616692,0.01392639928141739
-0.098625,0.5735659672783934,0.01392639928141739
-0.09859999999999999,0.5735659672783934,0.01392639928141739
-0.098575,0.5735659672783934,0.01392639928141739
-0.09855,0.5739040993951174,0.01392639928141739
-0.098525,0.5742422315118416,0.01392639928141739
-0.0985,0.5742422315118416,0.01392639928141739
-0.09847499999999999,0.5739040993951176,0.01426275002613117
-0.09845,0.5742422315118416,0.01392639928141739
-0.098425,0.5742422315118416,0.01392639928141739
-0.0984,0.5742422315118416,0.01426275002613133
-0.098375,0.5745803636285658,0.01392639928141739
-0.09835000000000001,0.5745803636285658,0.01426275002613117
-0.098325,0.57491849574529,0.01426275002613133
-0.0983,0.57491849574529,0.01426275002613133
-0.098275,0.57491849574529,0.01426275002613133
-0.09825,0.5752566278620141,0.01426275002613133
-0.09822500000000001,0.5752566278620141,0.01426275002613133
-0.0982,0.5755947599787383,0.01426275002613133
-0.098175,0.5752566278620141,0.01392639928141739
-0.09815,0.5755947599787383,0.01392639928141739
-0.098125,0.5755947599787383,0.01426275002613133
-0.09810000000000001,0.5755947599787383,0.01392639928141754
-0.098075,0.5759328920954625,0.01392639928141739
-0.09805,0.5759328920954625,0.01426275002613133
-0.098025,0.5762710242121866,0.01426275002613133
-0.098,0.5762710242121866,0.01392639928141739
-0.09797500000000001,0.5762710242121866,0.01392639928141739
-0.09795,0.5762710242121866,0.01392639928141739
-0.097925,0.5762710242121866,0.01392639928141739
-0.0979,0.5766091563289107,0.01392639928141739
-0.097875,0.5766091563289107,0.01392639928141739
-0.09785000000000001,0.5769472884456348,0.01392639928141739
-0.097825,0.5769472884456349,0.01426275002613133
-0.0978,0.5772854205623591,0.01426275002613133
-0.097775,0.5769472884456349,0.01392639928141739
-0.09775,0.5769472884456349,0.01426275002613133
-0.09772500000000001,0.577285420562359,0.01426275002613133
-0.0977,0.5776235526790833,0.01392639928141739
-0.097675,0.5776235526790833,0.01426275002613133
-0.09765,0.5776235526790833,0.01426275002613133
-0.097625,0.5776235526790833,0.01392639928141739
-0.09760000000000001,0.5779616847958073,0.01426275002613117
-0.097575,0.5776235526790833,0.01426275002613133
-0.09755,0.5779616847958075,0.01426275002613133
-0.097525,0.5782998169125316,0.01392639928141739
-0.0975,0.5782998169125316,0.01392639928141739
-0.09747500000000001,0.5782998169125316,0.01426275002613117
-0.09744999999999999,0.5782998169125316,0.01392639928141739
-0.097425,0.5782998169125316,0.01392639928141739
-0.0974,0.5786379490292557,0.01392639928141739
-0.097375,0.5786379490292557,0.01392639928141739
-0.09735000000000001,0.5786379490292557,0.01392639928141739
-0.09732499999999999,0.5789760811459799,0.01392639928141739
-0.0973,0.5789760811459799,0.01392639928141739
-0.097275,0.5789760811459799,0.01392639928141739
-0.09725,0.5789760811459799,0.01392639928141739
-0.09722500000000001,0.5793142132627039,0.01392639928141739
-0.09719999999999999,0.579314213262704,0.01392639928141739
-0.097175,0.5796523453794282,0.01392639928141739
-0.09715,0.5796523453794282,0.01392639928141739
-0.097125,0.5796523453794282,0.01392639928141739
-0.09710000000000001,0.5796523453794282,0.01392639928141739
-0.09707499999999999,0.5796523453794282,0.01426275002613133
-0.09705,0.5799904774961524,0.01426275002613133
-0.097025,0.5799904774961524,0.01392639928141739
-0.097,0.5803286096128766,0.01392639928141739
-0.09697500000000001,0.5803286096128766,0.01426275002613133
-0.09694999999999999,0.5803286096128766,0.01426275002613133
-0.096925,0.5806667417296008,0.01392639928141739
-0.0969,0.5806667417296008,0.01426275002613133
-0.096875,0.5806667417296008,0.01392639928141739
-0.09685000000000001,0.5810048738463248,0.01426275002613133
-0.09682499999999999,0.5810048738463248,0.01392639928141739
-0.0968,0.5810048738463248,0.01392639928141739
-0.096775,0.5810048738463248,0.01426275002613133
-0.09675,0.581343005963049,0.01392639928141739
-0.09672500000000001,0.581343005963049,0.01392639928141739
-0.09669999999999999,0.581343005963049,0.01392639928141739
-0.096675,0.581343005963049,0.01392639928141739
-0.09665,0.5816811380797732,0.01392639928141739
-0.096625,0.5816811380797732,0.01392639928141739
-0.09660000000000001,0.5816811380797732,0.01392639928141739
-0.09657499999999999,0.5820192701964974,0.01426275002613117
-0.09655,0.5820192701964974,0.01392639928141739
-0.096525,0.5823574023132215,0.01392639928141739
-0.0965,0.5823574023132215,0.01426275002613133
-0.09647500000000001,0.5826955344299457,0.01426275002613133
-0.09644999999999999,0.5823574023132216,0.01426275002613117
-0.096425,0.5826955344299457,0.01392639928141739
-0.0964,0.5826955344299457,0.01426275002613133
-0.096375,0.5826955344299457,0.01426275002613133
-0.09635000000000001,0.5830336665466699,0.01426275002613133
-0.09632499999999999,0.5830336665466699,0.01426275002613117
-0.0963,0.5830336665466699,0.01392639928141739
-0.096275,0.5833717986633939,0.01426275002613133
-0.09625,0.5830336665466699,0.01426275002613133
-0.096225,0.5833717986633939,0.01392639928141739
-0.09619999999999999,0.5833717986633939,0.01392639928141754
-0.096175,0.5833717986633939,0.01426275002613133
-0.09615,0.5837099307801181,0.01426275002613133
-0.096125,0.5837099307801181,0.01426275002613133
-0.0961,0.5837099307801181,0.01392639928141739
-0.09607499999999999,0.5840480628968423,0.01392639928141739
-0.09605,0.5840480628968423,0.01392639928141739
-0.096025,0.5843861950135665,0.01392639928141739
-0.096,0.5843861950135665,0.01392639928141739
-0.095975,0.5843861950135665,0.01426275002613133
-0.09594999999999999,0.5847243271302907,0.01426275002613133
-0.095925,0.5847243271302907,0.01426275002613133
-0.0959,0.5847243271302907,0.01426275002613133
-0.095875,0.5847243271302907,0.01392639928141739
-0.09585,0.5850624592470148,0.01392639928141739
-0.09582499999999999,0.5850624592470148,0.01426275002613117
-0.0958,0.5850624592470148,0.01392639928141739
-0.095775,0.5850624592470148,0.01426275002613133
-0.09575,0.585400591363739,0.01392639928141739
-0.095725,0.585400591363739,0.01426275002613133
-0.09569999999999999,0.5854005913637391,0.01392639928141754
-0.095675,0.5857387234804632,0.01426275002613133
-0.09565,0.5857387234804632,0.01392639928141739
-0.095625,0.5857387234804632,0.01426275002613133
-0.0956,0.5857387234804632,0.01392639928141739
-0.09557499999999999,0.5860768555971873,0.01392639928141739
-0.09555,0.5860768555971873,0.01392639928141739
-0.095525,0.5864149877139114,0.01392639928141739
-0.0955,0.5860768555971873,0.01426275002613133
-0.095475,0.5864149877139114,0.01392639928141739
-0.09544999999999999,0.5864149877139114,0.01392639928141754
-0.095425,0.5864149877139114,0.01426275002613133
-0.0954,0.5867531198306356,0.01392639928141739
-0.095375,0.5867531198306356,0.01426275002613133
-0.09535,0.5867531198306356,0.01426275002613133
-0.09532499999999999,0.5870912519473598,0.01392639928141739
-0.0953,0.5870912519473598,0.01392639928141739
-0.095275,0.5870912519473598,0.01392639928141739
-0.09525,0.587429384064084,0.01392639928141739
-0.095225,0.587429384064084,0.01392639928141739
-0.09520000000000001,0.587429384064084,0.01426275002613117
-0.095175,0.587429384064084,0.01392639928141739
-0.09515,0.587429384064084,0.01392639928141739
-0.095125,0.5877675161808081,0.01392639928141739
-0.0951,0.5877675161808081,0.01426275002613133
-0.09507500000000001,0.5881056482975322,0.01392639928141754
-0.09505,0.5881056482975323,0.01392639928141739
-0.095025,0.5884437804142564,0.01392639928141739
-0.095,0.5881056482975323,0.01392639928141739
-0.094975,0.5884437804142564,0.01426275002613133
-0.09495000000000001,0.5884437804142564,0.01426275002613133
-0.094925,0.5887819125309806,0.01426275002613133
-0.0949,0.5887819125309806,0.01426275002613133
-0.094875,0.5887819125309806,0.01392639928141739
-0.09485,0.5891200446477047,0.01426275002613133
-0.09482500000000001,0.5891200446477047,0.01392639928141754
-0.0948,0.5891200446477047,0.01392639928141739
-0.094775,0.5891200446477047,0.01392639928141739
-0.09475,0.5891200446477047,0.01392639928141739
-0.094725,0.5894581767644289,0.01392639928141739
-0.09470000000000001,0.5894581767644289,0.01392639928141739
-0.094675,0.5894581767644289,0.01392639928141739
-0.09465,0.5897963088811531,0.01392639928141739
-0.094625,0.5897963088811531,0.01392639928141739
-0.0946,0.5897963088811531,0.01392639928141739
-0.09457500000000001,0.5897963088811531,0.01392639928141739
-0.09455,0.5901344409978773,0.01426275002613133
-0.094525,0.5901344409978773,0.01426275002613133
-0.0945,0.5904725731146014,0.01392639928141739
-0.094475,0.5904725731146014,0.01392639928141739
-0.09445000000000001,0.5904725731146014,0.01426275002613117
-0.094425,0.5908107052313255,0.01426275002613133
-0.0944,0.5908107052313255,0.01426275002613133
-0.094375,0.5908107052313255,0.01426275002613133
-0.09435,0.5908107052313255,0.01426275002613133
-0.09432500000000001,0.5911488373480496,0.01392639928141754
-0.09429999999999999,0.5908107052313255,0.01392639928141739
-0.094275,0.5911488373480497,0.01392639928141739
-0.09425,0.5911488373480497,0.01392639928141739
-0.094225,0.5911488373480497,0.01392639928141739
-0.09420000000000001,0.5914869694647737,0.01392639928141739
-0.09417499999999999,0.5914869694647739,0.01392639928141739
-0.09415,0.5914869694647739,0.01392639928141739
-0.094125,0.5914869694647739,0.01392639928141739
-0.0941,0.591825101581498,0.01392639928141739
-0.09407500000000001,0.591825101581498,0.01392639928141739
-0.09404999999999999,0.591825101581498,0.01392639928141739
-0.094025,0.5921632336982222,0.01392639928141739
-0.094,0.5925013658149464,0.01392639928141739
-0.093975,0.5921632336982222,0.01392639928141739
-0.09395000000000001,0.5925013658149463,0.01392639928141739
-0.09392499999999999,0.5925013658149464,0.01392639928141739
-0.0939,0.5925013658149464,0.01392639928141739
-0.093875,0.5928394979316706,0.01392639928141739
-0.09385,0.5928394979316706,0.01392639928141739
-0.09382500000000001,0.5928394979316706,0.01392639928141739
-0.09379999999999999,0.5931776300483946,0.01392639928141739
-0.093775,0.5931776300483946,0.01392639928141739
-0.09375,0.5935157621651188,0.01392639928141739
-0.093725,0.5935157621651188,0.01392639928141739
-0.09370000000000001,0.5935157621651188,0.01392639928141739
-0.09367499999999999,0.5935157621651188,0.01426275002613133
-0.09365,0.5935157621651188,0.01426275002613133
-0.093625,0.593853894281843,0.01392639928141739
-0.0936,0.593853894281843,0.01426275002613133
-0.09357500000000001,0.593853894281843,0.01426275002613133
-0.09354999999999999,0.5941920263985672,0.01392639928141739
-0.093525,0.5941920263985672,0.01392639928141739
-0.0935,0.5945301585152913,0.01426275002613133
-0.093475,0.5941920263985672,0.01426275002613133
-0.09345000000000001,0.5945301585152913,0.01426275002613133
-0.09342499999999999,0.5948682906320155,0.01392639928141739
-0.0934,0.5948682906320155,0.01392639928141739
-0.093375,0.5948682906320155,0.01392639928141739
-0.09335,0.5948682906320155,0.01392639928141739
-0.09332500000000001,0.5948682906320155,0.01392639928141739
-0.09329999999999999,0.5948682906320156,0.01392639928141739
-0.093275,0.5952064227487397,0.01392639928141739
-0.09325,0.5952064227487397,0.01392639928141739
-0.093225,0.5952064227487397,0.01392639928141739
-0.09320000000000001,0.5955445548654639,0.01392639928141739
-0.09317499999999999,0.595544554865464,0.01392639928141739
-0.09315,0.5958826869821879,0.01392639928141739
-0.093125,0.5955445548654639,0.01392639928141739
-0.0931,0.5958826869821879,0.01392639928141739
-0.093075,0.5958826869821879,0.01392639928141739
-0.09304999999999999,0.5962208190989121,0.01392639928141739
-0.093025,0.5962208190989121,0.01392639928141739
-0.093,0.5962208190989121,0.01392639928141739
-0.092975,0.5965589512156363,0.01426275002613133
-0.09295,0.5965589512156363,0.01392639928141739
-0.09292499999999999,0.5965589512156363,0.01392639928141739
-0.0929,0.5965589512156363,0.01392639928141739
-0.092875,0.5968970833323605,0.01392639928141739
-0.09285,0.5968970833323605,0.01426275002613133
-0.092825,0.5968970833323605,0.01392639928141739
-0.09279999999999999,0.5972352154490846,0.01392639928141739
-0.092775,0.5972352154490846,0.01392639928141739
-0.09275,0.5972352154490846,0.01392639928141739
-0.092725,0.5975733475658088,0.01392639928141739
-0.0927,0.5975733475658088,0.01392639928141739
-0.09267499999999999,0.597911479682533,0.01392639928141739
-0.09265,0.597911479682533,0.01392639928141739
-0.092625,0.5982496117992571,0.01392639928141739
-0.0926,0.5982496117992571,0.01392639928141739
-0.092575,0.597911479682533,0.01392639928141739
-0.09254999999999999,0.5982496117992571,0.01392639928141739
-0.092525,0.5982496117992571,0.01392639928141739
-0.0925,0.5985877439159812,0.01392639928141739
-0.092475,0.5985877439159812,0.01392639928141739
-0.09245,0.5985877439159812,0.01426275002613133
-0.09242499999999999,0.5985877439159814,0.01426275002613117
-0.0924,0.5989258760327054,0.01392639928141739
-0.092375,0.5989258760327054,0.01392639928141739
-0.09235,0.5989258760327054,0.01392639928141739
-0.092325,0.5992640081494296,0.01392639928141739
-0.09229999999999999,0.5996021402661537,0.01392639928141739
-0.092275,0.5992640081494296,0.01392639928141739
-0.09225,0.5996021402661538,0.01392639928141739
-0.092225,0.5996021402661538,0.01392639928141739
-0.0922,0.5996021402661538,0.01392639928141739
-0.09217500000000001,0.5996021402661538,0.01392639928141739
-0.09215,0.5996021402661538,0.01426275002613133
-0.092125,0.5999402723828779,0.01392639928141739
-0.0921,0.5999402723828779,0.01392639928141739
-0.092075,0.5999402723828779,0.01392639928141739
-0.09205000000000001,0.600278404499602,0.01392639928141739
-0.092025,0.6002784044996021,0.01426275002613133
-0.092,0.6002784044996021,0.01392639928141739
-0.091975,0.6002784044996021,0.01426275002613133
-0.09195,0.6006165366163262,0.01392639928141739
-0.09192500000000001,0.6006165366163262,0.01392639928141739
-0.0919,0.6009546687330504,0.01392639928141739
-0.091875,0.6006165366163262,0.01392639928141739
-0.09185,0.6009546687330504,0.01426275002613133
-0.091825,0.6009546687330504,0.01392639928141739
-0.09180000000000001,0.6009546687330504,0.01392639928141739
-0.091775,0.6012928008497745,0.01392639928141739
-0.09175,0.6012928008497745,0.01392639928141739
-0.091725,0.6016309329664987,0.01392639928141739
-0.0917,0.6016309329664987,0.01392639928141739
-0.09167500000000001,0.6016309329664987,0.01392639928141739
-0.09165,0.6016309329664987,0.01392639928141739
-0.091625,0.6016309329664987,0.01392639928141739
-0.0916,0.6019690650832229,0.01426275002613133
-0.091575,0.6019690650832229,0.01392639928141739
-0.09155000000000001,0.6019690650832229,0.01392639928141739
-0.091525,0.6023071971999471,0.01392639928141739
-0.0915,0.6023071971999471,0.01392639928141739
-0.091475,0.6023071971999471,0.01392639928141739
-0.09145,0.6026453293166713,0.01392639928141739
-0.09142500000000001,0.6026453293166713,0.01392639928141739
-0.0914,0.6029834614333953,0.01392639928141739
-0.091375,0.6029834614333953,0.01392639928141739
-0.09135,0.6029834614333953,0.01392639928141739
-0.091325,0.6029834614333953,0.01392639928141739
-0.09130000000000001,0.6033215935501194,0.01392639928141739
-0.091275,0.6033215935501195,0.01392639928141739
-0.09125,0.6033215935501195,0.01392639928141739
-0.091225,0.6033215935501195,0.01392639928141739
-0.0912,0.6033215935501195,0.01392639928141739
-0.09117500000000001,0.6036597256668436,0.01392639928141739
-0.09114999999999999,0.6036597256668437,0.01392639928141739
-0.091125,0.6036597256668437,0.01392639928141739
-0.0911,0.6039978577835678,0.01392639928141739
-0.091075,0.604335989900292,0.01392639928141739
-0.09105000000000001,0.603997857783568,0.01392639928141739
-0.09102499999999999,0.604335989900292,0.01392639928141739
-0.091,0.604335989900292,0.01392639928141739
-0.090975,0.604335989900292,0.01392639928141739
-0.09095,0.6046741220170162,0.01392639928141739
-0.09092500000000001,0.6046741220170162,0.01392639928141739
-0.09089999999999999,0.6046741220170162,0.01392639928141739
-0.090875,0.6046741220170162,0.01426275002613133
-0.09085,0.6050122541337404,0.01392639928141739
-0.090825,0.6050122541337404,0.01392639928141739
-0.09080000000000001,0.6050122541337404,0.01392639928141739
-0.09077499999999999,0.6053503862504646,0.01392639928141739
-0.09075,0.6053503862504646,0.01392639928141739
-0.090725,0.6053503862504646,0.01392639928141739
-0.0907,0.6056885183671886,0.01392639928141739
-0.09067500000000001,0.6056885183671886,0.01426275002613133
-0.09064999999999999,0.6056885183671886,0.01392639928141739
-0.090625,0.6060266504839128,0.01426275002613133
-0.0906,0.6060266504839128,0.01392639928141739
-0.090575,0.6060266504839128,0.01426275002613133
-0.09055000000000001,0.6060266504839128,0.01392639928141739
-0.09052499999999999,0.606364782600637,0.01392639928141739
-0.0905,0.606364782600637,0.01426275002613133
-0.090475,0.606364782600637,0.01392639928141739
-0.09045,0.606364782600637,0.01426275002613133
-0.09042500000000001,0.6067029147173612,0.01392639928141739
-0.09039999999999999,0.6067029147173612,0.01426275002613133
-0.090375,0.6067029147173612,0.01426275002613133
-0.09035,0.6067029147173612,0.01392639928141739
-0.090325,0.6070410468340853,0.01426275002613133
-0.09030000000000001,0.6070410468340853,0.01426275002613133
-0.09027499999999999,0.6073791789508095,0.01392639928141754
-0.09025,0.6073791789508095,0.01426275002613133
-0.090225,0.6073791789508095,0.01392639928141739
-0.0902,0.6073791789508095,0.01426275002613133
-0.09017500000000001,0.6077173110675337,0.01426275002613133
-0.09014999999999999,0.6073791789508096,0.01392639928141739
-0.090125,0.6077173110675337,0.01392639928141739
-0.0901,0.6077173110675337,0.01392639928141739
-0.090075,0.6077173110675337,0.01392639928141739
-0.09005000000000001,0.6080554431842577,0.01426275002613133
-0.09002499999999999,0.6080554431842579,0.01392639928141739
-0.09,0.6083935753009819,0.01392639928141739
-0.089975,0.6083935753009819,0.01392639928141739
-0.08995,0.6087317074177061,0.01426275002613133
-0.089925,0.6087317074177061,0.01426275002613133
-0.08989999999999999,0.6087317074177061,0.01392639928141739
-0.089875,0.6087317074177061,0.01392639928141739
-0.08985,0.6090698395344303,0.01392639928141739
-0.089825,0.6090698395344303,0.01392639928141739
-0.0898,0.6090698395344303,0.01392639928141739
-0.08977499999999999,0.6094079716511545,0.01392639928141739
-0.08975,0.6094079716511545,0.01392639928141739
-0.089725,0.6094079716511545,0.01392639928141739
-0.0897,0.6094079716511545,0.01392639928141739
-0.089675,0.6097461037678786,0.01392639928141739
-0.08964999999999999,0.6097461037678786,0.01392639928141739
-0.089625,0.6097461037678786,0.01392639928141739
-0.0896,0.6097461037678786,0.01392639928141739
-0.089575,0.6100842358846028,0.01426275002613133
-0.08955,0.6100842358846028,0.01426275002613133
-0.08952499999999999,0.6100842358846029,0.01392639928141739
-0.0895,0.6104223680013269,0.01392639928141739
-0.089475,0.6104223680013269,0.01392639928141739
-0.08945,0.6104223680013269,0.01392639928141739
-0.089425,0.6107605001180511,0.01392639928141739
-0.08939999999999999,0.6107605001180511,0.01426275002613117
-0.089375,0.6107605001180511,0.01392639928141739
-0.08935,0.6110986322347752,0.01392639928141739
-0.089325,0.6110986322347752,0.01392639928141739
-0.0893,0.6110986322347752,0.01426275002613133
-0.08927499999999999,0.6110986322347753,0.01392639928141754
-0.08925,0.6114367643514994,0.01426275002613133
-0.089225,0.6114367643514994,0.01426275002613133
-0.0892,0.6117748964682236,0.01426275002613133
-0.089175,0.6117748964682236,0.01426275002613133
-0.08914999999999999,0.6121130285849476,0.01392639928141754
-0.089125,0.6117748964682236,0.01426275002613133
-0.0891,0.6121130285849478,0.01392639928141739
-0.089075,0.6117748964682236,0.01392639928141739
-0.08905,0.6121130285849478,0.01392639928141739
-0.08902500000000001,0.6121130285849478,0.01392639928141739
-0.089,0.6121130285849478,0.01392639928141739
-0.088975,0.6124511607016719,0.01392639928141739
-0.08895,0.6124511607016719,0.01392639928141739
-0.088925,0.6124511607016719,0.01392639928141739
-0.08890000000000001,0.6124511607016719,0.01392639928141739
-0.088875,0.612789292818396,0.01392639928141739
-0.08885,0.612789292818396,0.01392639928141739
-0.088825,0.6131274249351202,0.01392639928141739
-0.0888,0.6131274249351202,0.01392639928141739
-0.08877500000000001,0.6131274249351202,0.01392639928141739
-0.08875,0.6131274249351202,0.01392639928141739
-0.088725,0.6134655570518444,0.01392639928141739
-0.0887,0.6134655570518444,0.01392639928141739
-0.088675,0.6134655570518444,0.01392639928141739
-0.08865000000000001,0.6134655570518444,0.01392639928141739
-0.088625,0.6138036891685685,0.01426275002613133
-0.0886,0.6138036891685685,0.01426275002613133
-0.088575,0.6138036891685685,0.01392639928141739
-0.08855,0.6138036891685685,0.01392639928141739
-0.08852500000000001,0.6141418212852926,0.01392639928141739
-0.0885,0.6141418212852927,0.01392639928141739
-0.088475,0.6144799534020169,0.01392639928141739
-0.08845,0.6144799534020169,0.01426275002613133
-0.088425,0.6144799534020169,0.01392639928141739
-0.08840000000000001,0.6144799534020169,0.01392639928141739
-0.088375,0.6144799534020169,0.01426275002613133
-0.08835,0.6144799534020169,0.01392639928141739
-0.088325,0.6148180855187411,0.01392639928141739
-0.0883,0.6151562176354652,0.01392639928141739
-0.08827500000000001,0.6151562176354652,0.01392639928141739
-0.08825,0.6151562176354652,0.01426275002613133
-0.088225,0.6151562176354652,0.01392639928141739
-0.0882,0.6154943497521893,0.01392639928141739
-0.088175,0.6154943497521893,0.01392639928141739
-0.08815000000000001,0.6154943497521893,0.01392639928141739
-0.088125,0.6154943497521893,0.01392639928141739
-0.0881,0.6158324818689135,0.01392639928141739
-0.088075,0.6158324818689135,0.01426275002613133
-0.08805,0.6161706139856377,0.01392639928141739
-0.08802500000000001,0.6161706139856377,0.01392639928141739
-0.08799999999999999,0.6161706139856377,0.01392639928141739
-0.087975,0.6165087461023618,0.01426275002613133
-0.08795,0.6165087461023618,0.01392639928141739
-0.087925,0.6165087461023618,0.01392639928141739
-0.08790000000000001,0.6168468782190859,0.01392639928141739
-0.08787499999999999,0.616846878219086,0.01392639928141739
-0.08785,0.616846878219086,0.01392639928141739
-0.087825,0.616846878219086,0.01426275002613133
-0.0878,0.616846878219086,0.01392639928141739
-0.08777500000000001,0.616846878219086,0.01392639928141739
-0.08774999999999999,0.616846878219086,0.01392639928141739
-0.087725,0.6171850103358102,0.01392639928141739
-0.0877,0.6171850103358102,0.01392639928141739
-0.087675,0.6175231424525344,0.01426275002613133
-0.08765000000000001,0.6175231424525344,0.01426275002613133
-0.08762499999999999,0.6178612745692584,0.01392639928141739
-0.0876,0.6178612745692584,0.01426275002613133
-0.087575,0.6178612745692584,0.01392639928141739
-0.08755,0.6181994066859826,0.01392639928141739
-0.08752500000000001,0.6181994066859826,0.01426275002613133
-0.08749999999999999,0.6181994066859826,0.01392639928141739
-0.087475,0.6181994066859826,0.01392639928141739
-0.08745,0.6185375388027068,0.01392639928141739
-0.087425,0.6185375388027068,0.01426275002613133
-0.08740000000000001,0.6185375388027068,0.01426275002613133
-0.08737499999999999,0.618875670919431,0.01392639928141739
-0.08735,0.618875670919431,0.01392639928141739
-0.087325,0.618875670919431,0.01392639928141739
-0.0873,0.618875670919431,0.01392639928141739
-0.08727500000000001,0.6192138030361551,0.01392639928141739
-0.08724999999999999,0.6192138030361551,0.01426275002613117
-0.087225,0.6192138030361551,0.01392639928141739
-0.0872,0.6192138030361551,0.01392639928141739
-0.087175,0.6195519351528793,0.01392639928141739
-0.08715000000000001,0.6195519351528793,0.01426275002613133
-0.08712499999999999,0.6195519351528794,0.01392639928141739
-0.0871,0.6198900672696035,0.01392639928141739
-0.087075,0.6198900672696035,0.01392639928141739
-0.08705,0.6198900672696035,0.01392639928141739
-0.08702500000000001,0.6198900672696035,0.01392639928141739
-0.08699999999999999,0.6198900672696035,0.01392639928141739
-0.086975,0.6198900672696035,0.01392639928141739
-0.08695,0.6202281993863276,0.01392639928141739
-0.086925,0.6202281993863276,0.01392639928141739
-0.08690000000000001,0.6205663315030517,0.01392639928141739
-0.08687499999999999,0.6205663315030517,0.01392639928141739
-0.08685,0.6205663315030517,0.01392639928141739
-0.086825,0.6205663315030517,0.01392639928141739
-0.0868,0.6209044636197759,0.01392639928141739
-0.086775,0.6209044636197759,0.01392639928141739
-0.08674999999999999,0.6209044636197759,0.01392639928141739
-0.086725,0.6209044636197759,0.01392639928141739
-0.0867,0.6209044636197759,0.01392639928141739
-0.086675,0.6209044636197759,0.01392639928141739
-0.08665,0.6212425957365001,0.01392639928141739
-0.08662499999999999,0.6212425957365002,0.01426275002613117
-0.0866,0.6215807278532243,0.01392639928141739
-0.086575,0.6215807278532243,0.01392639928141739
-0.08655,0.6215807278532243,0.01392639928141739
-0.086525,0.6219188599699484,0.01392639928141739
-0.08649999999999999,0.6219188599699484,0.01392639928141754
-0.086475,0.6219188599699484,0.01426275002613133
-0.08645,0.6219188599699484,0.01392639928141739
-0.086425,0.6219188599699484,0.01392639928141739
-0.0864,0.6222569920866726,0.01392639928141739
-0.08637499999999999,0.6222569920866726,0.01392639928141739
-0.08635,0.6222569920866726,0.01392639928141739
-0.086325,0.6225951242033967,0.01392639928141739
-0.0863,0.6225951242033967,0.01392639928141739
-0.086275,0.6229332563201209,0.01392639928141739
-0.08624999999999999,0.6229332563201209,0.01392639928141739
-0.086225,0.6229332563201209,0.01392639928141739
-0.0862,0.6229332563201209,0.01426275002613133
-0.086175,0.623271388436845,0.01426275002613133
-0.08615,0.623271388436845,0.01392639928141739
-0.08612499999999999,0.6232713884368452,0.01392639928141739
-0.0861,0.6236095205535692,0.01392639928141739
-0.086075,0.6236095205535692,0.01392639928141739
-0.08605,0.6239476526702934,0.01392639928141739
-0.086025,0.6236095205535692,0.01392639928141739
-0.08599999999999999,0.6239476526702934,0.01392639928141739
-0.085975,0.6239476526702934,0.01392639928141739
-0.08595,0.6239476526702934,0.01392639928141739
-0.085925,0.6239476526702934,0.01392639928141739
-0.0859,0.6242857847870176,0.01392639928141739
-0.08587500000000001,0.6242857847870176,0.01392639928141739
-0.08585,0.6242857847870176,0.01392639928141739
-0.085825,0.6246239169037417,0.01392639928141739
-0.0858,0.6246239169037417,0.01392639928141739
-0.085775,0.6249620490204658,0.01392639928141739
-0.08575000000000001,0.6249620490204658,0.01426275002613117
-0.085725,0.6249620490204658,0.01392639928141739
-0.0857,0.6249620490204658,0.01392639928141739
-0.085675,0.6249620490204658,0.01392639928141739
-0.08565,0.6249620490204658,0.01392639928141739
-0.08562500000000001,0.6253001811371899,0.01426275002613117
-0.0856,0.62530018113719,0.01426275002613133
-0.085575,0.62530018113719,0.01392639928141739
-0.08555,0.6256383132539142,0.01392639928141739
-0.085525,0.6256383132539142,0.01392639928141739
-0.08550000000000001,0.6256383132539142,0.01426275002613117
-0.085475,0.6256383132539142,0.01392639928141739
-0.08545,0.6259764453706383,0.01426275002613133
-0.085425,0.6259764453706383,0.01426275002613133
-0.0854,0.6263145774873625,0.01392639928141739
-0.08537500000000001,0.6263145774873625,0.01392639928141739
-0.08535,0.6263145774873625,0.01426275002613133
-0.085325,0.6266527096040867,0.01392639928141739
-0.0853,0.6266527096040867,0.01392639928141739
-0.085275,0.6266527096040867,0.01392639928141739
-0.08525000000000001,0.6266527096040867,0.01392639928141739
-0.085225,0.6269908417208109,0.01392639928141739
-0.0852,0.6266527096040867,0.01392639928141739
-0.085175,0.6269908417208109,0.01392639928141739
-0.08515,0.6269908417208109,0.01392639928141739
-0.08512500000000001,0.6269908417208109,0.01392639928141739
-0.0851,0.6273289738375351,0.01392639928141739
-0.085075,0.6273289738375351,0.01392639928141739
-0.08505,0.6276671059542591,0.01392639928141739
-0.085025,0.6276671059542591,0.01426275002613133
-0.08500000000000001,0.6276671059542591,0.01392639928141754
-0.08497499999999999,0.6280052380709833,0.01392639928141739
-0.08495,0.6280052380709833,0.01426275002613133
-0.084925,0.6280052380709833,0.01426275002613133
-0.0849,0.6280052380709833,0.01426275002613133
-0.08487500000000001,0.6283433701877074,0.01426275002613133
-0.08484999999999999,0.6283433701877075,0.01392639928141739
-0.084825,0.6283433701877075,0.01392639928141739
-0.0848,0.6286815023044316,0.01392639928141739
-0.084775,0.6286815023044316,0.01426275002613133
-0.08475000000000001,0.6286815023044316,0.01392639928141754
-0.08472499999999999,0.6286815023044316,0.01392639928141739
-0.0847,0.6290196344211558,0.01392639928141739
-0.084675,0.6290196344211558,0.01392639928141739
-0.08465,0.6290196344211558,0.01392639928141739
-0.08462500000000001,0.6290196344211558,0.01392639928141739
-0.08459999999999999,0.62935776653788,0.01392639928141739
-0.084575,0.62935776653788,0.01392639928141739
-0.08455,0.62935776653788,0.01392639928141739
-0.084525,0.62935776653788,0.01392639928141739
-0.08450000000000001,0.6296958986546042,0.01392639928141739
-0.08447499999999999,0.6296958986546042,0.01392639928141739
-0.08445,0.6296958986546042,0.01392639928141739
-0.084425,0.6296958986546042,0.01426275002613133
-0.0844,0.6296958986546042,0.01426275002613133
-0.08437500000000001,0.6300340307713282,0.01426275002613133
-0.08434999999999999,0.6300340307713282,0.01426275002613133
-0.084325,0.6303721628880524,0.01426275002613133
-0.0843,0.6303721628880524,0.01392639928141739
-0.084275,0.6303721628880524,0.01392639928141739
-0.08425000000000001,0.6307102950047766,0.01426275002613133
-0.08422499999999999,0.6303721628880524,0.01426275002613133
-0.0842,0.6307102950047766,0.01426275002613133
-0.084175,0.6310484271215008,0.01426275002613133
-0.08415,0.6307102950047766,0.01426275002613133
-0.08412500000000001,0.6310484271215008,0.01426275002613133
-0.08409999999999999,0.6310484271215008,0.01426275002613117
-0.084075,0.6310484271215008,0.01392639928141739
-0.08405,0.631386559238225,0.01392639928141739
-0.084025,0.6317246913549491,0.01426275002613133
-0.08400000000000001,0.631386559238225,0.01392639928141739
-0.08397499999999999,0.6313865592382251,0.01426275002613133
-0.08395,0.6317246913549491,0.01426275002613133
-0.083925,0.6320628234716733,0.01426275002613133
-0.0839,0.6320628234716733,0.01426275002613133
-0.08387500000000001,0.6320628234716733,0.01426275002613133
-0.08384999999999999,0.6320628234716734,0.01426275002613133
-0.083825,0.6324009555883974,0.01426275002613133
-0.0838,0.6320628234716733,0.01392639928141739
-0.083775,0.6324009555883974,0.01426275002613133
-0.08375,0.6327390877051216,0.01426275002613133
-0.08372499999999999,0.6327390877051216,0.01392639928141754
-0.0837,0.6327390877051216,0.01426275002613133
-0.083675,0.6327390877051216,0.01426275002613133
-0.08365,0.6330772198218457,0.01426275002613133
-0.083625,0.6330772198218457,0.01392639928141739
-0.08359999999999999,0.6330772198218457,0.01392639928141754
-0.083575,0.6330772198218457,0.01426275002613133
-0.08355,0.6334153519385699,0.01426275002613133
-0.083525,0.6334153519385699,0.01426275002613133
-0.0835,0.6334153519385699,0.01392639928141739
-0.08347499999999999,0.633753484055294,0.01392639928141754
-0.08345,0.6334153519385699,0.01426275002613133
-0.083425,0.6337534840552941,0.01392639928141739
-0.0834,0.6337534840552941,0.01392639928141739
-0.083375,0.6340916161720183,0.01392639928141739
-0.08334999999999999,0.6337534840552942,0.01426275002613117
-0.083325,0.6340916161720183,0.01392639928141739
-0.0833,0.6344297482887424,0.01426275002613133
-0.083275,0.6344297482887424,0.01426275002613133
-0.08325,0.6344297482887424,0.01426275002613133
-0.08322499999999999,0.6344297482887425,0.01426275002613133
-0.0832,0.6347678804054665,0.01426275002613133
-0.083175,0.6347678804054665,0.01426275002613133
-0.08315,0.6347678804054665,0.01392639928141739
-0.083125,0.6347678804054665,0.01392639928141739
-0.08309999999999999,0.6351060125221907,0.01392639928141754
-0.083075,0.6351060125221907,0.01426275002613133
-0.08305,0.6354441446389149,0.01426275002613133
-0.083025,0.6354441446389149,0.01426275002613133
-0.083,0.6354441446389149,0.01426275002613133
-0.08297499999999999,0.6354441446389149,0.01426275002613117
-0.08295,0.6354441446389149,0.01392639928141739
-0.082925,0.6354441446389149,0.01392639928141739
-0.0829,0.635782276755639,0.01392639928141739
-0.082875,0.635782276755639,0.01392639928141739
-0.08284999999999999,0.6357822767556391,0.01426275002613117
-0.082825,0.6361204088723632,0.01392639928141739
-0.0828,0.6361204088723632,0.01426275002613133
-0.082775,0.6361204088723632,0.01426275002613133
-0.08275,0.6364585409890874,0.01392639928141739
-0.08272500000000001,0.6364585409890874,0.01426275002613117
-0.0827,0.6364585409890874,0.01392639928141739
-0.082675,0.6364585409890874,0.01392639928141739
-0.08265,0.6367966731058116,0.01392639928141739
-0.082625,0.6367966731058116,0.01392639928141739
-0.08260000000000001,0.6367966731058116,0.01426275002613117
-0.082575,0.6371348052225357,0.01426275002613133
-0.08255,0.6371348052225357,0.01426275002613133
-0.082525,0.6371348052225357,0.01392639928141739
-0.0825,0.6374729373392598,0.01426275002613133
-0.08247500000000001,0.6374729373392598,0.01426275002613133
-0.08245,0.6374729373392598,0.01426275002613133
-0.082425,0.6374729373392598,0.01426275002613133
-0.0824,0.637811069455984,0.01426275002613133
-0.082375,0.637811069455984,0.01426275002613133
-0.08235000000000001,0.637811069455984,0.01426275002613133
-0.082325,0.6381492015727082,0.01426275002613133
-0.0823,0.6381492015727082,0.01426275002613133
-0.082275,0.6381492015727082,0.01426275002613133
-0.08225,0.6381492015727082,0.01392639928141739
-0.08222500000000001,0.6384873336894322,0.01392639928141739
-0.0822,0.6384873336894323,0.01392639928141739
-0.082175,0.6384873336894323,0.01426275002613133
-0.08215,0.6384873336894323,0.01426275002613133
-0.082125,0.6388254658061565,0.01426275002613133
-0.08210000000000001,0.6384873336894324,0.01426275002613133
-0.082075,0.6388254658061565,0.01426275002613133
-0.08205,0.6391635979228807,0.01426275002613133
-0.082025,0.6391635979228807,0.01392639928141739
-0.082,0.6391635979228807,0.01426275002613133
-0.08197500000000001,0.6391635979228807,0.01392639928141754
-0.08195,0.6395017300396049,0.01426275002613133
-0.081925,0.6395017300396049,0.01426275002613133
-0.0819,0.6395017300396049,0.01392639928141739
-0.081875,0.6398398621563289,0.01392639928141739
-0.08185000000000001,0.6398398621563289,0.01392639928141739
-0.08182499999999999,0.6398398621563289,0.01392639928141739
-0.0818,0.6398398621563289,0.01426275002613133
-0.081775,0.6398398621563289,0.01392639928141739
-0.08175,0.6401779942730531,0.01426275002613133
-0.08172500000000001,0.6401779942730531,0.01426275002613133
-0.08169999999999999,0.6401779942730531,0.01426275002613133
-0.081675,0.6405161263897773,0.01426275002613133
-0.08165,0.6405161263897773,0.01392639928141739
-0.081625,0.6405161263897773,0.01392639928141739
-0.08160000000000001,0.6405161263897773,0.01392639928141739
-0.08157499999999999,0.6408542585065015,0.01426275002613133
-0.08155,0.6411923906232256,0.01392639928141739
-0.081525,0.6408542585065015,0.01392639928141739
-0.0815,0.6411923906232256,0.01392639928141739
-0.08147500000000001,0.6411923906232256,0.01392639928141739
-0.08144999999999999,0.6411923906232256,0.01392639928141739
-0.081425,0.6411923906232256,0.01392639928141739
-0.0814,0.6415305227399498,0.01392639928141739
-0.081375,0.641868654856674,0.01392639928141739
-0.08135000000000001,0.6415305227399498,0.01392639928141739
-0.08132499999999999,0.641868654856674,0.01392639928141739
-0.0813,0.641868654856674,0.01426275002613133
-0.081275,0.641868654856674,0.01426275002613133
-0.08125,0.641868654856674,0.01426275002613133
-0.08122500000000001,0.6422067869733981,0.01426275002613133
-0.08119999999999999,0.6422067869733981,0.01392639928141739
-0.081175,0.6422067869733981,0.01426275002613133
-0.08115,0.6425449190901222,0.01392639928141739
-0.081125,0.6425449190901222,0.01426275002613133
-0.08110000000000001,0.6425449190901222,0.01392639928141739
-0.08107499999999999,0.6428830512068464,0.01392639928141739
-0.08105,0.6428830512068464,0.01392639928141739
-0.081025,0.6428830512068464,0.01392639928141739
-0.081,0.6428830512068464,0.01426275002613133
-0.08097500000000001,0.6432211833235706,0.01392639928141739
-0.08094999999999999,0.6432211833235706,0.01392639928141739
-0.080925,0.6432211833235706,0.01392639928141739
-0.0809,0.6435593154402948,0.01392639928141739
-0.080875,0.6435593154402948,0.01392639928141739
-0.08085000000000001,0.6435593154402948,0.01392639928141739
-0.08082499999999999,0.6435593154402948,0.01392639928141739
-0.0808,0.6435593154402948,0.01392639928141739
-0.080775,0.6438974475570189,0.01426275002613133
-0.08075,0.6438974475570189,0.01426275002613133
-0.08072500000000001,0.6438974475570189,0.01426275002613133
-0.08069999999999999,0.6438974475570191,0.01426275002613133
-0.080675,0.6442355796737431,0.01426275002613133
-0.08065,0.6442355796737431,0.01392639928141739
-0.080625,0.6442355796737431,0.01392639928141739
-0.0806,0.6445737117904672,0.01392639928141739
-0.08057499999999999,0.6442355796737432,0.01392639928141739
-0.08055,0.6445737117904672,0.01392639928141739
-0.080525,0.6445737117904672,0.01392639928141739
-0.0805,0.6449118439071914,0.01392639928141739
-0.080475,0.6449118439071914,0.01392639928141739
-0.08044999999999999,0.6449118439071914,0.01392639928141739
-0.080425,0.6449118439071914,0.01392639928141739
-0.0804,0.6452499760239155,0.01392639928141739
-0.080375,0.6452499760239155,0.01392639928141739
-0.08035,0.6455881081406397,0.01392639928141739
-0.08032499999999999,0.6452499760239157,0.01392639928141739
-0.0803,0.6455881081406397,0.01392639928141739
-0.080275,0.6455881081406397,0.01392639928141739
-0.08025,0.6455881081406397,0.01426275002613133
-0.080225,0.6459262402573639,0.01392639928141739
-0.08019999999999999,0.645926240257364,0.01392639928141739
-0.080175,0.6462643723740881,0.01392639928141739
-0.08015,0.6462643723740881,0.01392639928141739
-0.080125,0.6462643723740881,0.01392639928141739
-0.0801,0.6462643723740881,0.01392639928141739
-0.08007499999999999,0.6462643723740881,0.01392639928141739
-0.08005,0.6462643723740881,0.01392639928141739
-0.080025,0.6466025044908122,0.01392639928141739
-0.08,0.6466025044908122,0.01392639928141739
-0.079975,0.6466025044908122,0.01426275002613133
-0.07994999999999999,0.6469406366075364,0.01426275002613133
-0.079925,0.6469406366075364,0.01426275002613133
-0.0799,0.6469406366075364,0.01392639928141739
-0.079875,0.6469406366075364,0.01392639928141739
-0.07985,0.6469406366075364,0.01426275002613133
-0.07982499999999999,0.6472787687242605,0.01392639928141739
-0.0798,0.6472787687242605,0.01392639928141739
-0.079775,0.6472787687242605,0.01392639928141739
-0.07975,0.6476169008409847,0.01392639928141739
-0.079725,0.6476169008409847,0.01392639928141739
-0.07969999999999999,0.6476169008409847,0.01392639928141739
-0.079675,0.6476169008409847,0.01392639928141739
-0.07965,0.6476169008409847,0.01392639928141739
-0.079625,0.6479550329577088,0.01392639928141739
-0.0796,0.6479550329577088,0.01392639928141739
-0.07957500000000001,0.6479550329577088,0.01426275002613117
-0.07955,0.6479550329577088,0.01392639928141739
-0.079525,0.648293165074433,0.01392639928141739
-0.0795,0.648293165074433,0.01392639928141739
-0.079475,0.648293165074433,0.01392639928141739
-0.07945000000000001,0.6486312971911571,0.01392639928141739
-0.079425,0.6486312971911572,0.01392639928141739
-0.0794,0.6489694293078814,0.01392639928141739
-0.079375,0.6489694293078814,0.01426275002613133
-0.07935,0.6489694293078814,0.01392639928141739
-0.07932500000000001,0.6489694293078814,0.01392639928141739
-0.0793,0.6493075614246056,0.01392639928141739
-0.079275,0.6493075614246056,0.01392639928141739
-0.07925,0.6493075614246056,0.01392639928141739
-0.079225,0.6496456935413296,0.01426275002613133
-0.07920000000000001,0.6496456935413296,0.01426275002613133
-0.079175,0.6496456935413296,0.01426275002613133
-0.07915,0.6496456935413296,0.01392639928141739
-0.079125,0.6496456935413296,0.01392639928141739
-0.0791,0.6496456935413296,0.01392639928141739
-0.07907500000000001,0.6499838256580537,0.01426275002613117
-0.07905,0.6499838256580538,0.01392639928141739
-0.079025,0.650321957774778,0.01392639928141739
-0.079,0.650321957774778,0.01392639928141739
-0.078975,0.650321957774778,0.01392639928141739
-0.07895000000000001,0.650660089891502,0.01426275002613117
-0.078925,0.6506600898915021,0.01392639928141739
-0.0789,0.6506600898915021,0.01392639928141739
-0.078875,0.6506600898915021,0.01392639928141739
-0.07885,0.6506600898915021,0.01392639928141739
-0.07882500000000001,0.6509982220082262,0.01392639928141739
-0.0788,0.6509982220082263,0.01392639928141739
-0.078775,0.6509982220082263,0.01392639928141739
-0.07875,0.6509982220082263,0.01392639928141739
-0.078725,0.6513363541249505,0.01392639928141739
-0.07870000000000001,0.6513363541249505,0.01392639928141739
-0.07867499999999999,0.6513363541249505,0.01392639928141739
-0.07865,0.6516744862416747,0.01392639928141739
-0.078625,0.6513363541249505,0.01392639928141739
-0.0786,0.6516744862416747,0.01392639928141739
-0.07857500000000001,0.6520126183583986,0.01392639928141739
-0.07854999999999999,0.6516744862416747,0.01392639928141739
-0.078525,0.6520126183583987,0.01392639928141739
-0.0785,0.6520126183583987,0.01392639928141739
-0.078475,0.6520126183583987,0.01392639928141739
-0.07845000000000001,0.6520126183583987,0.01392639928141739
-0.07842499999999999,0.6523507504751229,0.01392639928141739
-0.0784,0.6523507504751229,0.01392639928141739
-0.078375,0.6526888825918471,0.01392639928141739
-0.07835,0.6526888825918471,0.01392639928141739
-0.07832500000000001,0.6526888825918471,0.01392639928141739
-0.07829999999999999,0.6526888825918471,0.01392639928141739
-0.078275,0.6530270147085713,0.01392639928141739
-0.07825,0.6533651468252955,0.01392639928141739
-0.078225,0.6530270147085713,0.01392639928141739
-0.07820000000000001,0.6533651468252955,0.01392639928141739
-0.07817499999999999,0.6533651468252955,0.01392639928141739
-0.07815,0.6533651468252955,0.01392639928141739
-0.078125,0.6533651468252955,0.01392639928141739
-0.0781,0.6537032789420196,0.01392639928141739
-0.07807500000000001,0.6537032789420196,0.01392639928141739
-0.07804999999999999,0.6540414110587438,0.01392639928141739
-0.078025,0.6537032789420196,0.01392639928141739
-0.078,0.6540414110587438,0.01392639928141739
-0.077975,0.6540414110587438,0.01392639928141739
-0.07795000000000001,0.6540414110587438,0.01392639928141739
-0.07792499999999999,0.6543795431754679,0.01392639928141739
-0.0779,0.6543795431754679,0.01392639928141739
-0.077875,0.6543795431754679,0.01392639928141739
-0.07785,0.6543795431754679,0.01392639928141739
-0.07782500000000001,0.654717675292192,0.01392639928141739
-0.07779999999999999,0.654717675292192,0.01392639928141739
-0.077775,0.654717675292192,0.01392639928141739
-0.07775,0.654717675292192,0.01392639928141739
-0.077725,0.654717675292192,0.01392639928141739
-0.07770000000000001,0.6550558074089162,0.01392639928141739
-0.07767499999999999,0.6550558074089163,0.01392639928141739
-0.07765,0.6553939395256404,0.01392639928141739
-0.077625,0.6553939395256404,0.01392639928141739
-0.0776,0.6553939395256404,0.01392639928141739
-0.07757500000000001,0.6557320716423646,0.01392639928141739
-0.07754999999999999,0.6557320716423646,0.01426275002613117
-0.077525,0.6557320716423646,0.01392639928141739
-0.0775,0.6557320716423646,0.01392639928141739
-0.077475,0.6557320716423646,0.01392639928141739
-0.07745,0.6560702037590888,0.01392639928141739
-0.07742499999999999,0.6560702037590888,0.01392639928141739
-0.0774,0.6560702037590888,0.01392639928141739
-0.077375,0.6564083358758129,0.01426275002613133
-0.07735,0.6567464679925371,0.01392639928141739
-0.077325,0.6564083358758129,0.01392639928141739
-0.07729999999999999,0.656408335875813,0.01392639928141724
-0.077275,0.6567464679925371,0.01359004853670345
-0.07725,0.6567464679925371,0.01392639928141739
-0.077225,0.6567464679925371,0.01392639928141739
-0.0772,0.6567464679925371,0.01392639928141739
-0.07717499999999999,0.6567464679925371,0.01392639928141739
-0.07715,0.6567464679925371,0.01392639928141739
-0.077125,0.6570846001092612,0.01392639928141739
-0.0771,0.6570846001092612,0.01359004853670345
-0.077075,0.6570846001092612,0.01359004853670345
-0.07704999999999999,0.6570846001092612,0.01392639928141739
-0.077025,0.6570846001092612,0.01392639928141739
-0.077,0.6574227322259854,0.01392639928141739
-0.076975,0.6577608643427095,0.01392639928141739
-0.07695,0.6574227322259854,0.01392639928141739
-0.07692499999999999,0.6577608643427095,0.01392639928141754
-0.0769,0.6577608643427095,0.01426275002613133
-0.076875,0.6577608643427095,0.01392639928141739
-0.07685,0.6580989964594337,0.01392639928141739
-0.076825,0.6580989964594337,0.01392639928141739
-0.07679999999999999,0.6584371285761578,0.01392639928141739
-0.076775,0.6580989964594337,0.01392639928141739
-0.07675,0.6584371285761579,0.01392639928141739
-0.076725,0.6584371285761579,0.01392639928141739
-0.0767,0.6584371285761579,0.01392639928141739
-0.07667499999999999,0.6587752606928821,0.01392639928141739
-0.07665,0.6587752606928821,0.01392639928141739
-0.076625,0.6591133928096062,0.01392639928141739
-0.0766,0.6587752606928821,0.01392639928141739
-0.076575,0.6591133928096062,0.01392639928141739
-0.07655000000000001,0.6591133928096062,0.01392639928141739
-0.076525,0.6591133928096062,0.01392639928141739
-0.0765,0.6594515249263303,0.01392639928141739
-0.076475,0.6594515249263303,0.01426275002613133
-0.07645,0.6594515249263303,0.01392639928141739
-0.07642500000000001,0.6594515249263303,0.01392639928141739
-0.0764,0.6597896570430545,0.01426275002613133
-0.076375,0.6597896570430545,0.01426275002613133
-0.07635,0.6597896570430545,0.01426275002613133
-0.076325,0.6597896570430545,0.01392639928141739
-0.07630000000000001,0.6597896570430545,0.01392639928141739
-0.076275,0.6601277891597787,0.01392639928141739
-0.07625,0.6601277891597787,0.01392639928141739
-0.076225,0.6601277891597787,0.01392639928141739
-0.0762,0.6604659212765028,0.01392639928141739
-0.07617500000000001,0.6604659212765028,0.01392639928141739
-0.07615,0.6604659212765028,0.01392639928141739
-0.076125,0.6604659212765028,0.01426275002613133
-0.0761,0.660804053393227,0.01392639928141739
-0.076075,0.660804053393227,0.01392639928141739
-0.07605000000000001,0.660804053393227,0.01392639928141739
-0.076025,0.6611421855099512,0.01392639928141739
-0.076,0.6611421855099512,0.01392639928141739
-0.075975,0.6611421855099512,0.01392639928141739
-0.07595,0.6614803176266754,0.01392639928141739
-0.07592500000000001,0.6611421855099513,0.01392639928141739
-0.0759,0.6614803176266754,0.01392639928141739
-0.075875,0.6614803176266754,0.01392639928141739
-0.07585,0.6614803176266754,0.01392639928141739
-0.075825,0.6618184497433994,0.01392639928141739
-0.07580000000000001,0.6618184497433994,0.01392639928141739
-0.075775,0.6618184497433994,0.01392639928141739
-0.07575,0.6621565818601236,0.01392639928141739
-0.075725,0.6621565818601236,0.01392639928141739
-0.0757,0.6621565818601236,0.01426275002613133
-0.07567500000000001,0.6621565818601236,0.01392639928141754
-0.07565,0.6621565818601236,0.01392639928141739
-0.075625,0.6624947139768478,0.01392639928141739
-0.0756,0.6624947139768478,0.01392639928141739
-0.075575,0.6624947139768478,0.01392639928141739
-0.07555000000000001,0.6624947139768478,0.01392639928141739
-0.07552499999999999,0.662832846093572,0.01392639928141739
-0.0755,0.662832846093572,0.01392639928141739
-0.075475,0.662832846093572,0.01392639928141739
-0.07545,0.662832846093572,0.01392639928141739
-0.07542500000000001,0.663170978210296,0.01392639928141739
-0.07539999999999999,0.6631709782102961,0.01392639928141739
-0.075375,0.6631709782102961,0.01392639928141739
-0.07535,0.6631709782102961,0.01392639928141739
-0.075325,0.6631709782102961,0.01426275002613133
-0.07530000000000001,0.6635091103270202,0.01392639928141754
-0.07527499999999999,0.6638472424437445,0.01392639928141739
-0.07525,0.6635091103270203,0.01392639928141739
-0.075225,0.6638472424437445,0.01392639928141739
-0.0752,0.6638472424437445,0.01392639928141739
-0.07517500000000001,0.6638472424437445,0.01392639928141739
-0.07514999999999999,0.6638472424437445,0.01392639928141739
-0.075125,0.6641853745604686,0.01392639928141739
-0.0751,0.6641853745604686,0.01392639928141739
-0.075075,0.6641853745604686,0.01392639928141739
-0.07505000000000001,0.6645235066771927,0.01392639928141739
-0.07502499999999999,0.6645235066771927,0.01392639928141739
-0.075,0.6648616387939169,0.01392639928141739
-0.074975,0.6648616387939169,0.01392639928141739
-0.07495,0.6648616387939169,0.01392639928141739
-0.07492500000000001,0.6648616387939169,0.01392639928141739
-0.07489999999999999,0.6648616387939169,0.01392639928141739
-0.074875,0.6651997709106411,0.01392639928141739
-0.07485,0.6651997709106411,0.01392639928141739
-0.074825,0.6651997709106411,0.01392639928141739
-0.07480000000000001,0.6655379030273653,0.01392639928141739
-0.07477499999999999,0.6655379030273653,0.01392639928141739
-0.07475,0.6655379030273653,0.01392639928141739
-0.074725,0.6655379030273653,0.01392639928141739
-0.0747,0.6655379030273653,0.01392639928141739
-0.07467500000000001,0.6658760351440894,0.01392639928141739
-0.07464999999999999,0.6658760351440896,0.01426275002613117
-0.074625,0.6662141672608136,0.01392639928141739
-0.0746,0.6662141672608136,0.01392639928141739
-0.074575,0.6662141672608136,0.01392639928141739
-0.07455000000000001,0.6662141672608136,0.01426275002613133
-0.07452499999999999,0.6665522993775377,0.01392639928141739
-0.0745,0.6662141672608136,0.01392639928141739
-0.074475,0.6662141672608136,0.01392639928141739
-0.07445,0.6665522993775378,0.01392639928141739
-0.07442500000000001,0.6668904314942619,0.01392639928141739
-0.07439999999999999,0.6668904314942619,0.01392639928141739
-0.074375,0.6668904314942619,0.01392639928141739
-0.07435,0.6668904314942619,0.01392639928141739
-0.074325,0.6668904314942619,0.01392639928141739
-0.0743,0.667228563610986,0.01392639928141739
-0.07427499999999999,0.666890431494262,0.01392639928141739
-0.07425,0.667228563610986,0.01392639928141739
-0.074225,0.6675666957277102,0.01392639928141739
-0.0742,0.667228563610986,0.01392639928141739
-0.074175,0.6675666957277102,0.01392639928141739
-0.07414999999999999,0.6675666957277103,0.01392639928141739
-0.074125,0.6679048278444344,0.01392639928141739
-0.0741,0.6679048278444344,0.01392639928141739
-0.074075,0.6679048278444344,0.01392639928141739
-0.07405,0.6679048278444344,0.01426275002613133
-0.07402499999999999,0.6682429599611586,0.01426275002613117
-0.074,0.6682429599611586,0.01392639928141739
-0.073975,0.6682429599611586,0.01392639928141739
-0.07395,0.6685810920778827,0.01426275002613133
-0.073925,0.6685810920778827,0.01392639928141739
-0.07389999999999999,0.6689192241946069,0.01392639928141754
-0.073875,0.6689192241946069,0.01426275002613133
-0.07385,0.6689192241946069,0.01426275002613133
-0.073825,0.6689192241946069,0.01392639928141739
-0.0738,0.6689192241946069,0.01392639928141739
-0.07377499999999999,0.668919224194607,0.01392639928141739
-0.07375,0.669257356311331,0.01392639928141739
-0.073725,0.669257356311331,0.01392639928141739
-0.0737,0.669257356311331,0.01426275002613133
-0.073675,0.669257356311331,0.01426275002613133
-0.07364999999999999,0.6692573563113311,0.01392639928141739
-0.073625,0.6695954884280552,0.01392639928141739
-0.0736,0.6695954884280552,0.01392639928141739
-0.073575,0.6695954884280552,0.01392639928141739
-0.07355,0.6699336205447793,0.01392639928141739
-0.07352499999999999,0.6699336205447793,0.01392639928141739
-0.0735,0.6699336205447793,0.01392639928141739
-0.073475,0.6699336205447793,0.01392639928141739
-0.07345,0.6699336205447793,0.01392639928141739
-0.073425,0.6702717526615035,0.01392639928141739
-0.07340000000000001,0.6702717526615035,0.01392639928141739
-0.073375,0.6702717526615035,0.01392639928141739
-0.07335,0.6706098847782277,0.01392639928141739
-0.073325,0.6706098847782277,0.01392639928141739
-0.0733,0.6709480168949519,0.01426275002613133
-0.07327500000000001,0.6706098847782278,0.01392639928141754
-0.07325,0.6709480168949519,0.01392639928141739
-0.073225,0.6709480168949519,0.01426275002613133
-0.0732,0.671286149011676,0.01392639928141739
-0.073175,0.671286149011676,0.01392639928141739
-0.07315000000000001,0.671286149011676,0.01392639928141739
-0.073125,0.671286149011676,0.01392639928141739
-0.0731,0.671286149011676,0.01392639928141739
-0.073075,0.6716242811284001,0.01392639928141739
-0.07305,0.6716242811284001,0.01392639928141739
-0.07302500000000001,0.6716242811284001,0.01392639928141739
-0.073,0.6719624132451243,0.01392639928141739
-0.072975,0.6719624132451243,0.01392639928141739
-0.07295,0.6719624132451243,0.01392639928141739
-0.072925,0.6719624132451243,0.01392639928141739
-0.07290000000000001,0.6719624132451243,0.01392639928141739
-0.072875,0.6723005453618485,0.01392639928141739
-0.07285,0.6723005453618485,0.01392639928141739
-0.072825,0.6723005453618485,0.01392639928141739
-0.0728,0.6726386774785726,0.01392639928141739
-0.07277500000000001,0.6726386774785726,0.01392639928141739
-0.07275,0.6726386774785726,0.01392639928141739
-0.072725,0.6726386774785726,0.01392639928141739
-0.0727,0.6729768095952968,0.01392639928141739
-0.072675,0.6729768095952968,0.01392639928141739
-0.07265000000000001,0.6729768095952968,0.01392639928141739
-0.072625,0.673314941712021,0.01392639928141739
-0.0726,0.673314941712021,0.01426275002613133
-0.072575,0.673314941712021,0.01392639928141739
-0.07255,0.673314941712021,0.01392639928141739
-0.07252500000000001,0.6736530738287451,0.01392639928141739
-0.0725,0.6736530738287452,0.01392639928141739
-0.072475,0.6736530738287452,0.01392639928141739
-0.07245,0.6739912059454692,0.01392639928141739
-0.072425,0.6739912059454692,0.01392639928141739
-0.07240000000000001,0.6736530738287453,0.01392639928141739
-0.07237499999999999,0.6739912059454692,0.01392639928141739
-0.07235,0.6739912059454692,0.01392639928141739
-0.072325,0.6743293380621934,0.01392639928141739
-0.0723,0.6743293380621934,0.01392639928141739
-0.07227500000000001,0.6743293380621934,0.01426275002613117
-0.07224999999999999,0.6743293380621934,0.01392639928141739
-0.072225,0.6746674701789176,0.01426275002613133
-0.0722,0.6746674701789176,0.01392639928141739
-0.072175,0.6746674701789176,0.01392639928141739
-0.07215000000000001,0.6746674701789176,0.01392639928141739
-0.07212499999999999,0.6750056022956418,0.01392639928141739
-0.0721,0.6750056022956418,0.01392639928141739
-0.072075,0.6750056022956418,0.01392639928141739
-0.07205,0.6753437344123659,0.01392639928141739
-0.07202500000000001,0.6753437344123659,0.01392639928141739
-0.07199999999999999,0.6753437344123659,0.01392639928141739
-0.071975,0.6756818665290901,0.01426275002613133
-0.07195,0.6756818665290901,0.01392639928141739
-0.071925,0.6753437344123659,0.01392639928141739
-0.07190000000000001,0.6756818665290901,0.01392639928141739
-0.07187499999999999,0.6756818665290901,0.01392639928141739
-0.07185,0.6756818665290901,0.01392639928141739
-0.071825,0.6760199986458143,0.01392639928141739
-0.0718,0.6763581307625384,0.01426275002613133
-0.07177500000000001,0.6763581307625384,0.01392639928141739
-0.07174999999999999,0.6763581307625384,0.01426275002613133
-0.071725,0.6763581307625384,0.01392639928141739
-0.0717,0.6763581307625384,0.01426275002613133
-0.071675,0.6763581307625384,0.01392639928141739
-0.07165000000000001,0.6763581307625384,0.01392639928141739
-0.07162499999999999,0.6766962628792625,0.01426275002613117
-0.0716,0.6766962628792625,0.01392639928141739
-0.071575,0.6766962628792625,0.01392639928141739
-0.07155,0.6766962628792625,0.01392639928141739
-0.07152500000000001,0.6770343949959867,0.01426275002613133
-0.07149999999999999,0.6770343949959868,0.01392639928141739
-0.071475,0.6773725271127109,0.01392639928141739
-0.07145,0.6773725271127109,0.01392639928141739
-0.071425,0.6773725271127109,0.01392639928141739
-0.07140000000000001,0.6773725271127109,0.01392639928141739
-0.07137499999999999,0.6777106592294351,0.01392639928141739
-0.07135,0.6777106592294351,0.01392639928141739
-0.071325,0.6777106592294351,0.01426275002613133
-0.0713,0.6777106592294351,0.01392639928141739
-0.07127500000000001,0.6780487913461593,0.01392639928141739
-0.07124999999999999,0.6780487913461593,0.01392639928141754
-0.071225,0.6780487913461593,0.01426275002613133
-0.0712,0.6783869234628834,0.01392639928141739
-0.071175,0.6783869234628834,0.01426275002613133
-0.07115,0.6783869234628834,0.01392639928141739
-0.07112499999999999,0.6787250555796076,0.01392639928141739
-0.0711,0.6787250555796076,0.01392639928141739
-0.071075,0.6787250555796076,0.01392639928141739
-0.07105,0.6787250555796076,0.01426275002613133
-0.071025,0.6787250555796076,0.01426275002613133
-0.07099999999999999,0.6790631876963317,0.01392639928141739
-0.070975,0.6790631876963317,0.01392639928141739
-0.07095,0.6790631876963317,0.01392639928141739
-0.070925,0.6790631876963317,0.01392639928141739
-0.0709,0.6790631876963317,0.01392639928141739
-0.07087499999999999,0.6794013198130558,0.01392639928141739
-0.07085,0.6794013198130558,0.01392639928141739
-0.070825,0.6794013198130558,0.01392639928141739
-0.0708,0.6794013198130558,0.01392639928141739
-0.070775,0.67973945192978,0.01392639928141739
-0.07074999999999999,0.67973945192978,0.01426275002613117
-0.070725,0.67973945192978,0.01392639928141739
-0.0707,0.67973945192978,0.01392639928141739
-0.070675,0.67973945192978,0.01392639928141739
-0.07065,0.6800775840465042,0.01392639928141739
-0.07062499999999999,0.6804157161632283,0.01426275002613117
-0.0706,0.6800775840465042,0.01392639928141739
-0.070575,0.6800775840465042,0.01392639928141739
-0.07055,0.6804157161632284,0.01392639928141739
-0.070525,0.6807538482799526,0.01392639928141739
-0.07049999999999999,0.6807538482799526,0.01392639928141739
-0.070475,0.6807538482799526,0.01392639928141739
-0.07045,0.6807538482799526,0.01392639928141739
-0.070425,0.6807538482799526,0.01392639928141739
-0.0704,0.6810919803966767,0.01392639928141739
-0.07037499999999999,0.6810919803966767,0.01392639928141739
-0.07035,0.6810919803966767,0.01392639928141739
-0.070325,0.6810919803966767,0.01392639928141739
-0.0703,0.6814301125134008,0.01392639928141739
-0.070275,0.6814301125134008,0.01392639928141739
-0.07025000000000001,0.6814301125134008,0.01392639928141739
-0.070225,0.681768244630125,0.01392639928141739
-0.0702,0.681768244630125,0.01392639928141739
-0.070175,0.681768244630125,0.01392639928141739
-0.07015,0.681768244630125,0.01392639928141739
-0.07012500000000001,0.682106376746849,0.01392639928141739
-0.0701,0.6821063767468492,0.01392639928141739
-0.070075,0.6821063767468492,0.01392639928141739
-0.07005,0.6821063767468492,0.01392639928141739
-0.070025,0.6821063767468492,0.01392639928141739
-0.07000000000000001,0.6821063767468492,0.01392639928141739
-0.069975,0.6824445088635733,0.01392639928141739
-0.06995,0.6824445088635733,0.01392639928141739
-0.069925,0.6824445088635733,0.01392639928141739
-0.0699,0.6827826409802975,0.01392639928141739
-0.06987500000000001,0.6827826409802975,0.01392639928141739
-0.06985,0.6827826409802975,0.01392639928141739
-0.069825,0.6827826409802975,0.01392639928141739
-0.0698,0.6827826409802975,0.01392639928141739
-0.069775,0.6831207730970217,0.01392639928141739
-0.06975000000000001,0.6831207730970217,0.01392639928141739
-0.069725,0.6831207730970217,0.01392639928141739
-0.0697,0.6831207730970217,0.01392639928141739
-0.069675,0.6834589052137459,0.01392639928141739
-0.06965,0.6834589052137459,0.01392639928141739
-0.06962500000000001,0.6837970373304698,0.01392639928141739
-0.0696,0.6834589052137459,0.01392639928141739
-0.069575,0.6837970373304699,0.01392639928141739
-0.06955,0.6837970373304699,0.01392639928141739
-0.069525,0.6841351694471941,0.01359004853670345
-0.06950000000000001,0.68379703733047,0.01392639928141724
-0.069475,0.6841351694471941,0.01392639928141739
-0.06945,0.6841351694471941,0.01392639928141739
-0.069425,0.6841351694471941,0.01392639928141739
-0.0694,0.6841351694471941,0.01392639928141739
-0.06937500000000001,0.6844733015639182,0.01392639928141739
-0.06934999999999999,0.6848114336806425,0.01392639928141739
-0.069325,0.6848114336806425,0.01392639928141739
-0.0693,0.6848114336806425,0.01392639928141739
-0.069275,0.6848114336806425,0.01392639928141739
-0.06925000000000001,0.6851495657973665,0.01392639928141739
-0.06922499999999999,0.6851495657973666,0.01392639928141739
-0.0692,0.6851495657973666,0.01392639928141739
-0.069175,0.6851495657973666,0.01392639928141739
-0.06915,0.6854876979140908,0.01392639928141739
-0.06912500000000001,0.6854876979140908,0.01392639928141739
-0.06909999999999999,0.6854876979140908,0.01426275002613133
-0.069075,0.6854876979140908,0.01392639928141739
-0.06905,0.6854876979140908,0.01392639928141739
-0.069025,0.6854876979140908,0.01392639928141739
-0.06900000000000001,0.6858258300308149,0.01392639928141739
-0.06897499999999999,0.685825830030815,0.01392639928141739
-0.06895,0.685825830030815,0.01392639928141739
-0.068925,0.6861639621475391,0.01392639928141739
-0.0689,0.6861639621475391,0.01392639928141739
-0.06887500000000001,0.6861639621475391,0.01392639928141739
-0.06884999999999999,0.6861639621475391,0.01392639928141739
-0.068825,0.6865020942642632,0.01392639928141739
-0.0688,0.6865020942642632,0.01392639928141739
-0.068775,0.6865020942642632,0.01392639928141739
-0.06875000000000001,0.6865020942642632,0.01392639928141739
-0.06872499999999999,0.6868402263809874,0.01392639928141739
-0.0687,0.6868402263809874,0.01392639928141739
-0.068675,0.6868402263809874,0.01392639928141739
-0.06865,0.6868402263809874,0.01392639928141739
-0.06862500000000001,0.6871783584977116,0.01392639928141739
-0.06859999999999999,0.6871783584977116,0.01392639928141739
-0.068575,0.6871783584977116,0.01392639928141739
-0.06855,0.6871783584977116,0.01392639928141739
-0.068525,0.6875164906144358,0.01392639928141739
-0.06850000000000001,0.6875164906144358,0.01392639928141739
-0.06847499999999999,0.6878546227311599,0.01392639928141739
-0.06845,0.6878546227311599,0.01392639928141739
-0.068425,0.6878546227311599,0.01392639928141739
-0.0684,0.6878546227311599,0.01392639928141739
-0.06837500000000001,0.6881927548478841,0.01392639928141739
-0.06834999999999999,0.6881927548478841,0.01392639928141739
-0.068325,0.6881927548478841,0.01392639928141739
-0.0683,0.6885308869646083,0.01392639928141739
-0.068275,0.6885308869646083,0.01392639928141739
-0.06825000000000001,0.6885308869646083,0.01392639928141739
-0.06822499999999999,0.6885308869646084,0.01392639928141739
-0.0682,0.6888690190813324,0.01392639928141739
-0.068175,0.6885308869646083,0.01392639928141739
-0.06815,0.6888690190813324,0.01392639928141739
-0.068125,0.6888690190813324,0.01392639928141739
-0.06809999999999999,0.6888690190813325,0.01392639928141739
-0.068075,0.6892071511980565,0.01392639928141739
-0.06805,0.6892071511980565,0.01392639928141739
-0.068025,0.6892071511980565,0.01392639928141739
-0.068,0.6895452833147807,0.01392639928141739
-0.06797499999999999,0.6895452833147807,0.01392639928141739
-0.06795,0.6895452833147807,0.01392639928141739
-0.067925,0.6895452833147807,0.01392639928141739
-0.0679,0.6895452833147807,0.01392639928141739
-0.067875,0.6895452833147807,0.01392639928141739
-0.06784999999999999,0.6898834154315049,0.01392639928141754
-0.067825,0.6898834154315049,0.01426275002613133
-0.0678,0.6902215475482291,0.01392639928141739
-0.067775,0.6898834154315049,0.01392639928141739
-0.06775,0.6902215475482291,0.01392639928141739
-0.06772499999999999,0.6902215475482291,0.01392639928141739
-0.0677,0.6902215475482291,0.01392639928141739
-0.067675,0.6902215475482291,0.01392639928141739
-0.06765,0.6905596796649532,0.01392639928141739
-0.067625,0.6905596796649532,0.01392639928141739
-0.06759999999999999,0.6905596796649534,0.01392639928141739
-0.067575,0.6908978117816774,0.01392639928141739
-0.06755,0.6908978117816774,0.01392639928141739
-0.067525,0.6908978117816774,0.01392639928141739
-0.0675,0.6908978117816774,0.01392639928141739
-0.06747499999999999,0.6908978117816775,0.01392639928141739
-0.06745,0.6912359438984015,0.01392639928141739
-0.067425,0.6912359438984015,0.01426275002613133
-0.0674,0.6912359438984015,0.01392639928141739
-0.067375,0.6915740760151257,0.01392639928141739
-0.06734999999999999,0.6915740760151257,0.01426275002613133
-0.067325,0.6915740760151257,0.01426275002613133
-0.0673,0.6919122081318498,0.01426275002613133
-0.067275,0.6919122081318498,0.01392639928141739
-0.06725,0.6919122081318498,0.01392639928141739
-0.06722499999999999,0.6919122081318498,0.01392639928141739
-0.0672,0.6919122081318498,0.01392639928141739
-0.067175,0.6919122081318498,0.01392639928141739
-0.06715,0.692250340248574,0.01392639928141739
-0.067125,0.692250340248574,0.01392639928141739
-0.06710000000000001,0.692250340248574,0.01426275002613117
-0.067075,0.692250340248574,0.01392639928141739
-0.06705,0.6925884723652982,0.01392639928141739
-0.067025,0.6925884723652982,0.01426275002613133
-0.067,0.6925884723652982,0.01426275002613133
-0.06697500000000001,0.6925884723652982,0.01392639928141754
-0.06695,0.6925884723652982,0.01392639928141739
-0.066925,0.6929266044820224,0.01392639928141739
-0.0669,0.6929266044820224,0.01392639928141739
-0.066875,0.6932647365987465,0.01392639928141739
-0.06685000000000001,0.6932647365987465,0.01392639928141739
-0.066825,0.6932647365987465,0.01426275002613133
-0.0668,0.6932647365987465,0.01392639928141739
-0.066775,0.6936028687154706,0.01392639928141739
-0.06675,0.6936028687154706,0.01426275002613133
-0.06672500000000001,0.6939410008321947,0.01392639928141754
-0.0667,0.6939410008321948,0.01392639928141739
-0.066675,0.6939410008321948,0.01392639928141739
-0.06665,0.6939410008321948,0.01392639928141739
-0.066625,0.6939410008321948,0.01392639928141739
-0.06660000000000001,0.6939410008321948,0.01392639928141739
-0.066575,0.6939410008321948,0.01392639928141739
-0.06655,0.6939410008321948,0.01392639928141739
-0.066525,0.694279132948919,0.01392639928141739
-0.0665,0.694279132948919,0.01392639928141739
-0.06647500000000001,0.694279132948919,0.01392639928141739
-0.06645,0.6946172650656431,0.01426275002613133
-0.066425,0.6946172650656431,0.01392639928141739
-0.0664,0.6946172650656431,0.01392639928141739
-0.066375,0.6949553971823673,0.01392639928141739
-0.06635000000000001,0.6946172650656433,0.01392639928141739
-0.066325,0.6946172650656431,0.01392639928141739
-0.0663,0.6952935292990915,0.01392639928141739
-0.066275,0.6952935292990915,0.01392639928141739
-0.06625,0.6952935292990915,0.01392639928141739
-0.06622500000000001,0.6952935292990915,0.01392639928141739
-0.06619999999999999,0.6952935292990915,0.01392639928141739
-0.066175,0.6952935292990915,0.01426275002613133
-0.06615,0.6956316614158157,0.01426275002613133
-0.066125,0.6956316614158157,0.01426275002613133
-0.06610000000000001,0.6956316614158157,0.01426275002613133
-0.06607499999999999,0.6959697935325397,0.01392639928141739
-0.06605,0.6959697935325397,0.01426275002613133
-0.066025,0.6959697935325397,0.01426275002613133
-0.066,0.6963079256492639,0.01426275002613133
-0.06597500000000001,0.6963079256492639,0.01426275002613133
-0.06594999999999999,0.6963079256492639,0.01392639928141739
-0.065925,0.6963079256492639,0.01426275002613133
-0.0659,0.6963079256492639,0.01392639928141739
-0.065875,0.6966460577659881,0.01392639928141739
-0.06585000000000001,0.6966460577659881,0.01392639928141739
-0.06582499999999999,0.6966460577659881,0.01392639928141739
-0.0658,0.6966460577659881,0.01392639928141739
-0.065775,0.6969841898827123,0.01392639928141739
-0.06575,0.6969841898827123,0.01392639928141739
-0.06572500000000001,0.6973223219994364,0.01426275002613133
-0.06569999999999999,0.6969841898827123,0.01392639928141739
-0.065675,0.6969841898827123,0.01392639928141739
-0.06565,0.6973223219994364,0.01426275002613133
-0.065625,0.6976604541161606,0.01426275002613133
-0.06560000000000001,0.6973223219994364,0.01426275002613133
-0.06557499999999999,0.6976604541161606,0.01426275002613133
-0.06555,0.6976604541161606,0.01426275002613133
-0.065525,0.6976604541161606,0.01392639928141739
-0.0655,0.6976604541161606,0.01426275002613133
-0.06547500000000001,0.6979985862328848,0.01392639928141739
-0.06544999999999999,0.6979985862328848,0.01392639928141739
-0.065425,0.6979985862328848,0.01392639928141739
-0.0654,0.6979985862328848,0.01392639928141739
-0.065375,0.698336718349609,0.01392639928141739
-0.06535000000000001,0.698336718349609,0.01392639928141739
-0.06532499999999999,0.698336718349609,0.01392639928141739
-0.0653,0.698336718349609,0.01392639928141739
-0.065275,0.698674850466333,0.01392639928141739
-0.06525,0.698674850466333,0.01392639928141739
-0.06522500000000001,0.698674850466333,0.01426275002613133
-0.06519999999999999,0.698674850466333,0.01392639928141739
-0.065175,0.698674850466333,0.01392639928141739
-0.06515,0.6990129825830572,0.01392639928141739
-0.065125,0.6993511146997814,0.01392639928141739
-0.06510000000000001,0.6993511146997814,0.01392639928141739
-0.06507499999999999,0.6993511146997814,0.01392639928141754
-0.06505,0.6993511146997814,0.01426275002613133
-0.065025,0.6993511146997814,0.01392639928141739
-0.065,0.6993511146997814,0.01426275002613133
-0.064975,0.6996892468165056,0.01426275002613133
-0.06494999999999999,0.6996892468165057,0.01426275002613117
-0.064925,0.7000273789332297,0.01392639928141739
-0.0649,0.6996892468165056,0.01426275002613133
-0.064875,0.6996892468165056,0.01426275002613133
-0.06485,0.7000273789332297,0.01426275002613133
-0.06482499999999999,0.7003655110499538,0.01392639928141754
-0.0648,0.7000273789332297,0.01426275002613133
-0.064775,0.7000273789332297,0.01426275002613133
-0.06475,0.7003655110499539,0.01392639928141739
-0.064725,0.7003655110499539,0.01426275002613133
-0.06469999999999999,0.700365511049954,0.01426275002613133
-0.064675,0.7007036431666781,0.01426275002613133
-0.06465,0.7007036431666781,0.01426275002613133
-0.064625,0.7007036431666781,0.01426275002613133
-0.0646,0.7010417752834022,0.01392639928141739
-0.06457499999999999,0.7010417752834021,0.01392639928141754
-0.06455,0.7007036431666781,0.01426275002613133
-0.064525,0.7010417752834022,0.01426275002613133
-0.0645,0.7013799074001263,0.01426275002613133
-0.064475,0.7013799074001263,0.01392639928141739
-0.06444999999999999,0.7013799074001263,0.01426275002613133
-0.064425,0.7013799074001263,0.01426275002613133
-0.0644,0.7013799074001263,0.01392639928141739
-0.064375,0.7013799074001263,0.01392639928141739
-0.06435,0.7017180395168505,0.01426275002613133
-0.06432499999999999,0.7017180395168505,0.01392639928141754
-0.0643,0.7017180395168505,0.01426275002613133
-0.064275,0.7020561716335747,0.01426275002613133
-0.06425,0.7020561716335747,0.01426275002613133
-0.064225,0.7023943037502989,0.01426275002613133
-0.06419999999999999,0.7023943037502989,0.01392639928141754
-0.064175,0.7023943037502989,0.01426275002613133
-0.06415,0.7023943037502989,0.01426275002613133
-0.064125,0.7023943037502989,0.01392639928141739
-0.0641,0.7023943037502989,0.01426275002613133
-0.06407499999999999,0.7027324358670231,0.01426275002613133
-0.06405,0.7027324358670231,0.01426275002613133
-0.064025,0.7027324358670231,0.01392639928141739
-0.064,0.7027324358670231,0.01392639928141739
-0.063975,0.7030705679837472,0.01392639928141739
-0.06395000000000001,0.7027324358670232,0.01392639928141739
-0.063925,0.7030705679837472,0.01392639928141739
-0.0639,0.7030705679837472,0.01392639928141739
-0.063875,0.7034087001004713,0.01392639928141739
-0.06385,0.7034087001004713,0.01392639928141739
-0.06382500000000001,0.7037468322171954,0.01392639928141739
-0.0638,0.7037468322171955,0.01426275002613133
-0.063775,0.7034087001004713,0.01392639928141739
-0.06375,0.7034087001004713,0.01392639928141739
-0.063725,0.7037468322171955,0.01426275002613133
-0.06370000000000001,0.7037468322171955,0.01392639928141754
-0.063675,0.7040849643339196,0.01392639928141739
-0.06365,0.7040849643339196,0.01392639928141739
-0.063625,0.7040849643339196,0.01392639928141739
-0.0636,0.7040849643339196,0.01392639928141739
-0.06357500000000001,0.7044230964506437,0.01392639928141739
-0.06355,0.7044230964506438,0.01426275002613133
-0.063525,0.7044230964506438,0.01426275002613133
-0.0635,0.7044230964506438,0.01426275002613133
-0.063475,0.704761228567368,0.01392639928141739
-0.06345000000000001,0.704761228567368,0.01392639928141739
-0.063425,0.704761228567368,0.01392639928141739
-0.0634,0.704761228567368,0.01392639928141739
-0.063375,0.7050993606840922,0.01392639928141739
-0.06335,0.7054374928008164,0.01392639928141739
-0.06332500000000001,0.7050993606840923,0.01426275002613117
-0.0633,0.7054374928008164,0.01426275002613133
-0.063275,0.7054374928008164,0.01392639928141739
-0.06325,0.7054374928008164,0.01392639928141739
-0.063225,0.7057756249175404,0.01426275002613133
-0.06320000000000001,0.7057756249175404,0.01426275002613133
-0.063175,0.7057756249175404,0.01392639928141739
-0.06315,0.7057756249175404,0.01392639928141739
-0.063125,0.7061137570342646,0.01392639928141739
-0.0631,0.7061137570342646,0.01392639928141739
-0.06307500000000001,0.7057756249175405,0.01426275002613117
-0.06304999999999999,0.7064518891509888,0.01392639928141739
-0.063025,0.7064518891509888,0.01392639928141739
-0.063,0.7064518891509888,0.01426275002613133
-0.062975,0.7064518891509888,0.01392639928141739
-0.06295000000000001,0.7064518891509888,0.01426275002613117
-0.06292499999999999,0.706790021267713,0.01392639928141739
-0.0629,0.7064518891509888,0.01392639928141739
-0.062875,0.7064518891509888,0.01392639928141739
-0.06285,0.706790021267713,0.01392639928141739
-0.06282500000000001,0.707128153384437,0.01392639928141739
-0.06279999999999999,0.706790021267713,0.01392639928141739
-0.062775,0.7071281533844371,0.01426275002613133
-0.06275,0.7071281533844371,0.01392639928141739
-0.062725,0.7071281533844371,0.01426275002613133
-0.06270000000000001,0.7074662855011612,0.01392639928141754
-0.06267499999999999,0.7074662855011613,0.01392639928141739
-0.06265,0.7074662855011613,0.01392639928141739
-0.062625,0.7074662855011613,0.01392639928141739
-0.0626,0.7074662855011613,0.01392639928141739
-0.06257500000000001,0.7078044176178855,0.01392639928141739
-0.06254999999999999,0.7078044176178855,0.01392639928141739
-0.062525,0.7078044176178855,0.01392639928141739
-0.0625,0.7081425497346097,0.01426275002613133
-0.062475,0.7081425497346097,0.01392639928141739
-0.06245,0.7081425497346097,0.01392639928141739
-0.062425,0.7081425497346097,0.01392639928141739
-0.0624,0.7084806818513337,0.01426275002613133
-0.062375,0.7084806818513337,0.01392639928141739
-0.06235,0.7084806818513337,0.01392639928141739
-0.062325,0.7084806818513337,0.01426275002613133
-0.0623,0.7088188139680579,0.01392639928141739
-0.062275,0.7088188139680579,0.01392639928141739
-0.06225,0.7091569460847821,0.01392639928141739
-0.062225,0.7091569460847821,0.01392639928141739
-0.0622,0.7091569460847821,0.01392639928141739
-0.062175,0.7091569460847821,0.01392639928141739
-0.06215,0.7091569460847821,0.01392639928141739
-0.062125,0.7091569460847821,0.01392639928141739
-0.0621,0.7091569460847821,0.01392639928141739
-0.062075,0.7094950782015063,0.01392639928141739
-0.06205,0.7094950782015063,0.01392639928141739
-0.062025,0.7094950782015063,0.01392639928141739
-0.062,0.7098332103182304,0.01392639928141739
-0.061975,0.7098332103182304,0.01392639928141739
-0.06195,0.7098332103182304,0.01392639928141739
-0.061925,0.7101713424349546,0.01392639928141739
-0.0619,0.7101713424349546,0.01392639928141739
-0.061875,0.7105094745516788,0.01392639928141739
-0.06185,0.7101713424349546,0.01426275002613133
-0.061825,0.7105094745516788,0.01392639928141739
-0.0618,0.7105094745516788,0.01392639928141739
-0.061775,0.7105094745516788,0.01392639928141739
-0.06175,0.7108476066684029,0.01426275002613133
-0.061725,0.7108476066684029,0.01426275002613133
-0.0617,0.7108476066684029,0.01392639928141739
-0.061675,0.711185738785127,0.01426275002613133
-0.06165,0.711185738785127,0.01392639928141739
-0.061625,0.711185738785127,0.01392639928141739
-0.0616,0.711185738785127,0.01392639928141739
-0.061575,0.711185738785127,0.01392639928141739
-0.06155,0.711185738785127,0.01392639928141739
-0.061525,0.711185738785127,0.01392639928141739
-0.0615,0.711185738785127,0.01392639928141739
-0.061475,0.7115238709018512,0.01392639928141739
-0.06145,0.7115238709018512,0.01392639928141739
-0.061425,0.7118620030185754,0.01392639928141739
-0.0614,0.7118620030185754,0.01392639928141739
-0.061375,0.7118620030185754,0.01392639928141739
-0.06135,0.7118620030185754,0.01392639928141739
-0.061325,0.7122001351352996,0.01392639928141739
-0.0613,0.7122001351352996,0.01392639928141739
-0.061275,0.7118620030185754,0.01392639928141739
-0.06125,0.7122001351352996,0.01426275002613133
-0.061225,0.7122001351352996,0.01392639928141739
-0.0612,0.7122001351352996,0.01392639928141739
-0.061175,0.7125382672520237,0.01392639928141739
-0.06115,0.7125382672520237,0.01392639928141739
-0.061125,0.7125382672520237,0.01392639928141739
-0.0611,0.7128763993687479,0.01426275002613133
-0.061075,0.7125382672520237,0.01392639928141739
-0.06105,0.7128763993687479,0.01392639928141739
-0.061025,0.7128763993687479,0.01392639928141739
-0.061,0.713214531485472,0.01392639928141739
-0.060975,0.713214531485472,0.01392639928141739
-0.06095,0.713214531485472,0.01426275002613133
-0.060925,0.713214531485472,0.01392639928141739
-0.0609,0.7135526636021962,0.01392639928141739
-0.060875,0.7135526636021962,0.01392639928141739
-0.06085,0.713214531485472,0.01392639928141739
-0.060825,0.7135526636021962,0.01392639928141739
-0.0608,0.7135526636021962,0.01392639928141739
-0.060775,0.7138907957189203,0.01392639928141739
-0.06075,0.7138907957189203,0.01392639928141739
-0.060725,0.7138907957189203,0.01392639928141739
-0.0607,0.7138907957189203,0.01392639928141739
-0.060675,0.7142289278356445,0.01392639928141739
-0.06065,0.7142289278356445,0.01392639928141739
-0.060625,0.7145670599523687,0.01392639928141739
-0.0606,0.7145670599523687,0.01392639928141739
-0.060575,0.7145670599523687,0.01392639928141739
-0.06055,0.7145670599523687,0.01392639928141739
-0.060525,0.7145670599523687,0.01392639928141739
-0.0605,0.7149051920690929,0.01392639928141739
-0.060475,0.7149051920690929,0.01392639928141739
-0.06045,0.7149051920690929,0.01392639928141739
-0.060425,0.7149051920690929,0.01392639928141739
-0.0604,0.7149051920690929,0.01426275002613133
-0.060375,0.715243324185817,0.01392639928141739
-0.06035,0.715243324185817,0.01392639928141739
-0.060325,0.715243324185817,0.01392639928141739
-0.0603,0.7155814563025411,0.01426275002613133
-0.060275,0.7155814563025411,0.01426275002613133
-0.06025,0.7155814563025411,0.01426275002613133
-0.060225,0.7159195884192653,0.01426275002613133
-0.0602,0.7159195884192653,0.01426275002613133
-0.060175,0.7159195884192653,0.01392639928141739
-0.06015,0.7159195884192653,0.01392639928141739
-0.060125,0.7159195884192653,0.01426275002613133
-0.0601,0.7159195884192653,0.01426275002613133
-0.060075,0.7162577205359895,0.01426275002613133
-0.06005,0.7162577205359895,0.01426275002613133
-0.060025,0.7162577205359895,0.01392639928141739
-0.06,0.7162577205359895,0.01392639928141739
-0.059975,0.7165958526527136,0.01392639928141739
-0.05995,0.7165958526527136,0.01392639928141739
-0.059925,0.7169339847694378,0.01392639928141739
-0.0599,0.7169339847694378,0.01392639928141739
-0.059875,0.7169339847694378,0.01392639928141739
-0.05985,0.7169339847694378,0.01392639928141739
-0.059825,0.7169339847694378,0.01392639928141739
-0.0598,0.7169339847694378,0.01392639928141739
-0.059775,0.717272116886162,0.01392639928141739
-0.05975,0.717272116886162,0.01392639928141739
-0.059725,0.717272116886162,0.01392639928141739
-0.0597,0.717272116886162,0.01392639928141739
-0.059675,0.7176102490028862,0.01392639928141739
-0.05965,0.7176102490028862,0.01392639928141739
-0.059625,0.7176102490028862,0.01426275002613133
-0.0596,0.7179483811196102,0.01392639928141739
-0.059575,0.7179483811196102,0.01392639928141739
-0.05955,0.7179483811196102,0.01426275002613133
-0.059525,0.7179483811196102,0.01426275002613133
-0.0595,0.7182865132363344,0.01392639928141739
-0.059475,0.7182865132363344,0.01426275002613133
-0.05945,0.7182865132363344,0.01426275002613133
-0.059425,0.7182865132363344,0.01426275002613133
-0.0594,0.7186246453530586,0.01392639928141739
-0.059375,0.7186246453530586,0.01426275002613133
-0.05935,0.7186246453530586,0.01426275002613133
-0.059325,0.7189627774697828,0.01426275002613133
-0.0593,0.7189627774697828,0.01426275002613133
-0.059275,0.7189627774697828,0.01392639928141739
-0.05925,0.7189627774697828,0.01426275002613133
-0.059225,0.7189627774697828,0.01392639928141739
-0.0592,0.7189627774697828,0.01426275002613133
-0.059175,0.7193009095865069,0.01426275002613133
-0.05915,0.7193009095865069,0.01426275002613133
-0.059125,0.7193009095865069,0.01426275002613133
-0.0591,0.7193009095865069,0.01426275002613133
-0.059075,0.7196390417032311,0.01392639928141739
-0.05905,0.7196390417032311,0.01392639928141739
-0.059025,0.7196390417032311,0.01392639928141739
-0.059,0.7196390417032311,0.01392639928141739
-0.058975,0.7196390417032311,0.01392639928141739
-0.05895,0.7196390417032311,0.01392639928141739
-0.058925,0.7199771738199553,0.01426275002613133
-0.0589,0.7199771738199553,0.01426275002613133
-0.058875,0.7199771738199553,0.01392639928141739
-0.05885,0.7199771738199553,0.01392639928141739
-0.058825,0.7203153059366795,0.01426275002613133
-0.0588,0.7203153059366795,0.01392639928141739
-0.058775,0.7203153059366795,0.01392639928141739
-0.05875,0.7203153059366795,0.01392639928141739
-0.058725,0.7206534380534035,0.01392639928141739
-0.0587,0.7206534380534035,0.01392639928141739
-0.058675,0.7206534380534035,0.01392639928141739
-0.05865,0.7209915701701277,0.01392639928141739
-0.058625,0.7209915701701277,0.01392639928141739
-0.0586,0.7209915701701277,0.01426275002613133
-0.058575,0.7209915701701277,0.01392639928141739
-0.05855,0.7209915701701277,0.01392639928141739
-0.058525,0.7213297022868519,0.01392639928141739
-0.0585,0.7213297022868519,0.01392639928141739
-0.058475,0.7213297022868519,0.01426275002613133
-0.05845,0.7213297022868519,0.01426275002613133
-0.058425,0.7213297022868519,0.01392639928141739
-0.0584,0.7216678344035761,0.01392639928141739
-0.058375,0.7216678344035761,0.01392639928141739
-0.05835,0.7216678344035761,0.01392639928141739
-0.058325,0.7216678344035761,0.01392639928141739
-0.0583,0.7220059665203002,0.01392639928141739
-0.058275,0.7220059665203002,0.01392639928141739
-0.05825,0.7220059665203002,0.01392639928141739
-0.058225,0.7223440986370244,0.01392639928141739
-0.0582,0.7223440986370244,0.01392639928141739
-0.058175,0.7223440986370244,0.01426275002613133
-0.05815,0.7223440986370244,0.01426275002613133
-0.058125,0.7226822307537486,0.01426275002613133
-0.0581,0.7226822307537486,0.01392639928141739
-0.058075,0.7226822307537486,0.01426275002613133
-0.05805,0.7226822307537486,0.01426275002613133
-0.058025,0.7226822307537486,0.01426275002613133
-0.058,0.7226822307537486,0.01392639928141739
-0.057975,0.7233584949871968,0.01392639928141739
-0.05795,0.7233584949871968,0.01426275002613133
-0.057925,0.7233584949871968,0.01426275002613133
-0.0579,0.7233584949871968,0.01426275002613133
-0.057875,0.7233584949871968,0.01426275002613133
-0.05785,0.7233584949871968,0.01426275002613133
-0.057825,0.7233584949871968,0.01392639928141739
-0.0578,0.723696627103921,0.01426275002613133
-0.057775,0.723696627103921,0.01392639928141739
-0.05775,0.7240347592206452,0.01392639928141739
-0.057725,0.723696627103921,0.01426275002613133
-0.0577,0.7240347592206452,0.01392639928141739
-0.057675,0.7240347592206452,0.01426275002613133
-0.05765,0.7240347592206452,0.01392639928141739
-0.057625,0.7240347592206452,0.01426275002613133
-0.0576,0.7240347592206452,0.01426275002613133
-0.057575,0.7243728913373694,0.01426275002613133
-0.05755,0.7243728913373694,0.01392639928141739
-0.057525,0.7243728913373694,0.01426275002613133
-0.0575,0.7247110234540936,0.01426275002613133
-0.057475,0.7247110234540936,0.01426275002613133
-0.05745,0.7247110234540936,0.01426275002613133
-0.057425,0.7247110234540936,0.01426275002613133
-0.0574,0.7250491555708177,0.01392639928141739
-0.057375,0.7250491555708177,0.01392639928141739
-0.05735,0.7250491555708177,0.01392639928141739
-0.057325,0.7250491555708177,0.01392639928141739
-0.0573,0.7253872876875418,0.01392639928141739
-0.057275,0.7253872876875418,0.01392639928141739
-0.05725,0.7253872876875418,0.01392639928141739
-0.057225,0.7253872876875418,0.01392639928141739
-0.0572,0.7253872876875418,0.01426275002613133
-0.057175,0.725725419804266,0.01392639928141739
-0.05715,0.725725419804266,0.01392639928141739
-0.057125,0.725725419804266,0.01426275002613133
-0.0571,0.725725419804266,0.01426275002613133
-0.057075,0.725725419804266,0.01392639928141739
-0.05705,0.7260635519209901,0.01392639928141739
-0.057025,0.725725419804266,0.01392639928141739
-0.057,0.7260635519209901,0.01392639928141739
-0.056975,0.7260635519209901,0.01426275002613133
-0.05695,0.7264016840377143,0.01426275002613133
-0.056925,0.7264016840377143,0.01392639928141739
-0.0569,0.7264016840377143,0.01392639928141739
-0.056875,0.7264016840377143,0.01392639928141739
-0.05685,0.7267398161544385,0.01426275002613133
-0.056825,0.7267398161544385,0.01392639928141739
-0.0568,0.7270779482711627,0.01392639928141739
-0.056775,0.7267398161544385,0.01392639928141739
-0.05675,0.7270779482711627,0.01392639928141739
-0.056725,0.7270779482711627,0.01392639928141739
-0.0567,0.7270779482711627,0.01392639928141739
-0.056675,0.7270779482711627,0.01392639928141739
-0.05665,0.7274160803878869,0.01392639928141739
-0.056625,0.7274160803878869,0.01392639928141739
-0.0566,0.7274160803878869,0.01426275002613133
-0.056575,0.7274160803878869,0.01426275002613133
-0.05655,0.7274160803878869,0.01392639928141739
-0.056525,0.7277542125046109,0.01426275002613133
-0.0565,0.7277542125046109,0.01392639928141739
-0.056475,0.7277542125046109,0.01426275002613133
-0.05645,0.7277542125046109,0.01426275002613133
-0.056425,0.7277542125046109,0.01426275002613133
-0.0564,0.7280923446213351,0.01426275002613133
-0.056375,0.7280923446213351,0.01426275002613133
-0.05635,0.7280923446213351,0.01426275002613133
-0.056325,0.7280923446213351,0.01426275002613133
-0.0563,0.7280923446213351,0.01392639928141739
-0.056275,0.7284304767380593,0.01392639928141739
-0.05625,0.7284304767380593,0.01426275002613133
-0.056225,0.7284304767380593,0.01392639928141739
-0.0562,0.7287686088547835,0.01392639928141739
-0.056175,0.7287686088547835,0.01392639928141739
-0.05615,0.7284304767380593,0.01392639928141739
-0.056125,0.7287686088547835,0.01392639928141739
-0.0561,0.7287686088547835,0.01392639928141739
-0.056075,0.7291067409715076,0.01392639928141739
-0.05605,0.7291067409715076,0.01392639928141739
-0.056025,0.7291067409715076,0.01392639928141739
-0.056,0.7294448730882318,0.01392639928141739
-0.055975,0.7294448730882318,0.01426275002613133
-0.05595,0.7294448730882318,0.01392639928141739
-0.055925,0.7294448730882318,0.01392639928141739
-0.0559,0.7294448730882318,0.01392639928141739
-0.055875,0.729783005204956,0.01426275002613133
-0.05585,0.729783005204956,0.01426275002613133
-0.055825,0.729783005204956,0.01426275002613133
-0.0558,0.729783005204956,0.01392639928141739
-0.055775,0.7301211373216802,0.01392639928141739
-0.05575,0.7301211373216802,0.01392639928141739
-0.055725,0.7301211373216802,0.01392639928141739
-0.0557,0.7304592694384042,0.01426275002613133
-0.055675,0.7304592694384042,0.01426275002613133
-0.05565,0.7301211373216802,0.01426275002613133
-0.055625,0.7304592694384042,0.01392639928141739
-0.0556,0.7304592694384042,0.01392639928141739
-0.055575,0.7307974015551284,0.01392639928141739
-0.05555,0.7307974015551284,0.01426275002613133
-0.055525,0.7307974015551284,0.01426275002613133
-0.0555,0.7307974015551284,0.01392639928141739
-0.055475,0.7307974015551284,0.01392639928141739
-0.05545,0.7311355336718526,0.01392639928141739
-0.055425,0.7307974015551284,0.01392639928141739
-0.0554,0.7311355336718526,0.01392639928141739
-0.055375,0.7311355336718526,0.01392639928141739
-0.05535,0.7311355336718526,0.01392639928141739
-0.055325,0.7311355336718526,0.01392639928141739
-0.0553,0.7314736657885768,0.01392639928141739
-0.055275,0.7314736657885768,0.01392639928141739
-0.05525,0.7318117979053009,0.01392639928141739
-0.055225,0.7318117979053009,0.01392639928141739
-0.0552,0.7318117979053009,0.01392639928141739
-0.055175,0.7318117979053009,0.01426275002613133
-0.05515,0.7318117979053009,0.01392639928141739
-0.055125,0.7321499300220251,0.01392639928141739
-0.0551,0.7321499300220251,0.01392639928141739
-0.055075,0.7324880621387493,0.01426275002613133
-0.05505,0.7324880621387493,0.01426275002613133
-0.055025,0.7324880621387493,0.01392639928141739
-0.055,0.7324880621387493,0.01392639928141739
-0.054975,0.7328261942554734,0.01426275002613133
-0.05495,0.7328261942554734,0.01426275002613133
-0.054925,0.7328261942554734,0.01426275002613133
-0.0549,0.7328261942554734,0.01426275002613133
-0.054875,0.7328261942554734,0.01426275002613133
-0.05485,0.7331643263721975,0.01392639928141739
-0.054825,0.7331643263721975,0.01426275002613133
-0.0548,0.7331643263721975,0.01392639928141739
-0.054775,0.7331643263721975,0.01392639928141739
-0.05475,0.7331643263721975,0.01426275002613133
-0.054725,0.7335024584889217,0.01392639928141739
-0.0547,0.7335024584889217,0.01392639928141739
-0.054675,0.7335024584889217,0.01392639928141739
-0.05465,0.7335024584889217,0.01392639928141739
-0.054625,0.7335024584889217,0.01392639928141739
-0.0546,0.7335024584889217,0.01392639928141739
-0.054575,0.7335024584889217,0.01392639928141739
-0.05455,0.7338405906056459,0.01426275002613133
-0.054525,0.7338405906056459,0.01392639928141739
-0.0545,0.7341787227223701,0.01392639928141739
-0.054475,0.7341787227223701,0.01426275002613133
-0.05445,0.7341787227223701,0.01392639928141739
-0.054425,0.7345168548390942,0.01392639928141739
-0.0544,0.7345168548390942,0.01392639928141739
-0.054375,0.7345168548390942,0.01392639928141739
-0.05435,0.7345168548390942,0.01426275002613133
-0.054325,0.7345168548390942,0.01392639928141739
-0.0543,0.7348549869558184,0.01392639928141739
-0.054275,0.7348549869558184,0.01392639928141739
-0.05425,0.7348549869558184,0.01392639928141739
-0.054225,0.7348549869558184,0.01392639928141739
-0.0542,0.7351931190725425,0.01392639928141739
-0.054175,0.7348549869558184,0.01392639928141739
-0.05415,0.7351931190725425,0.01392639928141739
-0.054125,0.7351931190725425,0.01392639928141739
-0.0541,0.7355312511892667,0.01392639928141739
-0.054075,0.7355312511892667,0.01392639928141739
-0.05405,0.7358693833059908,0.01426275002613133
-0.054025,0.7358693833059908,0.01392639928141739
-0.054,0.7358693833059908,0.01426275002613133
-0.053975,0.7358693833059908,0.01426275002613133
-0.05395,0.7358693833059908,0.01426275002613133
-0.053925,0.7358693833059908,0.01426275002613133
-0.0539,0.7358693833059908,0.01392639928141739
-0.053875,0.736207515422715,0.01392639928141739
-0.05385,0.736207515422715,0.01392639928141739
-0.053825,0.736207515422715,0.01392639928141739
-0.0538,0.736207515422715,0.01392639928141739
-0.053775,0.7365456475394392,0.01392639928141739
-0.05375,0.736207515422715,0.01392639928141739
-0.053725,0.7365456475394392,0.01426275002613133
-0.0537,0.7365456475394392,0.01392639928141739
-0.053675,0.7365456475394392,0.01426275002613133
-0.05365,0.7365456475394392,0.01426275002613133
-0.053625,0.7368837796561634,0.01392639928141739
-0.0536,0.7372219117728875,0.01426275002613133
-0.053575,0.7372219117728875,0.01392639928141739
-0.05355,0.7372219117728875,0.01392639928141739
-0.053525,0.7372219117728875,0.01392639928141739
-0.0535,0.7375600438896116,0.01392639928141739
-0.053475,0.7375600438896116,0.01392639928141739
-0.05345,0.7375600438896116,0.01392639928141739
-0.053425,0.7375600438896116,0.01392639928141739
-0.0534,0.7375600438896116,0.01392639928141739
-0.053375,0.7375600438896116,0.01426275002613133
-0.05335,0.7378981760063358,0.01392639928141739
-0.053325,0.7378981760063358,0.01392639928141739
-0.0533,0.7378981760063358,0.01392639928141739
-0.053275,0.73823630812306,0.01392639928141739
-0.05325,0.73823630812306,0.01392639928141739
-0.053225,0.73823630812306,0.01392639928141739
-0.0532,0.73823630812306,0.01392639928141739
-0.053175,0.73823630812306,0.01426275002613133
-0.05315,0.73823630812306,0.01392639928141739
-0.053125,0.7385744402397841,0.01392639928141739
-0.0531,0.7385744402397841,0.01426275002613133
-0.053075,0.7385744402397841,0.01392639928141739
-0.05305,0.7389125723565083,0.01392639928141739
-0.053025,0.7389125723565083,0.01392639928141739
