-0.1150029129847783,0.5495585869909778,0.0142627500261249
-0.1149748329847783,0.5495585869909778,0.0001360187481459635
-0.1149467529847783,0.5495585869909778,0.005853981408282896
-0.1149186729847783,0.5495585869909778,0.007199384387138645
-0.1148905929847783,0.5495585869909778,0.001817772471715649
-0.1148625129847783,0.5495585869909778,0.00888113811070833
-0.1148344329847783,0.5495585869909778,0.0001360187481459635
-0.1148063529847783,0.5495585869909778,-0.002891137954279471
-0.1147782729847783,0.5495585869909778,0.0004723694928599007
-0.1147501929847783,0.5495585869909778,0.002154123216429586
-0.1147221129847783,0.5495585869909778,0.01089924257899195
-0.1146940329847783,0.5495585869909778,-0.005581943911990969
-0.1146659529847783,0.5495585869909778,0.005853981408282896
-0.1146378729847783,0.5495585869909778,0.0004723694928599007
-0.1146097929847783,0.5495585869909778,-0.001209384230709785
-0.1145817129847783,0.5495585869909778,0.01022654108956408
-0.1145536329847783,0.5495585869909778,-0.003563839443707346
-0.1145255529847783,0.5492204548742536,-0.001882085720137659
-0.1144974729847783,0.5495585869909778,0.001145070982287775
-0.1144693929847783,0.5495585869909778,0.008544787365994393
-0.1144413129847783,0.549896719107702,-0.000873033485995848
-0.1144132329847783,0.5495585869909778,-0.0005366827412819109
-0.1143851529847783,0.5495585869909778,0.004844929174141084
-0.1143570729847783,0.5495585869909778,0.001481421727001712
-0.1143289929847783,0.5495585869909778,0.009553839600136204
-0.1143009129847783,0.5495585869909778,-0.005245593167277031
-0.1142728329847783,0.5495585869909778,-0.004909242422563094
-0.1142447529847783,0.5495585869909778,0.0004723694928599007
-0.1142166729847783,0.5495585869909778,0.006863033642424707
-0.1141885929847783,0.5495585869909778,-0.003227488698993408
-0.1141605129847783,0.549896719107702,0.001145070982287775
-0.1141324329847783,0.5495585869909778,0.01123559332370589
-0.1141043529847783,0.5495585869909778,-0.00423654093313522
-0.1140762729847783,0.549896719107702,0.002154123216429586
-0.1140481929847783,0.5495585869909778,0.006863033642424707
-0.1140201129847783,0.5495585869909778,-0.001882085720137659
-0.1139920329847783,0.5495585869909778,0.005517630663568958
-0.1139639529847783,0.5495585869909778,-0.001882085720137659
-0.1139358729847783,0.5495585869909778,-0.00894545135913034
-0.1139077929847783,0.549896719107702,-0.002891137954279471
-0.1138797129847783,0.549896719107702,0.0008087202375738378
-0.1138516329847783,0.5495585869909778,-0.002891137954279471
-0.1138235529847783,0.5495585869909778,-0.002891137954279471
-0.1137954729847783,0.5495585869909778,0.005517630663568958
-0.1137673929847783,0.5495585869909778,-0.005918294656704906
-0.1137393129847783,0.5495585869909778,0.001145070982287775
-0.1137112329847783,0.5495585869909778,0.0004723694928599007
-0.1136831529847783,0.5495585869909778,-0.005918294656704906
-0.1136550729847783,0.5495585869909778,-0.00423654093313522
-0.1136269929847783,0.5495585869909778,0.001817772471715649
-0.1135989129847783,0.5495585869909778,0.003835876939999273
-0.1135708329847783,0.5495585869909778,-0.007263697635560655
-0.1135427529847783,0.5495585869909778,-0.001209384230709785
-0.1135146729847783,0.5495585869909778,-0.0005366827412819109
-0.1134865929847783,0.5495585869909778,0.001817772471715649
-0.1134585129847783,0.5495585869909778,0.004508578429427147
-0.1134304329847783,0.5495585869909778,-0.01062720508270003
-0.1134023529847783,0.5495585869909778,-0.006590996146134616
-0.1133742729847783,0.5495585869909778,-0.002218436464853584
-0.1133461929847783,0.5495585869909778,0.002490473961140006
-0.1133181129847783,0.5495585869909778,-0.005245593167274125
-0.1132900329847783,0.5495585869909779,0.001145070982287622
-0.1132619529847783,0.549896719107702,0.0008087202375738378
-0.1132338729847783,0.5495585869909778,-0.001882085720137659
-0.1132057929847783,0.549896719107702,-0.002218436464851597
-0.1131777129847783,0.549896719107702,0.003499526195285335
-0.1131496329847783,0.5495585869909778,-0.007263697635560655
-0.1131215529847783,0.5495585869909778,-0.004909242422563094
-0.1130934729847783,0.549896719107702,0.01089924257899195
-0.1130653929847783,0.5495585869909778,-0.01298166029569759
-0.1130373129847783,0.549896719107702,-0.003227488698993408
-0.1130092329847783,0.5495585869909778,0.003835876939999273
-0.1129811529847783,0.549896719107702,-0.006254645401418843
-0.1129530729847783,0.549896719107702,-0.000873033485995848
-0.1129249929847783,0.5495585869909778,0.009890190344850142
-0.1128969129847783,0.5495585869909778,-0.007936399124988528
-0.1128688329847783,0.5495585869909778,-0.001209384230709785
-0.1128407529847783,0.5495585869909778,-0.0002003319965679737
-0.1128126729847783,0.549896719107702,-0.004572891677849157
-0.1127845929847783,0.549896719107702,-0.006254645401418843
-0.1127565129847783,0.549896719107702,-0.000873033485995848
-0.1127284329847783,0.5495585869909778,-0.0005366827412819109
-0.1127003529847783,0.5495585869909778,-0.003227488698993408
-0.1126722729847783,0.5495585869909778,-0.003563839443707346
-0.1126441929847783,0.5495585869909778,0.0004723694928599007
-0.1126161129847783,0.5495585869909778,-0.002554787209565534
-0.1125880329847783,0.5495585869909778,0.01089924257899195
-0.1125599529847783,0.5495585869909778,-0.004909242422563094
-0.1125318729847783,0.5495585869909778,-0.009954503593272152
-0.1125037929847783,0.5495585869909778,-0.000873033485995848
-0.1124757129847783,0.5495585869909778,0.003499526195285335
-0.1124476329847783,0.5495585869909778,-0.00423654093313522
-0.1124195529847783,0.5495585869909778,-0.001545734975423722
-0.1123914729847783,0.5495585869909778,-0.002218436464851597
-0.1123633929847783,0.5495585869909778,-0.001882085720137659
-0.1123353129847783,0.5495585869909778,-0.004909242422563094
-0.1123072329847783,0.5495585869909778,0.002490473961143524
-0.1122791529847783,0.5495585869909778,-0.001882085720137659
-0.1122510729847783,0.5495585869909778,-0.005581943911990969
-0.1122229929847783,0.5495585869909778,0.006190332152996833
-0.1121949129847783,0.5495585869909778,-0.008609100614416403
-0.1121668329847783,0.549896719107702,0.003835876939999273
-0.1121387529847783,0.5495585869909778,0.004172227684713209
-0.1121106729847783,0.5495585869909778,-0.01264530955098365
-0.1120825929847783,0.5495585869909778,-0.002891137954279471
-0.1120545129847783,0.5495585869909778,0.00888113811070833
-0.1120264329847783,0.5495585869909778,-0.000873033485995848
-0.1119983529847783,0.5495585869909778,-0.01197260806155578
-0.1119702729847783,0.5495585869909778,0.006863033642424707
-0.1119421929847783,0.5495585869909778,-0.009618152848558215
-0.1119141129847783,0.5495585869909778,-0.002554787209565534
-0.1118860329847783,0.5495585869909778,0.01089924257899195
-0.1118579529847783,0.5495585869909778,-0.007263697635560655
-0.1118298729847783,0.5495585869909778,-0.002218436464851597
-0.1118017929847783,0.5495585869909778,-0.0002003319965679737
-0.1117737129847783,0.549896719107702,-0.004909242422563094
-0.1117456329847783,0.5495585869909778,0.006863033642424707
-0.1117175529847783,0.549896719107702,-0.01298166029569759
-0.1116894729847783,0.5495585869909779,-0.001882085720142708
-0.1116613929847783,0.5495585869909778,-0.002218436464851444
-0.1116333129847783,0.5495585869909778,-0.003900190188419294
-0.1116052329847783,0.5495585869909778,0.0004723694928579122
-0.1115771529847783,0.5495585869909778,-0.003900190188414246
-0.1115490729847783,0.5495585869909778,0.01157194406841983
-0.1115209929847783,0.5495585869909778,-0.005245593167277031
-0.1114929129847783,0.5495585869909778,-0.009281802103844277
-0.1114648329847783,0.5495585869909778,-0.001209384230709785
-0.1114367529847783,0.5495585869909778,0.003499526195285335
-0.1114086729847783,0.549896719107702,0.005517630663568958
-0.1113805929847783,0.5495585869909778,-0.01062720508270003
-0.1113525129847783,0.5495585869909778,-0.002218436464851597
-0.1113244329847783,0.5495585869909778,-0.002218436464851597
-0.1112963529847783,0.5495585869909778,-0.005245593167277031
-0.1112682729847783,0.5495585869909778,0.002490473961143524
-0.1112401929847783,0.5495585869909778,-0.006254645401418843
-0.1112121129847783,0.5495585869909778,0.001481421727001712
-0.1111840329847783,0.5495585869909778,0.001145070982287775
-0.1111559529847783,0.5495585869909778,-0.002218436464851597
-0.1111278729847783,0.549896719107702,-0.007263697635560655
-0.1110997929847783,0.5495585869909778,0.008208436621280455
-0.1110717129847783,0.5495585869909778,-0.01096355582741396
-0.1110436329847783,0.5495585869909778,0.001481421727001712
-0.1110155529847783,0.549896719107702,0.007872085876566518
-0.1109874729847783,0.5495585869909778,-0.009954503593272152
-0.1109593929847783,0.5495585869909778,-0.000873033485995848
-0.1109313129847783,0.549896719107702,0.001481421727001712
-0.1109032329847783,0.5495585869909778,-0.009618152848558215
-0.1108751529847783,0.5495585869909778,-0.003900190188421282
-0.1108470729847783,0.5495585869909778,0.001145070982287775
-0.1108189929847783,0.5495585869909778,-0.0002003319965679737
-0.1107909129847783,0.5495585869909778,-0.005581943911990969
-0.1107628329847783,0.5495585869909778,-0.003563839443707346
-0.1107347529847783,0.5495585869909778,-0.0005366827412819109
-0.1107066729847783,0.5495585869909778,-0.0002003319965679737
-0.1106785929847783,0.5495585869909778,0.008208436621280455
-0.1106505129847783,0.5495585869909778,-0.004572891677849157
-0.1106224329847783,0.5495585869909778,-0.01029085433798609
-0.1105943529847783,0.549896719107702,0.0001360187481459635
-0.1105662729847783,0.5495585869909778,0.002490473961143524
-0.1105381929847783,0.549896719107702,-0.009281802103844277
-0.1105101129847783,0.5495585869909778,0.0004723694928599007
-0.1104820329847783,0.549896719107702,-0.002218436464851597
-0.1104539529847783,0.5495585869909778,-0.002218436464851597
-0.1104258729847783,0.5495585869909778,-0.004909242422563094
-0.1103977929847783,0.549896719107702,0.002154123216429586
-0.1103697129847783,0.5495585869909778,0.007872085876566518
-0.1103416329847783,0.549896719107702,-0.01298166029569759
-0.1103135529847783,0.5495585869909778,0.002490473961143524
-0.1102854729847783,0.5495585869909778,-0.001209384230709785
-0.1102573929847783,0.5495585869909778,0.001481421727001712
-0.1102293129847783,0.549896719107702,-0.001882085720137659
-0.1102012329847783,0.5495585869909778,-0.01163625731684184
-0.1101731529847783,0.5495585869909778,-0.003227488698993408
-0.1101450729847783,0.549896719107702,0.007535735131852582
-0.1101169929847783,0.549896719107702,-0.001882085720137659
-0.1100889129847783,0.5495585869909778,-0.01062720508270003
-0.1100608329847783,0.5495585869909778,0.007535735131852582
-0.1100327529847783,0.5495585869909778,-0.0112999065721279
-0.1100046729847783,0.5495585869909778,0.002154123216423469
-0.1099765929847783,0.5498967191077019,-0.002218436464849609
-0.1099485129847783,0.5495585869909779,0.0001360187481448927
-0.1099204329847783,0.5495585869909778,-0.001882085720136742
-0.1098923529847783,0.5495585869909778,0.0001360187481438221
-0.1098642729847783,0.5495585869909778,-0.004572891677849157
-0.1098361929847783,0.549896719107702,-0.003227488698993408
-0.1098081129847783,0.5495585869909778,-0.00423654093313522
-0.1097800329847783,0.5495585869909778,-0.0005366827412819109
-0.1097519529847783,0.549896719107702,-0.004909242422563094
-0.1097238729847783,0.5495585869909778,-0.003563839443707346
-0.1096957929847783,0.549896719107702,-0.0002003319965679737
-0.1096677129847783,0.5495585869909778,-0.003900190188421282
-0.1096396329847783,0.5495585869909778,0.01022654108956408
-0.1096115529847783,0.5495585869909778,-0.003563839443707346
-0.1095834729847783,0.5495585869909778,-0.01096355582741396
-0.1095553929847783,0.5495585869909778,0.0001360187481459635
-0.1095273129847783,0.5495585869909778,-0.001209384230709785
-0.1094992329847783,0.5495585869909778,0.001145070982287775
-0.1094711529847783,0.5495585869909778,-0.004572891677849157
-0.1094430729847783,0.5495585869909778,-0.002891137954279471
-0.1094149929847783,0.5495585869909778,-0.002554787209565534
-0.1093869129847783,0.5495585869909778,-0.004909242422563094
-0.1093588329847783,0.5495585869909778,0.001817772471715649
-0.1093307529847783,0.5495585869909778,-0.005581943911990969
-0.1093026729847783,0.5495585869909778,0.009553839600136204
-0.1092745929847783,0.5495585869909778,-0.003900190188421282
-0.1092465129847783,0.549896719107702,-0.008609100614416403
-0.1092184329847783,0.549896719107702,-0.001545734975423722
-0.1091903529847783,0.549896719107702,0.003499526195285335
-0.1091622729847783,0.549896719107702,0.002154123216429586
-0.1091341929847783,0.549896719107702,-0.006927346890846718
-0.1091061129847783,0.5495585869909778,-0.002218436464851597
-0.1090780329847783,0.549896719107702,-0.003227488698993408
-0.1090499529847783,0.549896719107702,-0.008272749869702466
-0.1090218729847783,0.5495585869909778,0.003163175450571398
-0.1089937929847783,0.5495585869909778,0.0001360187481459635
-0.1089657129847783,0.5495585869909778,-0.007263697635560655
-0.1089376329847783,0.549896719107702,0.004844929174141084
-0.1089095529847783,0.5495585869909778,-0.009618152848558215
-0.1088814729847783,0.5495585869909778,-0.003900190188421282
-0.1088533929847783,0.549896719107702,0.01123559332370589
-0.1088253129847783,0.5495585869909778,-0.01230895880626971
-0.1087972329847783,0.549896719107702,-0.004909242422563094
-0.1087691529847783,0.549896719107702,0.004508578429427147
-0.1087410729847783,0.549896719107702,0.002154123216429586
-0.1087129929847783,0.549896719107702,-0.009954503593272152
-0.1086849129847783,0.549896719107702,0.0004723694928599007
-0.1086568329847783,0.5495585869909778,-0.003900190188421282
-0.1086287529847783,0.549896719107702,-0.005245593167277031
-0.1086006729847783,0.5495585869909778,0.009553839600136204
-0.1085725929847783,0.549896719107702,-0.003563839443707346
-0.1085445129847783,0.5495585869909778,-0.01029085433798609
-0.1085164329847783,0.5495585869909778,-0.000873033485995848
-0.1084883529847783,0.549896719107702,-0.0002003319965679737
-0.1084602729847783,0.549896719107702,-0.001545734975423722
-0.1084321929847783,0.5495585869909778,-0.002891137954279471
-0.1084041129847783,0.5495585869909778,-0.002891137954279471
-0.1083760329847783,0.5495585869909778,-0.002554787209565534
-0.1083479529847783,0.549896719107702,-0.005581943911990969
-0.1083198729847783,0.5495585869909778,0.001817772471715649
-0.1082917929847783,0.5495585869909778,-0.005918294656701388
-0.1082637129847783,0.5495585869909778,0.009217488855415384
-0.1082356329847783,0.5495585869909778,-0.002891137954273966
-0.1082075529847783,0.5495585869909778,-0.008945451359126822
-0.1081794729847783,0.5495585869909778,-0.001209384230707491
-0.1081513929847783,0.5495585869909778,0.003835876939999273
-0.1081233129847783,0.5495585869909778,-0.004572891677849157
-0.1080952329847783,0.5495585869909778,-0.002891137954279471
-0.1080671529847783,0.5495585869909778,-0.000873033485995848
-0.1080390729847783,0.5495585869909778,-0.002891137954279471
-0.1080109929847783,0.5495585869909778,-0.00894545135913034
-0.1079829129847783,0.5495585869909778,0.002154123216429586
-0.1079548329847783,0.5495585869909778,-0.005918294656704906
-0.1079267529847783,0.5495585869909778,-0.003227488698993408
-0.1078986729847783,0.5495585869909778,0.006863033642424707
-0.1078705929847783,0.5495585869909778,-0.003900190188421282
-0.1078425129847783,0.5495585869909778,-0.008609100614416403
-0.1078144329847783,0.5495585869909778,0.004844929174141084
-0.1077863529847783,0.5495585869909778,-0.006927346890846718
-0.1077582729847783,0.5495585869909778,-0.004572891677849157
-0.1077301929847783,0.5495585869909778,0.003499526195285335
-0.1077021129847783,0.5495585869909778,0.002154123216429586
-0.1076740329847783,0.5495585869909778,-0.01062720508270003
-0.1076459529847783,0.5495585869909778,0.004844929174141084
-0.1076178729847783,0.5495585869909778,-0.00659099614613278
-0.1075897929847783,0.5495585869909778,-0.005245593167277031
-0.1075617129847783,0.5495585869909778,-0.0002003319965679737
-0.1075336329847783,0.5495585869909778,0.004508578429427147
-0.1075055529847783,0.5495585869909778,-0.006254645401418843
-0.1074774729847783,0.5495585869909778,-0.006254645401418843
-0.1074493929847783,0.5495585869909778,0.002826824705857461
-0.1074213129847783,0.5495585869909778,-0.00659099614613278
-0.1073932329847783,0.549896719107702,0.007535735131852582
-0.1073651529847783,0.5495585869909778,-0.003900190188421282
-0.1073370729847783,0.5495585869909778,-0.006927346890846718
-0.1073089929847783,0.5495585869909778,-0.001545734975423722
-0.1072809129847783,0.5495585869909778,0.002826824705857461
-0.1072528329847783,0.5495585869909778,-0.002218436464851597
-0.1072247529847783,0.5495585869909778,-0.002218436464851597
-0.1071966729847783,0.5495585869909778,-0.003227488698993408
-0.1071685929847783,0.5495585869909778,-0.002891137954279471
-0.1071405129847783,0.5495585869909778,-0.006927346890846718
-0.1071124329847783,0.5495585869909778,0.004172227684713209
-0.1070843529847783,0.549896719107702,-0.007936399124988528
-0.1070562729847783,0.5495585869909778,0.006863033642424707
-0.1070281929847783,0.549896719107702,0.003163175450571398
-0.1070001129847783,0.5495585869909778,-0.01029085433798609
-0.1069720329847783,0.5495585869909778,-0.001545734975423722
-0.1069439529847783,0.5495585869909778,0.001481421727001712
-0.1069158729847783,0.5495585869909778,-0.005918294656704906
-0.1068877929847783,0.5495585869909778,-0.005581943911990969
-0.1068597129847783,0.5495585869909778,-0.0005366827412819109
-0.1068316329847783,0.5495585869909778,-0.000873033485995848
-0.1068035529847783,0.5495585869909778,-0.00659099614613278
-0.1067754729847783,0.549896719107702,-0.003563839443707346
-0.1067473929847783,0.5495585869909778,-0.0002003319965679737
-0.1067193129847783,0.5495585869909778,-0.003900190188421282
-0.1066912329847783,0.549896719107702,0.002826824705857461
-0.1066631529847783,0.5495585869909778,0.002826824705857461
-0.1066350729847783,0.5495585869909778,-0.01062720508270003
-0.1066069929847783,0.5495585869909778,0.0001360187481459635
-0.1065789129847783,0.5495585869909778,-0.001545734975422958
-0.1065508329847783,0.5495585869909778,0.000808720237572767
-0.1065227529847783,0.5498967191077019,-0.006927346890843047
-0.1064946729847783,0.5495585869909778,0.00114507098228441
-0.1064665929847783,0.5495585869909779,-0.006254645401412572
-0.1064385129847783,0.549896719107702,0.007535735131852582
-0.1064104329847783,0.5495585869909778,-0.007263697635560655
-0.1063823529847783,0.5495585869909778,-0.00659099614613278
-0.1063542729847783,0.549896719107702,-0.002554787209565534
-0.1063261929847783,0.5495585869909778,0.004844929174141084
-0.1062981129847783,0.5495585869909778,-0.002218436464851597
-0.1062700329847783,0.5495585869909778,-0.007936399124988528
-0.1062419529847783,0.5495585869909778,0.005181279918855021
-0.1062138729847783,0.5495585869909778,-0.00894545135913034
-0.1061857929847783,0.5495585869909778,0.003835876939999273
-0.1061577129847783,0.5495585869909778,0.003163175450571398
-0.1061296329847783,0.5495585869909778,-0.009954503593272152
-0.1061015529847783,0.5495585869909778,-0.001545734975423722
-0.1060734729847783,0.5495585869909778,0.004508578429427147
-0.1060453929847783,0.5495585869909778,-0.01029085433798609
-0.1060173129847783,0.5495585869909778,-0.0002003319965679737
-0.1059892329847783,0.5495585869909778,-0.0005366827412819109
-0.1059611529847783,0.5495585869909778,-0.0005366827412819109
-0.1059330729847783,0.5495585869909778,-0.00894545135913034
-0.1059049929847783,0.5495585869909778,0.0001360187481459635
-0.1058769129847783,0.5495585869909778,-0.00423654093313522
-0.1058488329847783,0.5495585869909778,0.003163175450571398
-0.1058207529847783,0.5495585869909778,0.005853981408282896
-0.1057926729847783,0.5495585869909778,-0.006927346890846718
-0.1057645929847783,0.5495585869909778,-0.005245593167277031
-0.1057365129847783,0.5495585869909778,-0.0005366827412819109
-0.1057084329847783,0.5495585869909778,0.0004723694928599007
-0.1056803529847783,0.5495585869909778,-0.007600048380274592
-0.1056522729847783,0.5495585869909778,-0.003227488698993408
-0.1056241929847783,0.5495585869909778,-0.002554787209565534
-0.1055961129847783,0.5495585869909778,-0.002218436464851597
-0.1055680329847783,0.5495585869909778,-0.00423654093313522
-0.1055399529847783,0.5495585869909778,0.0004723694928599007
-0.1055118729847783,0.549896719107702,-0.004572891677849157
-0.1054837929847783,0.549896719107702,-0.002554787209565534
-0.1054557129847783,0.5495585869909778,0.005181279918855021
-0.1054276329847783,0.5495585869909778,-0.006927346890846718
-0.1053995529847783,0.5495585869909778,-0.003900190188421282
-0.1053714729847783,0.549896719107702,0.003835876939999273
-0.1053433929847783,0.549896719107702,-0.007263697635560655
-0.1053153129847783,0.549896719107702,-0.002554787209565534
-0.1052872329847783,0.5495585869909778,0.005181279918855021
-0.1052591529847783,0.5495585869909778,-0.008272749869702466
-0.1052310729847783,0.5495585869909778,0.006863033642424707
-0.1052029929847783,0.5495585869909778,-0.003227488698993408
-0.1051749129847783,0.5495585869909778,-0.009281802103844277
-0.1051468329847783,0.5495585869909778,-0.003227488698993408
-0.1051187529847783,0.5495585869909778,0.008208436621280455
-0.1050906729847783,0.5495585869909778,-0.002218436464851597
-0.1050625929847783,0.5495585869909778,-0.01096355582741396
-0.1050345129847783,0.5495585869909778,0.007199384387138645
-0.1050064329847783,0.5495585869909778,-0.01096355582741396
-0.1049783529847783,0.5495585869909778,-0.001209384230709785
-0.1049502729847783,0.5495585869909778,0.00888113811070833
-0.1049221929847783,0.5492204548742536,-0.00894545135913034
-0.1048941129847783,0.5495585869909778,-0.001209384230709785
-0.1048660329847783,0.5495585869909778,-0.000873033485996001
-0.1048379529847783,0.5495585869909778,-0.008945451359126669
-0.1048098729847783,0.5495585869909778,-0.001882085720137812
-0.1047817929847783,0.5495585869909778,-0.002218436464850832
-0.1047537129847783,0.5495585869909778,-0.0005366827412819109
-0.1047256329847783,0.5495585869909778,-0.00423654093313522
-0.1046975529847783,0.5495585869909778,-0.00423654093313522
-0.1046694729847783,0.5495585869909778,-0.000873033485995848
-0.1046413929847783,0.5495585869909778,-0.003563839443707346
-0.1046133129847783,0.5495585869909778,0.008208436621280455
-0.1045852329847783,0.5495585869909778,-0.007263697635560655
-0.1045571529847783,0.5495585869909778,-0.01298166029569759
-0.1045290729847783,0.5492204548742536,-0.002891137954279471
-0.1045009929847783,0.5495585869909778,0.0001360187481459635
-0.1044729129847783,0.5495585869909778,-0.005581943911990969
-0.1044448329847783,0.5495585869909778,-0.00659099614613278
-0.1044167529847783,0.5495585869909778,-0.005581943911990969
-0.1043886729847783,0.5495585869909778,-0.005245593167277031
-0.1043605929847783,0.5495585869909778,-0.008272749869702466
-0.1043325129847783,0.5495585869909778,-0.001209384230709785
-0.1043044329847783,0.5495585869909778,-0.008609100614416403
-0.1042763529847783,0.5495585869909778,-0.005581943911990969
-0.1042482729847783,0.5495585869909778,0.002826824705857461
-0.1042201929847783,0.5495585869909778,-0.009281802103844277
-0.1041921129847783,0.5495585869909778,-0.008272749869702466
-0.1041640329847783,0.5495585869909778,0.003835876939999273
-0.1041359529847783,0.5495585869909778,-0.001209384230709785
-0.1041078729847783,0.5495585869909778,-0.01499976476398121
-0.1040797929847783,0.5495585869909778,-0.0005366827412819109
-0.1040517129847783,0.5495585869909778,-0.01230895880626971
-0.1040236329847783,0.5495585869909778,-0.0002003319965679737
-0.1039955529847783,0.5495585869909778,-0.01096355582741396
-0.1039674729847783,0.5495585869909778,-0.01600881699812302
-0.1039393929847783,0.5495585869909778,-0.009281802103844277
-0.1039113129847783,0.5495585869909778,0.001145070982287775
-0.1038832329847783,0.5495585869909778,-0.00423654093313522
-0.1038551529847783,0.5495585869909778,-0.01701786923226483
-0.1038270729847783,0.5495585869909778,-0.001545734975423722
-0.1037989929847783,0.5495585869909778,-0.009618152848558215
-0.1037709129847783,0.5495585869909778,-0.008609100614416403
-0.1037428329847783,0.549896719107702,0.002154123216429586
-0.1037147529847783,0.5495585869909778,-0.01634516774283696
-0.1036866729847783,0.5495585869909778,-0.001545734975423722
-0.1036585929847783,0.5495585869909778,-0.002891137954279471
-0.1036305129847783,0.5495585869909778,-0.009618152848558215
-0.1036024329847783,0.5495585869909778,-0.01567246625340908
-0.1035743529847783,0.5495585869909778,0.004508578429427147
-0.1035462729847783,0.5495585869909778,-0.01499976476398121
-0.1035181929847783,0.5495585869909778,-0.01197260806155578
-0.1034901129847783,0.549896719107702,0.003499526195285335
-0.1034620329847783,0.5495585869909778,-0.0112999065721279
-0.1034339529847783,0.5495585869909778,-0.007263697635560655
-0.1034058729847783,0.5495585869909778,-0.007600048380274592
-0.1033777929847783,0.5495585869909778,-0.007600048380274592
-0.1033497129847783,0.5495585869909778,-0.00894545135913034
-0.1033216329847783,0.5495585869909778,-0.005918294656704906
-0.1032935529847783,0.5495585869909778,-0.002218436464851597
-0.1032654729847783,0.5495585869909778,-0.01331801104041152
-0.1032373929847783,0.5495585869909778,0.0004723694928599007
-0.1032093129847783,0.5495585869909778,-0.003227488698993408
-0.1031812329847783,0.5495585869909778,-0.01634516774283099
-0.1031531529847783,0.5495585869909778,0.0001360187481384695
-0.1031250729847783,0.5495585869909778,-0.002218436464850526
-0.1030969929847783,0.5495585869909778,-0.01499976476397494
-0.1030689129847783,0.5495585869909778,-0.001209384230710244
-0.1030408329847783,0.5495585869909778,-0.002218436464851597
-0.1030127529847783,0.5495585869909778,-0.01970867518997633
-0.1029846729847783,0.549896719107702,-0.006254645401418843
-0.1029565929847783,0.549896719107702,0.003835876939999273
-0.1029285129847783,0.549896719107702,-0.01836327221112058
-0.1029004329847783,0.5495585869909778,-0.007263697635560655
-0.1028723529847783,0.5495585869909778,-0.000873033485995848
-0.1028442729847783,0.5495585869909778,-0.008272749869702466
-0.1028161929847783,0.5495585869909778,-0.007600048380274592
-0.1027881129847783,0.5495585869909778,-0.005581943911990969
-0.1027600329847783,0.5495585869909778,-0.01298166029569759
-0.1027319529847783,0.5495585869909778,-0.004572891677849157
-0.1027038729847783,0.5495585869909778,-0.00659099614613278
-0.1026757929847783,0.5495585869909778,-0.003227488698993408
-0.1026477129847783,0.5495585869909778,-0.01466341401926727
-0.1026196329847783,0.5495585869909778,-0.007600048380274592
-0.1025915529847783,0.5495585869909778,-0.002554787209565534
-0.1025634729847783,0.5495585869909778,-0.007263697635560655
-0.1025353929847783,0.5495585869909778,-0.01096355582741396
-0.1025073129847783,0.5495585869909778,-0.006927346890846718
-0.1024792329847783,0.5495585869909778,-0.01197260806155578
-0.1024511529847783,0.5495585869909778,0.004844929174141084
-0.1024230729847783,0.5495585869909778,-0.01298166029569759
-0.1023949929847783,0.5495585869909778,-0.0139907125298394
-0.1023669129847783,0.549896719107702,-0.005918294656704906
-0.1023388329847783,0.5495585869909778,-0.003563839443707346
-0.1023107529847783,0.5495585869909778,-0.01331801104041152
-0.1022826729847783,0.5495585869909778,0.0001360187481459635
-0.1022545929847783,0.5495585869909778,-0.006254645401418843
-0.1022265129847783,0.5495585869909778,-0.01668151848755089
-0.1021984329847783,0.5495585869909778,-0.006927346890846718
-0.1021703529847783,0.5495585869909778,-0.0002003319965679737
-0.1021422729847783,0.5495585869909778,-0.003900190188421282
-0.1021141929847783,0.5495585869909778,-0.01668151848755089
-0.1020861129847783,0.5495585869909778,-0.005245593167277031
-0.1020580329847783,0.5495585869909778,-0.0112999065721279
-0.1020299529847783,0.5495585869909778,-0.003563839443707346
-0.1020018729847783,0.5495585869909778,-0.005245593167277031
-0.1019737929847783,0.5495585869909778,-0.00659099614613278
-0.1019457129847783,0.5495585869909778,-0.007263697635560655
-0.1019176329847783,0.5495585869909778,-0.01567246625340908
-0.1018895529847783,0.5495585869909778,-0.0112999065721279
-0.1018614729847783,0.5495585869909778,0.003835876939999273
-0.1018333929847783,0.5495585869909778,-0.005245593167277031
-0.1018053129847783,0.5495585869909778,-0.01365436178512546
-0.1017772329847783,0.5495585869909778,-0.01533611550869515
-0.1017491529847783,0.5495585869909778,-0.008609100614416403
-0.1017210729847783,0.5495585869909778,-0.005581943911990969
-0.1016929929847783,0.5495585869909778,-0.003563839443707346
-0.1016649129847783,0.5495585869909778,0.0001360187481459635
-0.1016368329847783,0.5495585869909778,-0.009281802103844277
-0.1016087529847783,0.5495585869909778,-0.007263697635560655
-0.1015806729847783,0.5495585869909778,-0.009281802103844277
-0.1015525929847783,0.5495585869909778,-0.01230895880626971
-0.1015245129847783,0.5495585869909778,0.002154123216429586
-0.1014964329847783,0.5495585869909778,-0.005245593167277031
-0.1014683529847783,0.5495585869909778,-0.01331801104040786
-0.1014402729847783,0.5495585869909778,-0.002218436464856645
-0.1014121929847783,0.5495585869909778,-0.01331801104040999
-0.1013841129847783,0.5495585869909778,-0.009954503593269246
-0.1013560329847783,0.5495585869909778,-0.003563839443709946
-0.1013279529847783,0.5495585869909778,-0.009281802103844277
-0.1012998729847783,0.5495585869909778,-0.005581943911990969
-0.1012717929847783,0.5495585869909778,-0.0112999065721279
-0.1012437129847783,0.5495585869909778,-0.005581943911990969
-0.1012156329847783,0.5495585869909778,-0.001209384230709785
-0.1011875529847783,0.5495585869909778,-0.008609100614416403
-0.1011594729847783,0.5495585869909778,-0.0005366827412819109
-0.1011313929847783,0.5495585869909778,-0.006254645401418843
-0.1011033129847783,0.5495585869909778,-0.01331801104041152
-0.1010752329847783,0.5495585869909778,-0.005245593167277031
-0.1010471529847783,0.5495585869909778,0.0001360187481459635
-0.1010190729847783,0.5495585869909778,-0.01432706327455334
-0.1009909929847783,0.5495585869909778,0.005853981408282896
-0.1009629129847783,0.5495585869909778,-0.003563839443707346
-0.1009348329847783,0.5495585869909778,-0.01331801104041152
-0.1009067529847783,0.5495585869909778,-0.01096355582741396
-0.1008786729847783,0.5495585869909778,-0.002891137954279471
-0.1008505929847783,0.5495585869909778,-0.001545734975423722
-0.1008225129847783,0.5495585869909778,-0.001882085720137659
-0.1007944329847783,0.5495585869909778,0.001817772471715649
-0.1007663529847783,0.5495585869909778,-0.008272749869702466
-0.1007382729847783,0.5495585869909778,-0.002891137954279471
-0.1007101929847783,0.5495585869909778,-0.007600048380274592
-0.1006821129847783,0.5495585869909778,-0.007600048380274592
-0.1006540329847783,0.5495585869909778,0.007535735131852582
-0.1006259529847783,0.5495585869909778,-0.001882085720137659
-0.1005978729847783,0.5495585869909778,-0.007600048380274592
-0.1005697929847783,0.5492204548742536,0.0008087202375738378
-0.1005417129847783,0.5495585869909778,-0.00894545135913034
-0.1005136329847783,0.5495585869909778,-0.003900190188421282
-0.1004855529847783,0.5495585869909778,-0.003900190188421282
-0.1004574729847783,0.5495585869909778,-0.008272749869702466
-0.1004293929847783,0.5495585869909778,0.002826824705857461
-0.1004013129847783,0.5495585869909778,-0.007263697635560655
-0.1003732329847783,0.5495585869909778,-0.001882085720137659
-0.1003451529847783,0.5495585869909778,0.001481421727001712
-0.1003170729847783,0.5495585869909778,-0.001882085720137659
-0.1002889929847783,0.549896719107702,-0.006254645401418843
-0.1002609129847783,0.5495585869909778,0.001481421727001712
-0.1002328329847783,0.5495585869909778,-0.007263697635560655
-0.1002047529847783,0.5495585869909778,-0.001545734975423722
-0.1001766729847783,0.5495585869909778,0.003163175450571398
-0.1001485929847783,0.5495585869909778,0.001481421727001712
-0.1001205129847783,0.5495585869909778,-0.01062720508270003
-0.1000924329847783,0.5495585869909778,0.004172227684713209
-0.1000643529847783,0.549896719107702,-0.0005366827412819109
-0.1000362729847783,0.5495585869909778,-0.003227488698993408
-0.1000081929847783,0.5495585869909778,-0.002218436464851597
-0.0999801129847783,0.5495585869909778,-0.01298166029569759
-0.0999520329847783,0.5495585869909778,0.007535735131852582
-0.0999239529847783,0.5495585869909778,0.001145070982287775
-0.0998958729847783,0.5495585869909778,-0.01466341401926727
-0.0998677929847783,0.5495585869909778,0.004172227684713209
-0.0998397129847783,0.5495585869909778,-0.002218436464851597
-0.0998116329847783,0.5495585869909778,-0.00894545135913034
-0.0997835529847783,0.5495585869909778,0.002826824705857461
-0.0997554729847783,0.5495585869909778,0.003835876939998814
-0.0997273929847783,0.5495585869909778,-0.005581943911986685
-0.09969931298477828,0.5495585869909778,-0.008272749869698795
-0.09967123298477829,0.5495585869909778,-0.000200331996570115
-0.09964315298477829,0.5495585869909778,-0.004909242422562483
-0.09961507298477829,0.5495585869909778,-0.003563839443707346
-0.09958699298477829,0.5495585869909778,0.007872085876566518
-0.09955891298477829,0.5492204548742536,-0.00423654093313522
-0.09953083298477829,0.5495585869909778,-0.001545734975423722
-0.09950275298477829,0.5495585869909778,-0.007263697635560655
-0.09947467298477829,0.5495585869909778,-0.003563839443707346
-0.09944659298477829,0.5495585869909778,0.003835876939999273
-0.09941851298477829,0.5495585869909778,0.0001360187481459635
-0.09939043298477829,0.549896719107702,-0.00659099614613278
-0.09936235298477829,0.5495585869909778,-0.003563839443707346
-0.09933427298477829,0.5495585869909778,-0.004572891677849157
-0.09930619298477829,0.5495585869909778,0.001817772471715649
-0.09927811298477829,0.5495585869909778,-0.006254645401418843
-0.09925003298477829,0.5495585869909778,0.003163175450571398
-0.09922195298477829,0.5495585869909778,-0.0005366827412819109
-0.09919387298477829,0.5495585869909778,0.002490473961143524
-0.09916579298477829,0.5495585869909778,-0.001545734975423722
-0.09913771298477829,0.5495585869909778,-0.001882085720137659
-0.09910963298477829,0.5495585869909778,-0.001882085720137659
-0.09908155298477829,0.5495585869909778,-0.001882085720137659
-0.09905347298477829,0.5495585869909778,-0.001882085720137659
-0.09902539298477829,0.549896719107702,-0.002218436464851597
-0.09899731298477829,0.5495585869909778,-0.001882085720137659
-0.09896923298477829,0.5495585869909778,-0.001882085720137659
-0.09894115298477829,0.5495585869909778,-0.001882085720137659
-0.09891307298477829,0.5495585869909778,-0.001882085720137659
-0.09888499298477829,0.5495585869909778,-0.002218436464851597
-0.09885691298477829,0.5495585869909778,-0.002218436464851597
-0.09882883298477829,0.5495585869909778,-0.001882085720137659
-0.09880075298477829,0.5495585869909778,-0.001882085720137659
-0.09877267298477829,0.5495585869909778,-0.001882085720137659
-0.09874459298477829,0.5495585869909778,-0.001882085720137659
-0.09871651298477829,0.5495585869909778,-0.001882085720137659
-0.09868843298477829,0.5495585869909778,-0.001545734975423722
-0.09866035298477829,0.5495585869909778,-0.001545734975423722
-0.09863227298477829,0.5495585869909778,-0.002218436464851597
-0.09860419298477829,0.5495585869909778,-0.001882085720137659
-0.09857611298477829,0.5495585869909778,-0.001882085720137659
-0.09854803298477829,0.5495585869909778,-0.001882085720137659
-0.09851995298477829,0.5495585869909778,-0.001545734975423722
-0.09849187298477829,0.549896719107702,-0.001882085720137659
-0.0984637929847783,0.5495585869909778,-0.001882085720137659
-0.0984357129847783,0.5495585869909778,-0.001545734975423722
-0.0984076329847783,0.5495585869909778,-0.001545734975423722
-0.0983795529847783,0.5495585869909778,-0.001545734975423722
-0.0983514729847783,0.5495585869909778,-0.001545734975423722
-0.0983233929847783,0.5495585869909778,-0.001545734975423722
-0.0982953129847783,0.5495585869909778,-0.001545734975423722
-0.0982672329847783,0.549896719107702,-0.001545734975423722
-0.0982391529847783,0.549896719107702,-0.001209384230709785
-0.0982110729847783,0.549896719107702,-0.001545734975423722
-0.0981829929847783,0.549896719107702,-0.001209384230709785
-0.0981549129847783,0.5495585869909778,-0.001209384230709785
-0.0981268329847783,0.549896719107702,-0.001209384230709785
-0.0980987529847783,0.549896719107702,-0.001209384230709785
-0.0980706729847783,0.5495585869909779,-0.001209384230709785
-0.0980425929847783,0.5495585869909778,-0.000873033485996001
-0.0980145129847783,0.5498967191077019,-0.000873033485995848
-0.09798643298477829,0.5495585869909778,-0.000873033485995695
-0.09795835298477829,0.5495585869909778,-0.0005366827412820639
-0.09793027298477829,0.5495585869909778,-0.000873033485995848
-0.09790219298477829,0.549896719107702,-0.0002003319965679737
-0.09787411298477829,0.549896719107702,-0.0002003319965679737
-0.09784603298477829,0.5495585869909778,-0.0002003319965679737
-0.09781795298477829,0.5495585869909778,-0.0002003319965679737
-0.09778987298477829,0.5495585869909778,0.0001360187481459635
-0.09776179298477829,0.5495585869909778,0.0001360187481459635
-0.09773371298477829,0.5495585869909778,0.0004723694928599007
-0.09770563298477829,0.5495585869909778,0.0004723694928599007
-0.09767755298477829,0.549896719107702,0.0001360187481459635
-0.09764947298477829,0.5495585869909778,0.0008087202375738378
-0.09762139298477829,0.5495585869909778,0.001145070982287775
-0.09759331298477829,0.5495585869909778,0.0008087202375738378
-0.09756523298477829,0.5495585869909778,0.0008087202375738378
-0.09753715298477829,0.5495585869909778,0.001145070982287775
-0.09750907298477829,0.5495585869909778,0.001145070982287775
-0.09748099298477829,0.5495585869909778,0.001145070982287775
-0.09745291298477829,0.5495585869909778,0.001145070982287775
-0.09742483298477829,0.5495585869909778,0.001481421727001712
-0.09739675298477829,0.5495585869909778,0.001481421727001712
-0.09736867298477829,0.5495585869909778,0.001817772471715649
-0.09734059298477829,0.5495585869909778,0.001481421727001712
-0.09731251298477829,0.549896719107702,0.001817772471715649
-0.09728443298477829,0.5495585869909778,0.002154123216429586
-0.09725635298477829,0.5495585869909778,0.002154123216429586
-0.09722827298477829,0.549896719107702,0.002490473961143524
-0.09720019298477829,0.5495585869909778,0.002490473961143524
-0.09717211298477829,0.5495585869909778,0.002490473961143524
-0.09714403298477829,0.5495585869909778,0.002490473961143524
-0.09711595298477829,0.5495585869909778,0.002826824705857461
-0.09708787298477829,0.5495585869909778,0.003163175450571398
-0.09705979298477829,0.5495585869909778,0.002826824705857461
-0.09703171298477829,0.5495585869909778,0.002826824705857461
-0.09700363298477829,0.5495585869909778,0.003163175450571398
-0.09697555298477829,0.5495585869909778,0.003163175450571398
-0.09694747298477829,0.5495585869909778,0.003163175450571398
-0.09691939298477829,0.5495585869909778,0.003163175450571398
-0.09689131298477829,0.5495585869909778,0.003163175450571398
-0.09686323298477829,0.5495585869909778,0.003499526195285335
-0.09683515298477829,0.549896719107702,0.003835876939999273
-0.09680707298477829,0.5495585869909778,0.003835876939999273
-0.09677899298477829,0.5495585869909778,0.003499526195285335
-0.0967509129847783,0.5495585869909778,0.004172227684713209
-0.0967228329847783,0.5495585869909778,0.004172227684713209
-0.0966947529847783,0.5495585869909778,0.003835876939999273
-0.0966666729847783,0.5495585869909778,0.003835876939999273
-0.0966385929847783,0.5495585869909778,0.003835876939999273
-0.0966105129847783,0.5495585869909778,0.003835876939999273
-0.0965824329847783,0.5495585869909778,0.004172227684713209
-0.0965543529847783,0.5495585869909778,0.004172227684713209
-0.0965262729847783,0.5495585869909778,0.004172227684713209
-0.0964981929847783,0.5495585869909778,0.004172227684713209
-0.0964701129847783,0.5495585869909778,0.004508578429427147
-0.0964420329847783,0.5495585869909778,0.004508578429427147
-0.0964139529847783,0.5495585869909778,0.004508578429427147
-0.0963858729847783,0.5495585869909778,0.004508578429427147
-0.0963577929847783,0.5495585869909778,0.004172227684713362
-0.0963297129847783,0.5495585869909778,0.004508578429426994
-0.0963016329847783,0.5495585869909778,0.004508578429427147
-0.09627355298477829,0.5495585869909778,0.004508578429427147
-0.09624547298477829,0.5495585869909779,0.004508578429427147
-0.09621739298477829,0.549896719107702,0.004508578429427147
-0.09618931298477829,0.5495585869909778,0.004508578429427147
-0.09616123298477829,0.5495585869909778,0.004844929174141084
-0.09613315298477829,0.5495585869909778,0.004508578429427147
-0.09610507298477829,0.5495585869909778,0.004172227684713209
-0.09607699298477829,0.5495585869909778,0.004508578429427147
-0.09604891298477829,0.5495585869909778,0.004508578429427147
-0.09602083298477829,0.5495585869909778,0.004508578429427147
-0.09599275298477829,0.5495585869909778,0.004508578429427147
-0.09596467298477829,0.5495585869909778,0.004172227684713209
-0.09593659298477829,0.5495585869909778,0.004508578429427147
-0.09590851298477829,0.5495585869909778,0.004172227684713209
-0.09588043298477829,0.5495585869909778,0.004172227684713209
-0.09585235298477829,0.549896719107702,0.004172227684713209
-0.09582427298477829,0.5495585869909778,0.004172227684713209
-0.09579619298477829,0.549896719107702,0.004508578429427147
-0.09576811298477829,0.5495585869909778,0.004508578429427147
-0.09574003298477829,0.5495585869909778,0.004172227684713209
-0.09571195298477829,0.5495585869909778,0.004172227684713209
-0.09568387298477829,0.5495585869909778,0.004172227684713209
-0.09565579298477829,0.5495585869909778,0.003835876939999273
-0.09562771298477829,0.5495585869909778,0.003835876939999273
-0.09559963298477829,0.5495585869909778,0.003835876939999273
-0.09557155298477829,0.5495585869909778,0.003835876939999273
-0.09554347298477829,0.5495585869909778,0.004172227684713209
-0.09551539298477829,0.5495585869909778,0.003835876939999273
-0.09548731298477829,0.5495585869909778,0.004172227684713209
-0.09545923298477829,0.5495585869909778,0.004172227684713209
-0.09543115298477829,0.5495585869909778,0.004172227684713209
-0.09540307298477829,0.5495585869909778,0.004172227684713209
-0.09537499298477829,0.5495585869909778,0.004508578429427147
-0.09534691298477829,0.5495585869909778,0.004172227684713209
-0.09531883298477829,0.5495585869909778,0.004172227684713209
-0.09529075298477829,0.5495585869909778,0.004172227684713209
-0.09526267298477829,0.5495585869909778,0.004508578429427147
-0.09523459298477829,0.549896719107702,0.004172227684713209
-0.09520651298477829,0.549896719107702,0.004172227684713209
-0.09517843298477829,0.5495585869909778,0.004172227684713209
-0.09515035298477829,0.5495585869909778,0.004172227684713209
-0.09512227298477829,0.5495585869909778,0.004172227684713209
-0.09509419298477829,0.5495585869909778,0.003835876939999273
-0.09506611298477829,0.5495585869909778,0.004172227684713209
-0.0950380329847783,0.5495585869909778,0.004172227684713209
-0.0950099529847783,0.5495585869909778,0.004172227684713209
-0.0949818729847783,0.5495585869909778,0.004172227684713209
-0.0949537929847783,0.5495585869909778,0.004172227684713209
-0.0949257129847783,0.5495585869909778,0.004172227684713209
-0.0948976329847783,0.5495585869909778,0.004172227684713209
-0.0948695529847783,0.5495585869909778,0.004172227684713209
-0.0948414729847783,0.5495585869909778,0.003499526195285335
-0.0948133929847783,0.5492204548742536,0.003163175450571398
-0.0947853129847783,0.5495585869909778,0.002826824705857461
-0.0947572329847783,0.5495585869909778,0.002490473961143524
-0.0947291529847783,0.5495585869909778,0.002154123216429586
-0.0947010729847783,0.5492204548742536,0.002490473961143524
-0.0946729929847783,0.5495585869909778,0.002154123216429586
-0.0946449129847783,0.5495585869909778,0.001817772471715802
-0.0946168329847783,0.5495585869909778,0.001817772471715649
-0.09458875298477828,0.5495585869909778,0.001817772471715649
-0.09456067298477829,0.5495585869909779,0.001817772471715649
-0.09453259298477829,0.5498967191077019,0.001817772471715649
-0.09450451298477829,0.5495585869909778,0.001817772471715649
-0.09447643298477829,0.5495585869909778,0.001481421727001712
-0.09444835298477829,0.5495585869909778,0.001481421727001712
-0.09442027298477829,0.5495585869909778,0.001481421727001712
-0.09439219298477829,0.5495585869909778,0.001481421727001712
-0.09436411298477829,0.5495585869909778,0.001481421727001712
-0.09433603298477829,0.5495585869909778,0.001481421727001712
-0.09430795298477829,0.5495585869909778,0.001481421727001712
-0.09427987298477829,0.5492204548742536,0.001481421727001712
-0.09425179298477829,0.5495585869909778,0.001481421727001712
-0.09422371298477829,0.5492204548742536,0.001481421727001712
-0.09419563298477829,0.5495585869909778,0.001481421727001712
-0.09416755298477829,0.5495585869909778,0.001481421727001712
-0.09413947298477829,0.5495585869909778,0.001145070982287775
-0.09411139298477829,0.5495585869909778,0.001481421727001712
-0.09408331298477829,0.5495585869909778,0.001481421727001712
-0.09405523298477829,0.5495585869909778,0.001145070982287775
-0.09402715298477829,0.5495585869909778,0.001481421727001712
-0.09399907298477829,0.5495585869909778,0.001145070982287775
-0.09397099298477829,0.5495585869909778,0.001145070982287775
-0.09394291298477829,0.549896719107702,-0.0002003319965679737
-0.09391483298477829,0.5495585869909778,-0.001209384230709785
-0.09388675298477829,0.5495585869909778,-0.001545734975423722
-0.09385867298477829,0.5495585869909778,-0.001545734975423722
-0.09383059298477829,0.5495585869909778,-0.001545734975423722
-0.09380251298477829,0.5495585869909778,-0.001545734975423722
-0.09377443298477829,0.5495585869909778,-0.001545734975423722
-0.09374635298477829,0.5495585869909778,-0.001882085720137659
-0.09371827298477829,0.5495585869909778,-0.001545734975423722
-0.09369019298477829,0.5495585869909778,-0.001545734975423722
-0.09366211298477829,0.5495585869909778,-0.001545734975423722
-0.09363403298477829,0.5495585869909778,-0.001882085720137659
-0.09360595298477829,0.5495585869909778,-0.001882085720137659
-0.09357787298477829,0.5495585869909778,-0.001545734975423722
-0.09354979298477829,0.5495585869909778,-0.001545734975423722
-0.09352171298477829,0.5495585869909778,-0.001545734975423722
-0.09349363298477829,0.5495585869909778,-0.001545734975423722
-0.09346555298477829,0.549896719107702,-0.001545734975423722
-0.09343747298477829,0.549896719107702,-0.001545734975423722
-0.09340939298477829,0.549896719107702,-0.001545734975423722
-0.09338131298477829,0.549896719107702,-0.001545734975423722
-0.09335323298477829,0.5495585869909778,-0.001882085720137659
-0.0933251529847783,0.5495585869909778,-0.001545734975423722
-0.0932970729847783,0.5495585869909778,-0.001545734975423722
-0.0932689929847783,0.5495585869909778,-0.001545734975423722
-0.0932409129847783,0.5495585869909778,-0.001882085720137659
-0.0932128329847783,0.5495585869909778,-0.001882085720137659
-0.0931847529847783,0.5495585869909778,-0.001882085720137659
-0.0931566729847783,0.5495585869909778,-0.001545734975423722
-0.0931285929847783,0.5495585869909778,-0.001545734975423722
-0.0931005129847783,0.549896719107702,-0.001882085720137659
-0.0930724329847783,0.549896719107702,-0.001882085720137659
-0.0930443529847783,0.5495585869909778,-0.001882085720137659
-0.0930162729847783,0.549896719107702,-0.001882085720137659
-0.0929881929847783,0.5495585869909778,-0.001882085720137659
-0.0929601129847783,0.5495585869909778,-0.001882085720137659
-0.0929320329847783,0.5495585869909778,-0.001545734975423875
-0.0929039529847783,0.5498967191077019,-0.001545734975423722
-0.09287587298477828,0.5495585869909778,-0.001545734975423722
-0.09284779298477829,0.5495585869909778,-0.001545734975423722
-0.09281971298477829,0.5495585869909778,-0.001545734975423722
-0.09279163298477829,0.5495585869909778,-0.001545734975423722
-0.09276355298477829,0.5495585869909778,-0.001545734975423722
-0.09273547298477829,0.549896719107702,-0.001545734975423722
-0.09270739298477829,0.5495585869909778,-0.001882085720137659
-0.09267931298477829,0.5495585869909778,-0.001882085720137659
-0.09265123298477829,0.549896719107702,-0.001545734975423722
-0.09262315298477829,0.5495585869909778,-0.001545734975423722
-0.09259507298477829,0.5495585869909778,-0.001882085720137659
-0.09256699298477829,0.5495585869909778,-0.001882085720137659
-0.09253891298477829,0.5495585869909778,-0.001545734975423722
-0.09251083298477829,0.549896719107702,-0.001545734975423722
-0.09248275298477829,0.5495585869909778,-0.001545734975423722
-0.09245467298477829,0.549896719107702,-0.001545734975423722
-0.09242659298477829,0.549896719107702,-0.001545734975423722
-0.09239851298477829,0.549896719107702,-0.001209384230709785
-0.09237043298477829,0.549896719107702,-0.001545734975423722
-0.09234235298477829,0.549896719107702,-0.001545734975423722
-0.09231427298477829,0.5495585869909778,-0.001545734975423722
-0.09228619298477829,0.5495585869909778,-0.001545734975423722
-0.09225811298477829,0.5495585869909778,-0.001545734975423722
-0.09223003298477829,0.5495585869909778,-0.001209384230709785
-0.09220195298477829,0.5495585869909778,-0.001545734975423722
-0.09217387298477829,0.5495585869909778,-0.001882085720137659
-0.09214579298477829,0.5495585869909778,-0.001545734975423722
-0.09211771298477829,0.5495585869909778,-0.001545734975423722
-0.09208963298477829,0.5495585869909778,-0.001545734975423722
-0.09206155298477829,0.5495585869909778,-0.001545734975423722
-0.09203347298477829,0.5495585869909778,-0.001545734975423722
-0.09200539298477829,0.5495585869909778,-0.001545734975423722
-0.09197731298477829,0.549896719107702,-0.001545734975423722
-0.09194923298477829,0.549896719107702,-0.001545734975423722
-0.09192115298477829,0.549896719107702,-0.001882085720137659
-0.09189307298477829,0.549896719107702,-0.001545734975423722
-0.09186499298477829,0.5495585869909778,-0.001545734975423722
-0.09183691298477829,0.5495585869909778,-0.001545734975423722
-0.09180883298477829,0.549896719107702,-0.001545734975423722
-0.09178075298477829,0.549896719107702,-0.001545734975423722
-0.09175267298477829,0.549896719107702,-0.001545734975423722
-0.09172459298477829,0.5495585869909778,-0.001545734975423722
-0.09169651298477829,0.5495585869909778,-0.001882085720137659
-0.09166843298477829,0.5495585869909778,-0.001882085720137659
-0.09164035298477829,0.5495585869909778,-0.001882085720137659
-0.0916122729847783,0.5495585869909778,-0.001545734975423722
-0.0915841929847783,0.5495585869909778,-0.001545734975423722
-0.0915561129847783,0.549896719107702,-0.001882085720137659
-0.0915280329847783,0.5495585869909778,-0.001882085720137659
-0.0914999529847783,0.5495585869909778,-0.001882085720137659
-0.0914718729847783,0.5495585869909778,-0.001545734975423722
-0.0914437929847783,0.5495585869909778,-0.001545734975423722
-0.0914157129847783,0.5495585869909778,-0.001882085720137659
-0.0913876329847783,0.549896719107702,-0.001882085720137659
-0.0913595529847783,0.5495585869909778,-0.001545734975423722
-0.0913314729847783,0.5495585869909778,-0.001545734975423722
-0.0913033929847783,0.5495585869909778,-0.001882085720137659
-0.0912753129847783,0.5495585869909778,-0.002218436464851597
-0.0912472329847783,0.5495585869909778,-0.001545734975424028
-0.0912191529847783,0.5495585869909778,-0.001545734975423722
-0.0911910729847783,0.5495585869909778,-0.001545734975423722
-0.09116299298477828,0.5495585869909778,-0.001882085720137659
-0.09113491298477829,0.5495585869909779,-0.001882085720137659
-0.09110683298477829,0.549896719107702,-0.001882085720137659
-0.09107875298477829,0.5495585869909778,-0.001545734975423722
-0.09105067298477829,0.5495585869909778,-0.001545734975423722
-0.09102259298477829,0.549896719107702,-0.001882085720137659
-0.09099451298477829,0.5495585869909778,-0.001882085720137659
-0.09096643298477829,0.549896719107702,-0.001545734975423722
-0.09093835298477829,0.5495585869909778,-0.001545734975423722
-0.09091027298477829,0.5495585869909778,-0.001882085720137659
-0.09088219298477829,0.549896719107702,-0.001882085720137659
-0.09085411298477829,0.549896719107702,-0.001882085720137659
-0.09082603298477829,0.549896719107702,-0.001545734975423722
-0.09079795298477829,0.5495585869909778,-0.001882085720137659
-0.09076987298477829,0.549896719107702,-0.001882085720137659
-0.09074179298477829,0.549896719107702,-0.001882085720137659
-0.09071371298477829,0.5495585869909778,-0.001882085720137659
-0.09068563298477829,0.5495585869909778,-0.001545734975423722
-0.09065755298477829,0.5495585869909778,-0.001882085720137659
-0.09062947298477829,0.5495585869909778,-0.002218436464851597
-0.09060139298477829,0.5495585869909778,-0.001882085720137659
-0.09057331298477829,0.5495585869909778,-0.001882085720137659
-0.09054523298477829,0.5495585869909778,-0.001882085720137659
-0.09051715298477829,0.5495585869909778,-0.001882085720137659
-0.09048907298477829,0.5495585869909778,-0.002218436464851597
-0.09046099298477829,0.5495585869909778,-0.001882085720137659
-0.09043291298477829,0.5495585869909778,-0.001882085720137659
-0.09040483298477829,0.5495585869909778,-0.003900190188421282
-0.09037675298477829,0.5495585869909778,-0.002554787209565534
-0.09034867298477829,0.5495585869909778,-0.002891137954279471
-0.09032059298477829,0.549896719107702,-0.001545734975423722
-0.09029251298477829,0.549896719107702,-0.002891137954279471
-0.09026443298477829,0.5495585869909778,-0.001209384230709785
-0.09023635298477829,0.5495585869909778,-0.001545734975423722
-0.09020827298477829,0.5495585869909778,-0.00423654093313522
-0.09018019298477829,0.5495585869909778,-0.002218436464851597
-0.09015211298477829,0.5495585869909778,0.0004723694928599007
-0.09012403298477829,0.549896719107702,-0.001882085720137659
-0.09009595298477829,0.5495585869909778,-0.00423654093313522
-0.09006787298477829,0.549896719107702,-0.0002003319965679737
-0.09003979298477829,0.549896719107702,-0.001209384230709785
-0.09001171298477829,0.5495585869909778,-0.002891137954279471
-0.08998363298477829,0.5495585869909778,-0.002218436464851597
-0.08995555298477829,0.5495585869909778,0.0001360187481459635
-0.08992747298477829,0.5495585869909778,-0.003227488698993408
-0.0898993929847783,0.5495585869909778,-0.003900190188421282
-0.0898713129847783,0.549896719107702,-0.002218436464851597
-0.0898432329847783,0.5495585869909778,-0.002891137954279471
-0.0898151529847783,0.5495585869909778,-0.001882085720137659
-0.0897870729847783,0.5495585869909778,0.0008087202375738378
-0.0897589929847783,0.5495585869909778,-0.0005366827412819109
-0.0897309129847783,0.5495585869909778,-0.005245593167277031
-0.0897028329847783,0.5495585869909778,0.001145070982287775
-0.0896747529847783,0.5495585869909778,-0.000873033485995848
-0.0896466729847783,0.5495585869909778,-0.001882085720137659
-0.0896185929847783,0.5495585869909778,-0.001882085720137659
-0.0895905129847783,0.549896719107702,-0.002218436464851597
-0.0895624329847783,0.5495585869909778,-0.001882085720137659
-0.0895343529847783,0.5495585869909778,-0.001882085720137659
-0.0895062729847783,0.5495585869909778,-0.001882085720137659
-0.08947819298477828,0.5495585869909778,-0.001882085720137812
-0.08945011298477828,0.5495585869909778,-0.002218436464851444
-0.08942203298477829,0.5495585869909778,-0.001882085720137659
-0.08939395298477829,0.5495585869909778,-0.001882085720137659
-0.08936587298477829,0.5495585869909778,-0.001882085720137659
-0.08933779298477829,0.549896719107702,-0.002218436464851597
-0.08930971298477829,0.5495585869909778,-0.001882085720137659
-0.08928163298477829,0.549896719107702,-0.001882085720137659
-0.08925355298477829,0.5495585869909778,-0.002218436464851597
-0.08922547298477829,0.5495585869909778,-0.001882085720137659
-0.08919739298477829,0.5495585869909778,-0.002218436464851597
-0.08916931298477829,0.549896719107702,-0.001882085720137659
-0.08914123298477829,0.5495585869909778,-0.001882085720137659
-0.08911315298477829,0.549896719107702,-0.001882085720137659
-0.08908507298477829,0.549896719107702,-0.001882085720137659
-0.08905699298477829,0.5495585869909778,-0.001882085720137659
-0.08902891298477829,0.549896719107702,-0.001882085720137659
-0.08900083298477829,0.549896719107702,-0.002218436464851597
-0.08897275298477829,0.5495585869909778,-0.002218436464851597
-0.08894467298477829,0.5495585869909778,-0.002218436464851597
-0.08891659298477829,0.5495585869909778,-0.002218436464851597
-0.08888851298477829,0.5495585869909778,-0.002218436464851597
-0.08886043298477829,0.5495585869909778,-0.002218436464851597
-0.08883235298477829,0.5495585869909778,-0.008609100614416403
-0.08880427298477829,0.5495585869909778,-0.001882085720137659
-0.08877619298477829,0.5495585869909778,-0.005918294656704906
-0.08874811298477829,0.5495585869909778,-0.002218436464851597
-0.08872003298477829,0.5495585869909778,-0.001882085720137659
-0.08869195298477829,0.5495585869909778,-0.001882085720137659
-0.08866387298477829,0.5495585869909778,-0.001882085720137659
-0.08863579298477829,0.5495585869909778,-0.007263697635560655
-0.08860771298477829,0.5495585869909778,-0.002891137954279471
-0.08857963298477829,0.5495585869909778,0.003499526195285335
-0.08855155298477829,0.5495585869909778,-0.0002003319965679737
-0.08852347298477829,0.5495585869909778,-0.008272749869702466
-0.08849539298477829,0.5495585869909778,0.003499526195285335
-0.08846731298477829,0.5495585869909778,-0.0002003319965679737
-0.08843923298477829,0.5492204548742536,-0.005918294656704906
-0.08841115298477829,0.5495585869909778,-0.001209384230709785
-0.08838307298477829,0.5495585869909778,-0.0005366827412819109
-0.08835499298477829,0.5495585869909778,-0.007263697635560655
-0.08832691298477829,0.5495585869909778,-0.001209384230709785
-0.08829883298477829,0.5495585869909778,-0.004909242422563094
-0.08827075298477829,0.5495585869909778,-0.003227488698993408
-0.08824267298477829,0.5495585869909778,0.005517630663568958
-0.0882145929847783,0.5495585869909778,-0.007263697635560655
-0.0881865129847783,0.5495585869909778,-0.00423654093313522
-0.0881584329847783,0.5495585869909778,-0.002891137954279471
-0.0881303529847783,0.5495585869909778,0.0001360187481459635
-0.0881022729847783,0.5495585869909778,-0.000873033485995848
-0.0880741929847783,0.5495585869909778,-0.004909242422563094
-0.0880461129847783,0.5495585869909778,-0.0002003319965679737
-0.0880180329847783,0.5495585869909778,-0.00423654093313522
-0.0879899529847783,0.5495585869909778,0.0004723694928599007
-0.0879618729847783,0.5495585869909778,-0.0005366827412819109
-0.0879337929847783,0.549896719107702,0.0004723694928599007
-0.0879057129847783,0.5495585869909778,-0.007600048380274592
-0.0878776329847783,0.5495585869909778,0.006863033642424707
-0.0878495529847783,0.5495585869909778,0.0001360187481459635
-0.0878214729847783,0.5495585869909778,-0.001882085720136742
-0.0877933929847783,0.5495585869909778,-0.001545734975423875
-0.08776531298477828,0.5495585869909778,-0.002891137954278859
-0.08773723298477829,0.5495585869909779,-0.001545734975423722
-0.08770915298477829,0.549896719107702,-0.001545734975423722
-0.08768107298477829,0.549896719107702,-0.004572891677849157
-0.08765299298477829,0.549896719107702,-0.002218436464851597
-0.08762491298477829,0.549896719107702,0.0001360187481459635
-0.08759683298477829,0.5495585869909778,-0.001209384230709785
-0.08756875298477829,0.549896719107702,-0.00423654093313522
-0.08754067298477829,0.549896719107702,-0.000873033485995848
-0.08751259298477829,0.549896719107702,-0.001209384230709785
-0.08748451298477829,0.5495585869909778,-0.001882085720137659
-0.08745643298477829,0.5495585869909778,-0.003227488698993408
-0.08742835298477829,0.5495585869909778,-0.001209384230709785
-0.08740027298477829,0.5495585869909778,-0.002218436464851597
-0.08737219298477829,0.5495585869909778,-0.003227488698993408
-0.08734411298477829,0.5495585869909778,-0.001209384230709785
-0.08731603298477829,0.5495585869909778,-0.002554787209565534
-0.08728795298477829,0.5495585869909778,-0.001882085720137659
-0.08725987298477829,0.5495585869909778,0.0004723694928599007
-0.08723179298477829,0.5495585869909778,-0.001545734975423722
-0.08720371298477829,0.549896719107702,-0.005245593167277031
-0.08717563298477829,0.5495585869909778,0.001481421727001712
-0.08714755298477829,0.5495585869909778,-0.001209384230709785
-0.08711947298477829,0.5495585869909778,-0.002218436464851597
-0.08709139298477829,0.5495585869909778,-0.001882085720137659
-0.08706331298477829,0.5495585869909778,-0.001882085720137659
-0.08703523298477829,0.5495585869909778,-0.001882085720137659
-0.08700715298477829,0.5495585869909778,-0.001882085720137659
-0.08697907298477829,0.5495585869909778,-0.002218436464851597
-0.08695099298477829,0.5495585869909778,-0.001882085720137659
-0.08692291298477829,0.5495585869909778,-0.002218436464851597
-0.08689483298477829,0.5495585869909778,-0.002218436464851597
-0.08686675298477829,0.5495585869909778,-0.002218436464851597
-0.08683867298477829,0.5495585869909778,-0.002218436464851597
-0.08681059298477829,0.5495585869909778,-0.002218436464851597
-0.08678251298477829,0.5495585869909778,-0.002218436464851597
-0.08675443298477829,0.5495585869909778,-0.002218436464851597
-0.08672635298477829,0.5495585869909778,-0.002218436464851597
-0.08669827298477829,0.5495585869909778,-0.002218436464851597
-0.08667019298477829,0.5495585869909778,-0.002218436464851597
-0.08664211298477829,0.5495585869909778,-0.002218436464851597
-0.08661403298477829,0.5495585869909778,-0.002218436464851597
-0.08658595298477829,0.5495585869909778,-0.002218436464851597
-0.08655787298477829,0.5495585869909778,-0.002218436464851597
-0.08652979298477829,0.5495585869909778,-0.002218436464851597
-0.0865017129847783,0.5495585869909778,-0.001882085720137659
-0.0864736329847783,0.5495585869909778,-0.002218436464851597
-0.0864455529847783,0.5495585869909778,-0.002218436464851597
-0.0864174729847783,0.5495585869909778,-0.002218436464851597
-0.0863893929847783,0.5495585869909778,-0.001882085720137659
-0.0863613129847783,0.5495585869909778,-0.001882085720137659
-0.0863332329847783,0.5495585869909778,-0.002218436464851597
-0.0863051529847783,0.5495585869909778,-0.002218436464851597
-0.0862770729847783,0.5495585869909778,-0.002218436464851597
-0.0862489929847783,0.5495585869909778,-0.002218436464851597
-0.0862209129847783,0.5492204548742536,-0.002218436464851597
-0.0861928329847783,0.5495585869909778,-0.002218436464851597
-0.0861647529847783,0.5495585869909778,-0.002218436464851597
-0.0861366729847783,0.5495585869909778,-0.001882085720137813
-0.0861085929847783,0.5495585869909778,-0.002218436464851444
-0.0860805129847783,0.5495585869909778,-0.001882085720137813
-0.08605243298477828,0.5495585869909778,-0.002218436464851597
-0.08602435298477829,0.5495585869909778,-0.002218436464851597
-0.08599627298477829,0.5495585869909778,-0.002218436464851597
-0.08596819298477829,0.5495585869909778,-0.001882085720137659
-0.08594011298477829,0.5495585869909778,-0.002218436464851597
-0.08591203298477829,0.5495585869909778,-0.002218436464851597
-0.08588395298477829,0.5495585869909778,-0.001882085720137659
-0.08585587298477829,0.5495585869909778,-0.001882085720137659
-0.08582779298477829,0.5495585869909778,-0.002218436464851597
-0.08579971298477829,0.5495585869909778,-0.002218436464851597
-0.08577163298477829,0.5495585869909778,-0.005245593167277031
-0.08574355298477829,0.5495585869909778,-0.001882085720137659
-0.08571547298477829,0.5495585869909778,-0.01163625731684184
-0.08568739298477829,0.5495585869909778,0.004844929174141084
-0.08565931298477829,0.5495585869909778,-0.0002003319965679737
-0.08563123298477829,0.5495585869909778,-0.01062720508270003
-0.08560315298477829,0.5495585869909778,0.003499526195285335
-0.08557507298477829,0.5495585869909778,-0.008609100614416403
-0.08554699298477829,0.5495585869909778,-0.003563839443707346
-0.08551891298477829,0.5495585869909778,0.0004723694928599007
-0.08549083298477829,0.5495585869909778,0.003163175450571398
-0.08546275298477829,0.5495585869909778,-0.008609100614416403
-0.08543467298477829,0.5495585869909778,0.0001360187481459635
-0.08540659298477829,0.5495585869909778,0.00652668289771077
-0.08537851298477829,0.5495585869909778,-0.01197260806155578
-0.08535043298477829,0.5495585869909778,-0.0002003319965679737
-0.08532235298477829,0.5495585869909778,-0.0005366827412819109
-0.08529427298477829,0.5495585869909778,-0.004572891677849157
-0.08526619298477829,0.5495585869909778,-0.000873033485995848
-0.08523811298477829,0.5495585869909778,-0.004572891677849157
-0.08521003298477829,0.5495585869909778,-0.004909242422563094
-0.08518195298477829,0.5495585869909778,0.003499526195285335
-0.08515387298477829,0.5495585869909778,-0.007263697635560655
-0.08512579298477829,0.5495585869909778,-0.002891137954279471
-0.08509771298477829,0.5495585869909778,0.004844929174141084
-0.08506963298477829,0.5495585869909778,-0.004909242422563094
-0.08504155298477829,0.5495585869909778,-0.005581943911990969
-0.08501347298477829,0.5495585869909778,0.009890190344850142
-0.08498539298477829,0.5495585869909778,-0.005581943911990969
-0.08495731298477829,0.5495585869909778,-0.00659099614613278
-0.08492923298477829,0.5495585869909778,-0.002218436464851597
-0.08490115298477829,0.549896719107702,-0.005245593167277031
-0.08487307298477829,0.5495585869909778,-0.003563839443707346
-0.08484499298477829,0.5495585869909778,0.002826824705857461
-0.08481691298477829,0.5495585869909778,-0.004909242422563094
-0.0847888329847783,0.5495585869909778,0.003835876939999273
-0.0847607529847783,0.5495585869909778,-0.004572891677849157
-0.0847326729847783,0.5495585869909778,-0.004572891677849157
-0.0847045929847783,0.549896719107702,-0.004572891677849157
-0.0846765129847783,0.5495585869909778,-0.0005366827412819109
-0.0846484329847783,0.5495585869909778,-0.003227488698993408
-0.0846203529847783,0.5495585869909778,-0.005918294656704906
-0.0845922729847783,0.5495585869909778,-0.004572891677849157
-0.0845641929847783,0.5495585869909778,-0.001545734975423722
-0.0845361129847783,0.5495585869909778,-0.006927346890846718
-0.0845080329847783,0.5495585869909778,-0.004909242422563094
-0.0844799529847783,0.5495585869909778,0.001145070982287775
-0.0844518729847783,0.549896719107702,0.003835876939999273
-0.0844237929847783,0.5495585869909779,-0.01634516774282778
-0.0843957129847783,0.5495585869909778,-0.001209384230716669
-0.08436763298477828,0.5495585869909778,0.003163175450566351
-0.08433955298477828,0.5495585869909778,-0.007936399124988528
-0.08431147298477829,0.5495585869909778,-0.007936399124989599
-0.08428339298477829,0.5495585869909778,-0.01029085433798609
-0.08425531298477829,0.5495585869909778,-0.007936399124988528
-0.08422723298477829,0.5495585869909778,0.002826824705857461
-0.08419915298477829,0.5495585869909778,-0.01230895880626971
-0.08417107298477829,0.5495585869909778,0.0004723694928599007
-0.08414299298477829,0.5495585869909778,0.0008087202375738378
-0.08411491298477829,0.5495585869909778,-0.008609100614416403
-0.08408683298477829,0.5495585869909778,-0.01298166029569759
-0.08405875298477829,0.5495585869909778,-0.005245593167277031
-0.08403067298477829,0.5495585869909778,-0.01230895880626971
-0.08400259298477829,0.5495585869909778,-0.002218436464851597
-0.08397451298477829,0.5495585869909778,-0.00423654093313522
-0.08394643298477829,0.5495585869909778,-0.005581943911990969
-0.08391835298477829,0.5495585869909778,-0.007600048380274592
-0.08389027298477829,0.5495585869909778,-0.01197260806155578
-0.08386219298477829,0.5495585869909778,-0.007600048380274592
-0.08383411298477829,0.5495585869909778,-0.0139907125298394
-0.08380603298477829,0.5495585869909778,-0.007936399124988528
-0.08377795298477829,0.5495585869909778,0.002490473961143524
-0.08374987298477829,0.5495585869909778,-0.009618152848558215
-0.08372179298477829,0.5495585869909778,-0.007936399124988528
-0.08369371298477829,0.5495585869909778,-0.003563839443707346
-0.08366563298477829,0.5495585869909778,-0.009954503593272152
-0.08363755298477829,0.5495585869909778,-0.001209384230709785
-0.08360947298477829,0.5495585869909778,-0.009618152848558215
-0.08358139298477829,0.5495585869909778,-0.003227488698993408
-0.08355331298477829,0.5495585869909778,-0.01634516774283696
-0.08352523298477829,0.5492204548742536,-0.007600048380274592
-0.08349715298477829,0.5495585869909778,-0.0112999065721279
-0.08346907298477829,0.5495585869909778,0.003163175450571398
-0.08344099298477829,0.5495585869909778,-0.009281802103844277
-0.08341291298477829,0.5495585869909778,-0.01264530955098365
-0.08338483298477829,0.5495585869909778,-0.009281802103844277
-0.08335675298477829,0.5495585869909778,-0.002891137954279471
-0.08332867298477829,0.5495585869909778,0.001817772471715649
-0.08330059298477829,0.5495585869909778,-0.01466341401926727
-0.08327251298477829,0.5495585869909778,-0.003227488698993408
-0.08324443298477829,0.5495585869909778,-0.0112999065721279
-0.08321635298477829,0.5495585869909778,0.001481421727001712
-0.08318827298477829,0.5495585869909778,-0.006254645401418843
-0.08316019298477829,0.5492204548742536,-0.005581943911990969
-0.08313211298477829,0.5495585869909778,-0.007600048380274592
-0.08310403298477829,0.5495585869909778,-0.004909242422563094
-0.0830759529847783,0.5495585869909778,-0.01970867518997633
-0.0830478729847783,0.5495585869909778,-0.008609100614416403
-0.0830197929847783,0.5495585869909778,0.003163175450571398
-0.0829917129847783,0.5495585869909778,-0.01499976476398121
-0.0829636329847783,0.549896719107702,-0.006254645401418843
-0.0829355529847783,0.5495585869909778,0.004508578429427147
-0.0829074729847783,0.549896719107702,-0.01264530955098365
-0.0828793929847783,0.549896719107702,-0.007263697635560655
-0.0828513129847783,0.5495585869909778,-0.01163625731684184
-0.0828232329847783,0.5495585869909778,-0.008272749869702466
-0.0827951529847783,0.5495585869909778,-0.000873033485995848
-0.0827670729847783,0.5495585869909778,-0.006927346890846718
-0.0827389929847783,0.5495585869909778,-0.00423654093313522
-0.0827109129847783,0.5495585869909778,-0.006590996146131709
-0.0826828329847783,0.5495585869909778,-0.01197260806155333
-0.08265475298477828,0.549896719107702,-0.005245593167281773
-0.08262667298477828,0.549896719107702,-0.01567246625340587
-0.08259859298477829,0.5498967191077019,-0.00860910061441472
-0.08257051298477829,0.5495585869909778,-0.004909242422563094
-0.08254243298477829,0.5495585869909778,0.002826824705857461
-0.08251435298477829,0.549896719107702,-0.01869962295583452
-0.08248627298477829,0.5495585869909778,-0.005918294656704906
-0.08245819298477829,0.5495585869909778,-0.005581943911990969
-0.08243011298477829,0.5495585869909778,-0.01029085433798609
-0.08240203298477829,0.5495585869909778,-0.004909242422563094
-0.08237395298477829,0.5495585869909778,-0.003563839443707346
-0.08234587298477829,0.5495585869909778,-0.006927346890846718
-0.08231779298477829,0.5495585869909778,-0.009281802103844277
-0.08228971298477829,0.5495585869909778,-0.01197260806155578
-0.08226163298477829,0.5495585869909778,-0.01230895880626971
-0.08223355298477829,0.5495585869909778,-0.003227488698993408
-0.08220547298477829,0.5495585869909778,-0.00423654093313522
-0.08217739298477829,0.5495585869909778,-0.001882085720137659
-0.08214931298477829,0.5495585869909778,-0.00894545135913034
-0.08212123298477829,0.5495585869909778,-0.007936399124988528
-0.08209315298477829,0.5495585869909778,-0.01600881699812302
-0.08206507298477829,0.5495585869909778,0.0004723694928599007
-0.08203699298477829,0.5495585869909778,-0.01298166029569759
-0.08200891298477829,0.549896719107702,-0.01197260806155578
-0.08198083298477829,0.5495585869909778,0.001481421727001712
-0.08195275298477829,0.5495585869909778,-0.01499976476398121
-0.08192467298477829,0.5495585869909778,-0.01230895880626971
-0.08189659298477829,0.5495585869909778,0.004172227684713209
-0.08186851298477829,0.549896719107702,-0.01365436178512546
-0.08184043298477829,0.5495585869909778,-0.006927346890846718
-0.08181235298477829,0.549896719107702,-0.0005366827412819109
-0.08178427298477829,0.549896719107702,-0.01836327221112058
-0.08175619298477829,0.5495585869909778,-0.01096355582741396
-0.08172811298477829,0.5495585869909778,0.004508578429427147
-0.08170003298477829,0.5495585869909778,-0.008609100614416403
-0.08167195298477829,0.5495585869909778,-0.01331801104041152
-0.08164387298477829,0.5495585869909778,-0.01096355582741396
-0.08161579298477829,0.5495585869909778,-0.00659099614613278
-0.08158771298477829,0.5495585869909778,-0.007263697635560655
-0.08155963298477829,0.5495585869909778,-0.007263697635560655
-0.08153155298477829,0.549896719107702,-0.004909242422563094
-0.08150347298477829,0.5495585869909778,-0.00894545135913034
-0.08147539298477829,0.549896719107702,-0.007600048380274592
-0.08144731298477829,0.549896719107702,-0.005918294656704906
-0.08141923298477829,0.5495585869909778,-0.007263697635560655
-0.08139115298477829,0.5495585869909778,-0.01029085433798609
-0.0813630729847783,0.5495585869909778,-0.001209384230709785
-0.0813349929847783,0.5495585869909778,-0.0112999065721279
-0.0813069129847783,0.5495585869909778,-0.006927346890846718
-0.0812788329847783,0.5495585869909778,-0.000873033485995848
-0.0812507529847783,0.5495585869909778,-0.002554787209565534
-0.0812226729847783,0.549896719107702,-0.00659099614613278
-0.0811945929847783,0.5495585869909778,-0.005581943911990969
-0.0811665129847783,0.549896719107702,-0.00894545135913034
-0.0811384329847783,0.549896719107702,-0.009618152848558215
-0.0811103529847783,0.5495585869909778,-0.0005366827412819109
-0.0810822729847783,0.5495585869909778,-0.01567246625340908
-0.0810541929847783,0.5495585869909778,-0.002891137954279471
-0.0810261129847783,0.5495585869909778,0.003835876939996213
-0.0809980329847783,0.5495585869909778,-0.01735421997696913
-0.0809699529847783,0.5498967191077019,-0.005245593167282538
-0.08094187298477828,0.5498967191077019,0.003163175450563903
-0.08091379298477828,0.5495585869909778,-0.01331801104040862
-0.08088571298477829,0.5495585869909778,-0.006927346890846718
-0.08085763298477829,0.5495585869909778,0.008544787365994393
-0.08082955298477829,0.5492204548742536,-0.01466341401926727
-0.08080147298477829,0.5492204548742536,-0.001882085720137659
-0.08077339298477829,0.5495585869909778,0.0004723694928599007
-0.08074531298477829,0.5495585869909778,-0.01062720508270003
-0.08071723298477829,0.5495585869909778,-0.006927346890846718
-0.08068915298477829,0.5495585869909778,0.008544787365994393
-0.08066107298477829,0.5495585869909778,-0.01163625731684184
-0.08063299298477829,0.5495585869909778,-0.003563839443707346
-0.08060491298477829,0.5495585869909778,-0.003900190188421282
-0.08057683298477829,0.5495585869909778,0.002154123216429586
-0.08054875298477829,0.5495585869909778,-0.007600048380274592
-0.08052067298477829,0.5495585869909778,-0.005581943911990969
-0.08049259298477829,0.5495585869909778,0.003499526195285335
-0.08046451298477829,0.5495585869909778,-0.003227488698993408
-0.08043643298477829,0.5495585869909778,-0.00659099614613278
-0.08040835298477829,0.5495585869909778,0.0008087202375738378
-0.08038027298477829,0.5495585869909778,-0.003227488698993408
-0.08035219298477829,0.549896719107702,-0.007936399124988528
-0.08032411298477829,0.5495585869909778,0.003835876939999273
-0.08029603298477829,0.5495585869909778,0.002490473961143524
-0.08026795298477829,0.549896719107702,-0.00659099614613278
-0.08023987298477829,0.5495585869909778,-0.0005366827412819109
-0.08021179298477829,0.5495585869909778,-0.003563839443707346
-0.08018371298477829,0.5495585869909778,-0.009618152848558215
-0.08015563298477829,0.5495585869909778,0.006190332152996833
-0.08012755298477829,0.5495585869909778,0.001481421727001712
-0.08009947298477829,0.5495585869909778,-0.002891137954279471
-0.08007139298477829,0.5495585869909778,-0.002218436464851597
-0.08004331298477829,0.5495585869909778,-0.003563839443707346
-0.08001523298477829,0.5495585869909778,-0.01264530955098365
-0.07998715298477829,0.5495585869909778,0.005853981408282896
-0.07995907298477829,0.5495585869909778,-0.01062720508270003
-0.07993099298477829,0.5495585869909778,-0.001882085720137659
-0.07990291298477829,0.549896719107702,0.004508578429427147
-0.07987483298477829,0.5495585869909778,-0.00894545135913034
-0.07984675298477829,0.5495585869909778,-0.00423654093313522
-0.07981867298477829,0.5495585869909778,0.01089924257899195
-0.07979059298477829,0.5495585869909778,-0.009281802103844277
-0.07976251298477829,0.5495585869909778,-0.001545734975423722
-0.07973443298477829,0.5495585869909778,-0.000873033485995848
-0.07970635298477829,0.5495585869909778,-0.006254645401418843
-0.0796782729847783,0.5495585869909778,-0.004909242422563094
-0.0796501929847783,0.549896719107702,0.009890190344850142
-0.0796221129847783,0.5495585869909778,-0.003900190188421282
-0.0795940329847783,0.5495585869909778,-0.01062720508270003
-0.0795659529847783,0.5495585869909778,0.0004723694928599007
-0.0795378729847783,0.5495585869909778,0.002490473961143524
-0.0795097929847783,0.5495585869909778,-0.006254645401418843
-0.0794817129847783,0.5495585869909778,-0.005918294656704906
-0.0794536329847783,0.5495585869909778,0.003163175450571398
-0.0794255529847783,0.5495585869909778,-0.006927346890846718
-0.0793974729847783,0.5495585869909778,-0.002554787209565534
-0.0793693929847783,0.5495585869909778,0.004508578429427147
-0.0793413129847783,0.5495585869909778,-0.001882085720137659
-0.0793132329847783,0.5495585869909778,-0.007600048380271993
-0.0792851529847783,0.5495585869909778,0.004844929174135425
-0.0792570729847783,0.5495585869909778,0.000136018748148105
-0.07922899298477828,0.5495585869909778,-0.0102908543379789
-0.07920091298477829,0.5495585869909778,0.005517630663564217
-0.07917283298477829,0.5495585869909778,-0.004909242422563094
-0.07914475298477829,0.5495585869909778,0.002154123216429586
-0.07911667298477829,0.5495585869909778,0.002490473961143524
-0.07908859298477829,0.5495585869909778,-0.0139907125298394
-0.07906051298477829,0.5495585869909778,0.001481421727001712
-0.07903243298477829,0.5495585869909778,0.003835876939999273
-0.07900435298477829,0.5495585869909778,-0.0112999065721279
-0.07897627298477829,0.5495585869909778,-0.000873033485995848
-0.07894819298477829,0.5495585869909778,0.009217488855422267
-0.07892011298477829,0.5495585869909778,-0.008609100614416403
-0.07889203298477829,0.5495585869909778,0.001145070982287775
-0.07886395298477829,0.5495585869909778,-0.002218436464851597
-0.07883587298477829,0.5495585869909778,0.0004723694928599007
-0.07880779298477829,0.5495585869909778,-0.00894545135913034
-0.07877971298477829,0.5495585869909778,0.0004723694928599007
-0.07875163298477829,0.5495585869909778,-0.00659099614613278
-0.07872355298477829,0.5495585869909778,-0.001545734975423722
-0.07869547298477829,0.549896719107702,0.0001360187481459635
-0.07866739298477829,0.5495585869909778,0.002826824705857461
-0.07863931298477829,0.5495585869909778,-0.004909242422563094
-0.07861123298477829,0.549896719107702,-0.004909242422563094
-0.07858315298477829,0.5495585869909778,-0.001882085720137659
-0.07855507298477829,0.5495585869909778,-0.001545734975423722
-0.07852699298477829,0.5495585869909778,-0.005245593167277031
-0.07849891298477829,0.5495585869909778,0.001481421727001712
-0.07847083298477829,0.549896719107702,0.003499526195285335
-0.07844275298477829,0.5495585869909778,0.0004723694928599007
-0.07841467298477829,0.5495585869909778,-0.00659099614613278
-0.07838659298477829,0.5495585869909778,-0.008272749869702466
-0.07835851298477829,0.5495585869909778,-0.0002003319965679737
-0.07833043298477829,0.5495585869909778,0.002826824705857461
-0.07830235298477829,0.5495585869909778,-0.007600048380274592
-0.07827427298477829,0.5495585869909778,0.005853981408282896
-0.07824619298477829,0.5495585869909778,0.0008087202375738378
-0.07821811298477829,0.5495585869909778,0.002154123216429586
-0.07819003298477829,0.5495585869909778,-0.00894545135913034
-0.07816195298477829,0.5495585869909778,0.003163175450571398
-0.07813387298477829,0.5495585869909778,0.001481421727001712
-0.07810579298477829,0.5495585869909778,-0.01230895880626971
-0.07807771298477829,0.5495585869909778,0.007872085876566518
-0.07804963298477829,0.5495585869909778,-0.002218436464851597
-0.07802155298477829,0.5495585869909778,-0.007600048380274592
-0.07799347298477829,0.5495585869909778,0.00652668289771077
-0.0779653929847783,0.5495585869909778,0.001817772471715649
-0.0779373129847783,0.5495585869909778,-0.009281802103844277
-0.0779092329847783,0.5495585869909778,0.004844929174141084
-0.0778811529847783,0.5495585869909778,-0.007600048380274592
-0.0778530729847783,0.5495585869909778,-0.002554787209565534
-0.0778249929847783,0.5495585869909778,0.007199384387138645
-0.0777969129847783,0.5495585869909778,-0.004909242422563094
-0.0777688329847783,0.5495585869909778,0.005853981408282896
-0.0777407529847783,0.5495585869909778,0.006190332152996833
-0.0777126729847783,0.5495585869909778,-0.009618152848558215
-0.0776845929847783,0.5495585869909778,-0.0002003319965679737
-0.0776565129847783,0.5495585869909778,0.003499526195285335
-0.0776284329847783,0.5495585869909778,-0.001545734975423722
-0.0776003529847783,0.5495585869909778,-0.002554787209565075
-0.0775722729847783,0.5495585869909778,0.01190829481312719
-0.07754419298477828,0.549896719107702,-0.0005366827412846641
-0.07751611298477828,0.549896719107702,-0.006590996146129262
-0.07748803298477829,0.549896719107702,0.001145070982290375
-0.07745995298477829,0.549896719107702,0.006863033642424707
-0.07743187298477829,0.5495585869909778,0.003163175450571398
-0.07740379298477829,0.5495585869909778,-0.005245593167277031
-0.07737571298477829,0.549896719107702,0.00652668289771077
-0.07734763298477829,0.5495585869909778,-0.003900190188421282
-0.07731955298477829,0.5495585869909778,0.0008087202375738378
-0.07729147298477829,0.5495585869909778,0.009217488855422267
-0.07726339298477829,0.5495585869909778,0.002154123216429586
-0.07723531298477829,0.5495585869909778,-0.002218436464851597
-0.07720723298477829,0.5495585869909778,0.008208436621280455
-0.07717915298477829,0.5495585869909778,-0.002891137954279471
-0.07715107298477829,0.5495585869909778,-0.000873033485995848
-0.07712299298477829,0.5495585869909778,0.01258099630256164
-0.07709491298477829,0.5495585869909778,-0.003227488698993408
-0.07706683298477829,0.5495585869909778,0.007199384387138645
-0.07703875298477829,0.549896719107702,0.008544787365994393
-0.07701067298477829,0.5495585869909778,-0.009281802103844277
-0.07698259298477829,0.5495585869909778,0.006863033642424707
-0.07695451298477829,0.5495585869909778,0.006863033642424707
-0.07692643298477829,0.5495585869909778,-0.005245593167277031
-0.07689835298477829,0.5495585869909778,0.001481421727001712
-0.07687027298477829,0.5495585869909778,0.01628085449441495
-0.07684219298477829,0.5495585869909778,0.002490473961143524
-0.07681411298477829,0.5495585869909778,-0.000873033485995848
-0.07678603298477829,0.5495585869909778,0.003835876939999273
-0.07675795298477829,0.5495585869909778,0.00652668289771077
-0.07672987298477829,0.5495585869909778,0.001145070982287775
-0.07670179298477829,0.5495585869909778,0.001817772471715649
-0.07667371298477829,0.5495585869909778,0.0004723694928599007
-0.07664563298477829,0.5495585869909778,0.002826824705857461
-0.07661755298477829,0.5495585869909778,0.005517630663568958
-0.07658947298477829,0.5495585869909778,0.009553839600136204
-0.07656139298477829,0.5495585869909778,0.005181279918855021
-0.07653331298477829,0.5495585869909778,-0.003900190188421282
-0.07650523298477829,0.5495585869909778,0.00652668289771077
-0.07647715298477829,0.5495585869909778,0.002490473961143524
-0.07644907298477829,0.5495585869909778,0.001481421727001712
-0.07642099298477829,0.5495585869909778,0.009553839600136204
-0.07639291298477829,0.5495585869909778,0.008208436621280455
-0.07636483298477829,0.549896719107702,0.006863033642424707
-0.07633675298477829,0.5495585869909778,0.001481421727001712
-0.07630867298477829,0.5495585869909778,-0.003563839443707346
-0.07628059298477829,0.549896719107702,0.00652668289771077
-0.0762525129847783,0.5495585869909778,0.009553839600136204
-0.0762244329847783,0.549896719107702,-0.002891137954279471
-0.0761963529847783,0.549896719107702,0.01089924257899195
-0.0761682729847783,0.5495585869909778,0.009553839600136204
-0.0761401929847783,0.5495585869909778,0.0008087202375738378
-0.0761121129847783,0.5495585869909778,0.002490473961143524
-0.0760840329847783,0.5495585869909778,0.009553839600136204
-0.0760559529847783,0.5495585869909778,0.003835876939999273
-0.0760278729847783,0.5495585869909778,-0.002554787209565534
-0.0759997929847783,0.5495585869909778,0.01022654108956408
-0.0759717129847783,0.5495585869909778,-0.004572891677849157
-0.0759436329847783,0.5495585869909778,0.004508578429427147
-0.0759155529847783,0.549896719107702,0.01123559332370589
-0.0758874729847783,0.5495585869909779,0.006863033642426695
-0.0758593929847783,0.5495585869909778,-0.001545734975419898
-0.07583131298477828,0.5495585869909778,0.006526682897708476
-0.07580323298477828,0.5495585869909778,0.001481421727002477
-0.07577515298477829,0.5495585869909778,0.003163175450571398
-0.07574707298477829,0.5495585869909778,0.00652668289771077
-0.07571899298477829,0.5495585869909778,0.0004723694928599007
-0.07569091298477829,0.549896719107702,0.01056289183427802
-0.07566283298477829,0.5495585869909778,0.008208436621280455
-0.07563475298477829,0.5495585869909778,-0.004572891677849157
-0.07560667298477829,0.5495585869909778,0.0001360187481459635
-0.07557859298477829,0.5495585869909778,0.007535735131852582
-0.07555051298477829,0.5495585869909778,0.004508578429427147
-0.07552243298477829,0.5495585869909778,0.0001360187481459635
-0.07549435298477829,0.5495585869909778,0.01426275002613133
-0.07546627298477829,0.5495585869909778,0.001817772471715649
-0.07543819298477829,0.5495585869909778,0.006190332152996833
-0.07541011298477829,0.5495585869909778,-0.002554787209565534
-0.07538203298477829,0.5495585869909778,0.00652668289771077
-0.07535395298477829,0.5495585869909778,0.005181279918855021
-0.07532587298477829,0.5495585869909778,-0.001209384230709785
-0.07529779298477829,0.5495585869909778,0.009890190344850142
-0.07526971298477829,0.5495585869909778,0.00888113811070833
-0.07524163298477829,0.5495585869909778,-0.005918294656704906
-0.07521355298477829,0.5495585869909778,0.01089924257899195
-0.07518547298477829,0.5495585869909778,0.003835876939999273
-0.07515739298477829,0.5495585869909778,-0.001209384230709785
-0.07512931298477829,0.549896719107702,0.01157194406841983
-0.07510123298477829,0.5495585869909778,-0.001882085720137659
-0.07507315298477829,0.5495585869909778,0.005181279918855021
-0.07504507298477829,0.549896719107702,0.005517630663568958
-0.07501699298477829,0.5495585869909778,0.005853981408282896
-0.07498891298477829,0.5495585869909778,0.001481421727001712
-0.07496083298477829,0.549896719107702,0.008544787365994393
-0.07493275298477829,0.5495585869909778,0.001817772471715649
-0.07490467298477829,0.5495585869909778,0.004844929174141084
-0.07487659298477829,0.5495585869909778,-0.000873033485995848
-0.07484851298477829,0.5495585869909778,0.005853981408282896
-0.07482043298477829,0.5495585869909778,0.005853981408282896
-0.07479235298477829,0.5495585869909778,0.002826824705857461
-0.07476427298477829,0.5495585869909778,0.005517630663568958
-0.07473619298477829,0.5495585869909778,-0.001882085720137659
-0.07470811298477829,0.5495585869909778,-0.002891137954279471
-0.07468003298477829,0.5495585869909778,0.002826824705857461
-0.07465195298477829,0.5495585869909778,0.01190829481313377
-0.07462387298477829,0.5495585869909778,-0.004909242422563094
-0.07459579298477829,0.549896719107702,0.0008087202375738378
-0.07456771298477829,0.5495585869909778,0.002154123216429586
-0.0745396329847783,0.5495585869909778,-0.0005366827412819109
-0.0745115529847783,0.5495585869909778,0.002490473961143524
-0.0744834729847783,0.5495585869909778,0.01089924257899195
-0.0744553929847783,0.5495585869909778,-0.00894545135913034
-0.0744273129847783,0.5495585869909778,0.005181279918855021
-0.0743992329847783,0.5495585869909778,-0.000873033485995848
-0.0743711529847783,0.5492204548742536,-0.000873033485995848
-0.0743430729847783,0.5495585869909778,0.004508578429427147
-0.0743149929847783,0.5495585869909778,0.00652668289771077
-0.0742869129847783,0.5495585869909778,-0.003227488698993408
-0.0742588329847783,0.5495585869909778,0.005181279918855021
-0.0742307529847783,0.5495585869909778,0.004508578429427147
-0.0742026729847783,0.5495585869909778,0.001145070982289305
-0.0741745929847783,0.5495585869909778,0.003163175450570481
-0.0741465129847783,0.5495585869909778,0.002826824705857614
-0.07411843298477828,0.5495585869909778,-0.007600048380269391
-0.07409035298477828,0.5495585869909778,0.00383587694000019
-0.07406227298477829,0.5495585869909778,0.005853981408282896
-0.07403419298477829,0.5495585869909778,0.003835876939999273
-0.07400611298477829,0.5495585869909778,0.001817772471715649
-0.07397803298477829,0.5495585869909778,-0.000873033485995848
-0.07394995298477829,0.5495585869909778,0.0004723694928599007
-0.07392187298477829,0.5495585869909778,-0.009618152848558215
-0.07389379298477829,0.5495585869909778,-0.005245593167277031
-0.07386571298477829,0.5495585869909778,0.001145070982287775
-0.07383763298477829,0.5495585869909778,0.002826824705857461
-0.07380955298477829,0.5495585869909778,0.001817772471715649
-0.07378147298477829,0.549896719107702,0.002154123216429586
-0.07375339298477829,0.5495585869909778,-0.0139907125298394
-0.07372531298477829,0.5495585869909778,0.005853981408282896
-0.07369723298477829,0.5495585869909778,-0.002554787209565534
-0.07366915298477829,0.5495585869909778,-0.004572891677849157
-0.07364107298477829,0.5495585869909778,0.002490473961143524
-0.07361299298477829,0.5495585869909778,0.003499526195285335
-0.07358491298477829,0.5495585869909778,-0.006927346890846718
-0.07355683298477829,0.5495585869909778,-0.001209384230709785
-0.07352875298477829,0.5495585869909778,-0.002554787209565534
-0.07350067298477829,0.5495585869909778,-0.009281802103844277
-0.07347259298477829,0.5495585869909778,0.0008087202375738378
-0.07344451298477829,0.5495585869909778,-0.004572891677849157
-0.07341643298477829,0.5495585869909778,0.0004723694928599007
-0.07338835298477829,0.5495585869909778,0.002154123216429586
-0.07336027298477829,0.5495585869909778,0.002490473961143524
-0.07333219298477829,0.5495585869909778,0.001817772471715649
-0.07330411298477829,0.5495585869909778,-0.004909242422563094
-0.07327603298477829,0.5495585869909778,-0.007936399124988528
-0.07324795298477829,0.5495585869909778,-0.001209384230709785
-0.07321987298477829,0.5495585869909778,0.003835876939999273
-0.07319179298477829,0.5495585869909778,-0.009281802103844277
-0.07316371298477829,0.549896719107702,0.003835876939999273
-0.07313563298477829,0.5495585869909778,0.004844929174141084
-0.07310755298477829,0.549896719107702,-0.00659099614613278
-0.07307947298477829,0.5495585869909778,0.0001360187481459635
-0.07305139298477829,0.5495585869909778,-0.002554787209565534
-0.07302331298477829,0.549896719107702,-0.004572891677849157
-0.07299523298477829,0.5495585869909778,0.002826824705857461
-0.07296715298477829,0.5495585869909778,-0.005245593167277031
-0.07293907298477829,0.5495585869909778,-0.005918294656704906
-0.07291099298477829,0.5495585869909778,0.006190332152996833
-0.07288291298477829,0.5495585869909778,-0.000873033485995848
-0.07285483298477829,0.5495585869909778,-0.00894545135913034
-0.0728267529847783,0.549896719107702,0.006863033642424707
-0.0727986729847783,0.5495585869909778,0.003163175450571398
-0.0727705929847783,0.5495585869909778,-0.01264530955098365
-0.0727425129847783,0.5495585869909778,0.001817772471715649
-0.0727144329847783,0.5495585869909778,-0.001882085720137659
-0.0726863529847783,0.5495585869909778,0.001817772471715649
-0.0726582729847783,0.5495585869909778,0.003163175450571398
-0.0726301929847783,0.5495585869909778,-0.000873033485995848
-0.0726021129847783,0.5495585869909778,-0.006254645401418843
-0.0725740329847783,0.5495585869909778,0.002490473961143524
-0.0725459529847783,0.5495585869909778,-0.006254645401418843
-0.0725178729847783,0.5495585869909778,-0.005581943911990969
-0.0724897929847783,0.5495585869909778,-0.006927346890846106
-0.0724617129847783,0.5498967191077019,-0.002218436464853738
-0.07243363298477828,0.5495585869909779,0.001817772471712743
-0.07240555298477828,0.5498967191077019,-0.004572891677847933
-0.07237747298477828,0.5495585869909778,-0.001882085720135671
-0.07234939298477829,0.5495585869909778,0.002490473961143524
-0.07232131298477829,0.5495585869909778,-0.005245593167277031
-0.07229323298477829,0.5495585869909778,-0.001882085720137659
-0.07226515298477829,0.549896719107702,0.003499526195285335
-0.07223707298477829,0.549896719107702,-0.005918294656704906
-0.07220899298477829,0.549896719107702,-0.002218436464851597
-0.07218091298477829,0.549896719107702,0.004508578429427147
-0.07215283298477829,0.549896719107702,-0.003563839443707346
-0.07212475298477829,0.5495585869909778,0.008208436621280455
-0.07209667298477829,0.549896719107702,-0.003563839443707346
-0.07206859298477829,0.5495585869909778,-0.005245593167277031
-0.07204051298477829,0.5495585869909778,-0.008272749869702466
-0.07201243298477829,0.5495585869909778,0.003163175450571398
-0.07198435298477829,0.5495585869909778,0.004844929174141084
-0.07195627298477829,0.5495585869909778,-0.01029085433798609
-0.07192819298477829,0.5495585869909778,0.00888113811070833
-0.07190011298477829,0.5495585869909778,-0.007600048380274592
-0.07187203298477829,0.5495585869909778,-0.008272749869702466
-0.07184395298477829,0.5495585869909778,-0.001209384230709785
-0.07181587298477829,0.5495585869909778,-0.001545734975423722
-0.07178779298477829,0.5495585869909778,0.002154123216429586
-0.07175971298477829,0.5495585869909778,-0.005581943911990969
-0.07173163298477829,0.5495585869909778,0.0004723694928599007
-0.07170355298477829,0.5495585869909778,-0.003227488698993408
-0.07167547298477829,0.5495585869909778,-0.003563839443707346
-0.07164739298477829,0.5495585869909778,0.0008087202375738378
-0.07161931298477829,0.5495585869909778,0.002154123216429586
-0.07159123298477829,0.5495585869909778,0.001817772471715649
-0.07156315298477829,0.5495585869909778,-0.005918294656704906
-0.07153507298477829,0.5495585869909778,-0.003563839443707346
-0.07150699298477829,0.5495585869909778,-0.003900190188421282
-0.07147891298477829,0.549896719107702,0.003835876939999273
-0.07145083298477829,0.549896719107702,-0.005581943911990969
-0.07142275298477829,0.5495585869909778,0.002154123216429586
-0.07139467298477829,0.5495585869909778,-0.002218436464851597
-0.07136659298477829,0.5495585869909778,-0.002554787209565534
-0.07133851298477829,0.549896719107702,-0.005245593167277031
-0.07131043298477829,0.549896719107702,0.002154123216429586
-0.07128235298477829,0.5495585869909778,0.007535735131852582
-0.07125427298477829,0.5495585869909778,-0.007936399124988528
-0.07122619298477829,0.549896719107702,-0.002218436464851597
-0.07119811298477829,0.5495585869909778,-0.002554787209565534
-0.07117003298477829,0.5495585869909778,-0.00659099614613278
-0.07114195298477829,0.5495585869909778,0.004172227684713209
-0.0711138729847783,0.5495585869909778,0.001481421727001712
-0.0710857929847783,0.5495585869909778,-0.0002003319965679737
-0.0710577129847783,0.549896719107702,-0.004572891677849157
-0.0710296329847783,0.549896719107702,-0.002554787209565534
-0.0710015529847783,0.5495585869909778,-0.00894545135913034
-0.0709734729847783,0.5495585869909778,0.002154123216429586
-0.0709453929847783,0.5495585869909778,0.0008087202375738378
-0.0709173129847783,0.5495585869909778,-0.002554787209565534
-0.0708892329847783,0.5495585869909778,-0.005245593167277031
-0.0708611529847783,0.5495585869909778,-0.003900190188421282
-0.0708330729847783,0.5495585869909778,0.005181279918855021
-0.0708049929847783,0.5495585869909778,-0.001882085720137659
-0.0707769129847783,0.5495585869909778,0.00047236949285883
-0.0707488329847783,0.5495585869909778,-0.0008730334859952361
-0.07072075298477828,0.5495585869909778,-0.006927346890843047
-0.07069267298477828,0.5495585869909778,0.001145070982282269
-0.07066459298477828,0.5495585869909778,-0.01096355582741045
-0.07063651298477829,0.5495585869909778,-0.003227488698993408
-0.07060843298477829,0.5495585869909778,0.0004723694928599007
-0.07058035298477829,0.5495585869909778,0.00888113811070833
-0.07055227298477829,0.5495585869909778,-0.01331801104041152
-0.07052419298477829,0.5495585869909778,-0.0005366827412819109
-0.07049611298477829,0.5495585869909778,0.0001360187481459635
-0.07046803298477829,0.5495585869909778,-0.003900190188421282
-0.07043995298477829,0.5495585869909778,0.002490473961143524
-0.07041187298477829,0.5495585869909778,-0.0002003319965679737
-0.07038379298477829,0.5495585869909778,-0.008609100614416403
-0.07035571298477829,0.5495585869909778,0.0004723694928599007
-0.07032763298477829,0.5495585869909778,0.0001360187481459635
-0.07029955298477829,0.5495585869909778,-0.007263697635560655
-0.07027147298477829,0.5495585869909778,0.002154123216429586
-0.07024339298477829,0.5495585869909778,0.002154123216429586
-0.07021531298477829,0.5495585869909778,0.003835876939999273
-0.07018723298477829,0.5495585869909778,-0.003900190188421282
-0.07015915298477829,0.5495585869909778,-0.0005366827412819109
-0.07013107298477829,0.5495585869909778,-0.01096355582741396
-0.07010299298477829,0.5495585869909778,0.00652668289771077
-0.07007491298477829,0.5495585869909778,-0.007263697635560655
-0.07004683298477829,0.5495585869909778,-0.004909242422563094
-0.07001875298477829,0.5495585869909778,0.006863033642424707
-0.06999067298477829,0.5495585869909778,-0.009618152848558215
-0.06996259298477829,0.5495585869909778,-0.005581943911990969
-0.06993451298477829,0.5495585869909778,0.009217488855422267
-0.06990643298477829,0.5495585869909778,-0.007600048380274592
-0.06987835298477829,0.5495585869909778,-0.001882085720137659
-0.06985027298477829,0.5495585869909778,0.004172227684713209
-0.06982219298477829,0.5495585869909778,-0.01298166029569759
-0.06979411298477829,0.5495585869909778,-0.004909242422563094
-0.06976603298477829,0.5495585869909778,0.01056289183427802
-0.06973795298477829,0.5495585869909778,-0.003227488698993408
-0.06970987298477829,0.5495585869909778,-0.007600048380274592
-0.06968179298477829,0.5495585869909778,-0.006254645401418843
-0.06965371298477829,0.5495585869909778,-0.000873033485995848
-0.06962563298477829,0.549896719107702,-0.002218436464851597
-0.06959755298477829,0.549896719107702,-0.001209384230709785
-0.06956947298477829,0.5495585869909778,-0.0002003319965679737
-0.06954139298477829,0.5495585869909778,-0.002891137954279471
-0.06951331298477829,0.5495585869909778,-0.002891137954279471
-0.06948523298477829,0.5495585869909778,-0.000873033485995848
-0.06945715298477829,0.5495585869909778,-0.002218436464851597
-0.0694290729847783,0.5495585869909778,-0.004909242422563094
-0.0694009929847783,0.549896719107702,0.003499526195285335
-0.0693729129847783,0.5495585869909778,-0.005245593167277031
-0.0693448329847783,0.5495585869909778,-0.003563839443707346
-0.0693167529847783,0.5495585869909778,0.003835876939999273
-0.0692886729847783,0.5495585869909778,0.002490473961143524
-0.0692605929847783,0.5495585869909778,-0.002218436464851597
-0.0692325129847783,0.5495585869909778,-0.002218436464851597
-0.0692044329847783,0.5495585869909778,-0.004572891677849157
-0.0691763529847783,0.5495585869909778,-0.005245593167277031
-0.0691482729847783,0.5495585869909778,0.003163175450571398
-0.0691201929847783,0.549896719107702,-0.0112999065721279
-0.0690921129847783,0.5495585869909779,0.001817772471709684
-0.0690640329847783,0.5495585869909778,0.006863033642422413
-0.0690359529847783,0.5495585869909778,-0.01399071252982991
-0.06900787298477828,0.5495585869909779,-0.0005366827412790048
-0.06897979298477828,0.549896719107702,0.005853981408275095
